################################################################################
# Neural network connection values (weights and biases).
################################################################################
# Col  Name       Description
################################################################################
# 1    connection Neural network connection value.
# 2    t          Connection type (a = weight, b = bias).
# 3    index      Index enumerating weights.
# 4    l_s        Starting point layer (end point layer for biases).
# 5    n_s        Starting point neuron in starting layer (end point neuron for biases).
# 6    l_e        End point layer.
# 7    n_e        End point neuron in end layer.
################################################################################
#                      1 2         3     4     5     6     7
#             connection t     index   l_s   n_s   l_e   n_e
############################################################
 -1.2791149194125748E-01 a         1     0     1     1     1
  1.3055821145156782E-01 a         2     0     1     1     2
  2.9330191681956608E-01 a         3     0     1     1     3
 -1.2457961465913079E-02 a         4     0     1     1     4
  3.6329628559441279E-01 a         5     0     1     1     5
  3.6026446307182197E-01 a         6     0     1     1     6
  4.2140792131161348E-01 a         7     0     1     1     7
  5.3900388916407549E-01 a         8     0     1     1     8
  5.6126018036111856E-02 a         9     0     1     1     9
 -2.7007243533117392E-01 a        10     0     1     1    10
  1.7988638401721710E-01 a        11     0     1     1    11
 -1.4642561036954702E-01 a        12     0     1     1    12
  1.9404167556983937E-01 a        13     0     1     1    13
 -4.5471371916755593E-01 a        14     0     1     1    14
 -3.1131843707072109E-02 a        15     0     1     1    15
 -3.0404473968775009E-01 a        16     0     1     1    16
 -5.8103349625520676E-02 a        17     0     1     1    17
  3.3622608524727737E-01 a        18     0     1     1    18
  2.4085592004206466E-01 a        19     0     1     1    19
  1.5604269941387419E-01 a        20     0     1     1    20
 -7.1066309830835062E-02 a        21     0     2     1     1
  3.1196908387423355E-01 a        22     0     2     1     2
  2.6736605018618459E-01 a        23     0     2     1     3
 -2.0441278535275723E-01 a        24     0     2     1     4
  1.3466865852839982E-01 a        25     0     2     1     5
  1.3617773917258354E-02 a        26     0     2     1     6
  2.5604675594340914E-01 a        27     0     2     1     7
 -4.0412453972640872E-02 a        28     0     2     1     8
  3.4814967754372639E-01 a        29     0     2     1     9
  2.3719557979491432E-01 a        30     0     2     1    10
 -3.7901144544724258E-01 a        31     0     2     1    11
  5.3964198824868040E-02 a        32     0     2     1    12
 -3.8298406282803892E-02 a        33     0     2     1    13
  3.6340496808491918E-01 a        34     0     2     1    14
 -4.5567966726525549E-01 a        35     0     2     1    15
 -4.1307008879603158E-01 a        36     0     2     1    16
 -2.8676976138886051E-01 a        37     0     2     1    17
  1.5353882075734424E-01 a        38     0     2     1    18
  3.7574341257208588E-01 a        39     0     2     1    19
  2.0329876880432871E-01 a        40     0     2     1    20
  3.7286932490377220E-02 a        41     0     3     1     1
 -4.0880663346440294E-01 a        42     0     3     1     2
  1.1334408794923892E-01 a        43     0     3     1     3
  3.5526894301622525E-01 a        44     0     3     1     4
 -4.8243599644244767E-02 a        45     0     3     1     5
 -1.8572528719632889E-01 a        46     0     3     1     6
 -3.9315744838107097E-01 a        47     0     3     1     7
  2.0155687765717870E-01 a        48     0     3     1     8
  1.2865199721596957E-01 a        49     0     3     1     9
  3.1887255757899147E-01 a        50     0     3     1    10
  1.9432041329442309E-01 a        51     0     3     1    11
  2.0964703826421405E-02 a        52     0     3     1    12
 -1.8811819630183893E-01 a        53     0     3     1    13
 -3.2146756848582141E-02 a        54     0     3     1    14
  1.1068545283327146E-01 a        55     0     3     1    15
 -1.0552864026642113E-03 a        56     0     3     1    16
  3.4308385497672789E-01 a        57     0     3     1    17
  3.6814398977986701E-01 a        58     0     3     1    18
  7.9387148922876460E-02 a        59     0     3     1    19
 -3.1382052086859330E-01 a        60     0     3     1    20
 -1.8369179038397715E-01 a        61     0     4     1     1
  1.3353574118812228E-01 a        62     0     4     1     2
  1.9046485770533461E-01 a        63     0     4     1     3
  1.2290261137441585E-01 a        64     0     4     1     4
  2.3077389736237525E-01 a        65     0     4     1     5
  2.1476658176486954E-01 a        66     0     4     1     6
 -2.2415677563738529E-01 a        67     0     4     1     7
  1.3710208797951581E-01 a        68     0     4     1     8
  1.1078086358242032E-02 a        69     0     4     1     9
 -9.7135781123225753E-02 a        70     0     4     1    10
  2.4113096536624204E-01 a        71     0     4     1    11
  2.2323517610649443E-01 a        72     0     4     1    12
  2.1487601121615119E-01 a        73     0     4     1    13
 -4.0418158416144329E-01 a        74     0     4     1    14
  3.8188165905155208E-01 a        75     0     4     1    15
  1.6446734662435036E-01 a        76     0     4     1    16
  3.2724424711036698E-01 a        77     0     4     1    17
 -9.6728102777977765E-03 a        78     0     4     1    18
 -1.0614794145616363E-01 a        79     0     4     1    19
  6.7693523534254452E-02 a        80     0     4     1    20
  3.2233212346846056E-02 a        81     0     5     1     1
  1.3314080246798982E-01 a        82     0     5     1     2
  2.6417771383320360E-01 a        83     0     5     1     3
 -4.1317353587136746E-01 a        84     0     5     1     4
  2.3193870981355844E-01 a        85     0     5     1     5
  4.0031300086569721E-01 a        86     0     5     1     6
  7.5053762677166458E-02 a        87     0     5     1     7
 -2.2274628603342592E-02 a        88     0     5     1     8
  2.3282080385643021E-02 a        89     0     5     1     9
 -3.1122985772212797E-01 a        90     0     5     1    10
 -2.2101156406921740E-01 a        91     0     5     1    11
  3.8366421631152330E-02 a        92     0     5     1    12
  1.1095413880109573E-01 a        93     0     5     1    13
 -3.5448134068963710E-01 a        94     0     5     1    14
  7.1478345054662190E-02 a        95     0     5     1    15
 -1.6816976729512989E-01 a        96     0     5     1    16
  9.6972087425616138E-02 a        97     0     5     1    17
 -2.0737381484832984E-01 a        98     0     5     1    18
 -2.4204559684449720E-01 a        99     0     5     1    19
 -1.1943178351140056E-01 a       100     0     5     1    20
  3.0390720369036611E-01 a       101     0     6     1     1
 -9.6266699681470433E-02 a       102     0     6     1     2
  2.2353807346422921E-01 a       103     0     6     1     3
 -4.2475134419094179E-01 a       104     0     6     1     4
  2.4866253257782142E-01 a       105     0     6     1     5
 -9.3811947900996843E-03 a       106     0     6     1     6
 -6.9549566221312670E-02 a       107     0     6     1     7
  2.6367818233723828E-01 a       108     0     6     1     8
 -4.3076867897104049E-01 a       109     0     6     1     9
 -1.0821187422991912E-01 a       110     0     6     1    10
  1.3522425419789832E-01 a       111     0     6     1    11
 -4.5561120164385786E-02 a       112     0     6     1    12
  2.8418793292587741E-01 a       113     0     6     1    13
  1.7505111354029082E-01 a       114     0     6     1    14
 -3.4721760265454493E-01 a       115     0     6     1    15
 -2.6051660020571105E-01 a       116     0     6     1    16
  3.2119222577619311E-01 a       117     0     6     1    17
  1.9666765457306473E-01 a       118     0     6     1    18
 -5.2292052601548539E-02 a       119     0     6     1    19
  1.3105282894070042E-01 a       120     0     6     1    20
  5.8467157443820956E-03 a       121     0     7     1     1
 -1.5865455251069827E-01 a       122     0     7     1     2
  3.0165088920620764E-01 a       123     0     7     1     3
  3.1160980652816039E-01 a       124     0     7     1     4
  1.5486469780881240E-01 a       125     0     7     1     5
  9.0601550836716296E-02 a       126     0     7     1     6
  2.8661447029899140E-01 a       127     0     7     1     7
  3.6516604191064872E-01 a       128     0     7     1     8
 -1.3810170064179193E-02 a       129     0     7     1     9
 -1.8851621184798412E-01 a       130     0     7     1    10
  3.6553939353045845E-01 a       131     0     7     1    11
 -3.2511728801451745E-01 a       132     0     7     1    12
 -4.1972092922120063E-02 a       133     0     7     1    13
  2.5405378031245368E-01 a       134     0     7     1    14
  1.4521926860792525E-01 a       135     0     7     1    15
 -2.2948495490644788E-01 a       136     0     7     1    16
 -3.4061420220577110E-01 a       137     0     7     1    17
 -7.0896123181466209E-02 a       138     0     7     1    18
 -1.2655482810049254E-01 a       139     0     7     1    19
 -3.2002054544212039E-01 a       140     0     7     1    20
  2.5063008357828025E-02 a       141     0     8     1     1
  1.7342857824206168E-01 a       142     0     8     1     2
 -2.6624909036396194E-01 a       143     0     8     1     3
 -1.0125811125228949E-01 a       144     0     8     1     4
 -4.1284968600708747E-04 a       145     0     8     1     5
 -3.1442598875920436E-01 a       146     0     8     1     6
  2.9654432663758903E-02 a       147     0     8     1     7
  1.7314385702185681E-01 a       148     0     8     1     8
  1.4767767314058480E-01 a       149     0     8     1     9
  1.4594965158716014E-01 a       150     0     8     1    10
  1.3278785485279446E-01 a       151     0     8     1    11
  6.6167819881152265E-02 a       152     0     8     1    12
  3.0391862124012731E-01 a       153     0     8     1    13
  2.4880617148621059E-01 a       154     0     8     1    14
  7.3960568756912676E-02 a       155     0     8     1    15
  1.6607157805599921E-02 a       156     0     8     1    16
 -4.5705382367674713E-01 a       157     0     8     1    17
 -1.6873047240194519E-01 a       158     0     8     1    18
 -3.5506115165180385E-01 a       159     0     8     1    19
 -4.7883067019441078E-01 a       160     0     8     1    20
 -1.8340734074445860E-02 a       161     0     9     1     1
  1.9265335262845695E-01 a       162     0     9     1     2
  8.2098333057367925E-02 a       163     0     9     1     3
 -3.5823431093916130E-01 a       164     0     9     1     4
  3.6467509909993057E-01 a       165     0     9     1     5
 -2.9033539989836776E-01 a       166     0     9     1     6
 -1.3489795311971314E-02 a       167     0     9     1     7
  1.9479075140232641E-01 a       168     0     9     1     8
 -2.4260307690195379E-01 a       169     0     9     1     9
 -2.9621626822220931E-01 a       170     0     9     1    10
 -2.3618403078108263E-02 a       171     0     9     1    11
  3.8535856814604125E-01 a       172     0     9     1    12
  3.3057309153366071E-01 a       173     0     9     1    13
 -2.1722385204769132E-01 a       174     0     9     1    14
 -9.6768097893054732E-03 a       175     0     9     1    15
  8.4992826741829619E-02 a       176     0     9     1    16
  4.3109142440426684E-01 a       177     0     9     1    17
  2.3040552171747192E-01 a       178     0     9     1    18
 -1.6199595771283659E-01 a       179     0     9     1    19
 -1.1809994553691443E-01 a       180     0     9     1    20
 -2.2827680709577378E-01 a       181     0    10     1     1
  1.0863760584649870E-02 a       182     0    10     1     2
 -3.9155999584389943E-02 a       183     0    10     1     3
  2.1844202431777683E-02 a       184     0    10     1     4
  8.7385434528504585E-02 a       185     0    10     1     5
 -3.5962750031797236E-01 a       186     0    10     1     6
 -8.5080406599946590E-02 a       187     0    10     1     7
 -1.6534063925626877E-01 a       188     0    10     1     8
  1.8060308120502694E-01 a       189     0    10     1     9
  1.4554534303528607E-01 a       190     0    10     1    10
  6.4026020208417342E-02 a       191     0    10     1    11
  1.6014017682868982E-03 a       192     0    10     1    12
 -1.6873717418702350E-01 a       193     0    10     1    13
 -2.1147994003616913E-01 a       194     0    10     1    14
  1.1779101931827957E-01 a       195     0    10     1    15
  1.1909046398214539E-02 a       196     0    10     1    16
  1.5459545291397725E-01 a       197     0    10     1    17
 -8.6068580870398925E-02 a       198     0    10     1    18
  3.0126722749421164E-01 a       199     0    10     1    19
  3.5655282870661870E-01 a       200     0    10     1    20
  1.5652536780758336E-01 a       201     0    11     1     1
 -8.8762009816781784E-02 a       202     0    11     1     2
  1.4535333132417452E-01 a       203     0    11     1     3
 -3.7629351558488809E-02 a       204     0    11     1     4
 -3.7929813314791933E-01 a       205     0    11     1     5
 -7.6486485786784644E-02 a       206     0    11     1     6
  3.9953356550484609E-01 a       207     0    11     1     7
  2.2433305348186536E-01 a       208     0    11     1     8
  1.7440580081102783E-01 a       209     0    11     1     9
 -2.2249243825832621E-01 a       210     0    11     1    10
  1.7419242805829083E-01 a       211     0    11     1    11
 -5.8813550900397871E-01 a       212     0    11     1    12
  2.2183749342384118E-01 a       213     0    11     1    13
  2.4235852133521610E-01 a       214     0    11     1    14
 -1.5411223973799706E-01 a       215     0    11     1    15
  1.1323455892596623E-01 a       216     0    11     1    16
 -2.4083960568277409E-02 a       217     0    11     1    17
 -1.0508927110894059E-01 a       218     0    11     1    18
  2.9727766530033336E-02 a       219     0    11     1    19
 -2.7870961027535479E-01 a       220     0    11     1    20
  3.2848396668301172E-01 a       221     0    12     1     1
 -1.5428824165962429E-01 a       222     0    12     1     2
 -2.5439039013148823E-01 a       223     0    12     1     3
 -5.1623584338650226E-02 a       224     0    12     1     4
 -2.4455349757580755E-01 a       225     0    12     1     5
  2.7914223460132814E-01 a       226     0    12     1     6
 -3.2725993232149736E-01 a       227     0    12     1     7
  3.3341910617592807E-01 a       228     0    12     1     8
  2.0713800303757465E-01 a       229     0    12     1     9
  6.1009107900199713E-02 a       230     0    12     1    10
  3.4844076065710183E-01 a       231     0    12     1    11
 -1.4461018815812852E-02 a       232     0    12     1    12
  1.2167204624192917E-02 a       233     0    12     1    13
  1.7598000665456490E-01 a       234     0    12     1    14
 -1.4421785611199792E-01 a       235     0    12     1    15
 -3.3817935712717856E-01 a       236     0    12     1    16
  4.5545561324555076E-02 a       237     0    12     1    17
  1.3271664495556987E-01 a       238     0    12     1    18
 -7.6442661742340087E-02 a       239     0    12     1    19
  1.9499323935425256E-01 a       240     0    12     1    20
 -1.2323894623966158E-01 a       241     0    13     1     1
  2.1511703668699239E-01 a       242     0    13     1     2
  1.5399765964920925E-01 a       243     0    13     1     3
  1.3015143826253367E-01 a       244     0    13     1     4
  7.4343155044581388E-02 a       245     0    13     1     5
 -1.9155404935307466E-01 a       246     0    13     1     6
 -2.2651125892782989E-01 a       247     0    13     1     7
 -2.8855439184246012E-01 a       248     0    13     1     8
 -2.3699392750014772E-02 a       249     0    13     1     9
  2.7659098304907176E-01 a       250     0    13     1    10
 -3.1642869187253153E-01 a       251     0    13     1    11
 -1.1575491694782213E-01 a       252     0    13     1    12
 -2.9163474566260780E-02 a       253     0    13     1    13
 -3.7493414260480751E-01 a       254     0    13     1    14
 -1.3516322366941960E-01 a       255     0    13     1    15
  4.9313973731241395E-01 a       256     0    13     1    16
 -5.6340212302193757E-02 a       257     0    13     1    17
  2.7962378316162235E-02 a       258     0    13     1    18
 -3.1199740787665597E-01 a       259     0    13     1    19
  3.1201270405681514E-01 a       260     0    13     1    20
  5.2889258951005554E-02 a       261     0    14     1     1
  1.8624947370612374E-01 a       262     0    14     1     2
 -3.3966779732019869E-01 a       263     0    14     1     3
 -1.7659691532561517E-01 a       264     0    14     1     4
  1.7688350928735858E-01 a       265     0    14     1     5
  2.3912407187647292E-01 a       266     0    14     1     6
  3.0324215014332561E-02 a       267     0    14     1     7
 -3.8876552666253056E-01 a       268     0    14     1     8
 -4.7326506684221059E-01 a       269     0    14     1     9
  2.0652991973725046E-01 a       270     0    14     1    10
 -2.5548325950069928E-01 a       271     0    14     1    11
  3.5335622604113093E-01 a       272     0    14     1    12
 -8.8913915827181014E-02 a       273     0    14     1    13
  3.7128433574850406E-02 a       274     0    14     1    14
  1.6372075321599674E-02 a       275     0    14     1    15
 -4.5018920910663157E-01 a       276     0    14     1    16
 -2.2432293223904245E-02 a       277     0    14     1    17
 -3.7126552070619967E-01 a       278     0    14     1    18
  2.4224078881217792E-01 a       279     0    14     1    19
 -4.9661228879852158E-02 a       280     0    14     1    20
  3.7157116309646535E-02 a       281     0    15     1     1
 -2.1563981147127323E-01 a       282     0    15     1     2
  3.1759711893997788E-01 a       283     0    15     1     3
  4.3389535450960616E-02 a       284     0    15     1     4
  1.6480286930792348E-01 a       285     0    15     1     5
 -4.9763140037182474E-01 a       286     0    15     1     6
  1.8734729789066998E-01 a       287     0    15     1     7
 -9.2980730773382370E-02 a       288     0    15     1     8
 -3.5512786629361254E-01 a       289     0    15     1     9
  1.5754386103660967E-01 a       290     0    15     1    10
  2.0205110060124223E-01 a       291     0    15     1    11
  9.2656545725041575E-02 a       292     0    15     1    12
  4.7187508044529728E-03 a       293     0    15     1    13
 -6.3547686891417446E-02 a       294     0    15     1    14
  1.6472376841075281E-01 a       295     0    15     1    15
  3.6284016009327857E-01 a       296     0    15     1    16
  7.6701866498689278E-02 a       297     0    15     1    17
 -1.5526545530131147E-01 a       298     0    15     1    18
  3.8627455883204170E-01 a       299     0    15     1    19
  3.5895827915212242E-01 a       300     0    15     1    20
 -7.6700775146721661E-02 a       301     0    16     1     1
  9.2202712973252360E-02 a       302     0    16     1     2
 -9.5282814531758769E-02 a       303     0    16     1     3
 -1.5089847979320270E-01 a       304     0    16     1     4
  1.2666715757484615E-01 a       305     0    16     1     5
  1.6239789220161380E-01 a       306     0    16     1     6
 -1.1432393081556853E-01 a       307     0    16     1     7
 -3.8506634873885709E-01 a       308     0    16     1     8
  3.0356612602040528E-01 a       309     0    16     1     9
  3.2284060151745192E-01 a       310     0    16     1    10
 -3.7125571603759844E-01 a       311     0    16     1    11
 -2.4401359877101479E-02 a       312     0    16     1    12
 -1.6828699585630102E-01 a       313     0    16     1    13
  1.9493056947582008E-01 a       314     0    16     1    14
 -4.0276815320992188E-01 a       315     0    16     1    15
 -3.4144102294001888E-01 a       316     0    16     1    16
  1.8798537279345599E-02 a       317     0    16     1    17
 -3.4923726871910798E-01 a       318     0    16     1    18
  1.1331145040586056E-01 a       319     0    16     1    19
  4.2218292872671051E-02 a       320     0    16     1    20
  2.2676834893080314E-01 a       321     0    17     1     1
 -1.4801883585497971E-01 a       322     0    17     1     2
 -1.1052249643385878E-02 a       323     0    17     1     3
  1.2245468893281335E-01 a       324     0    17     1     4
 -1.1280525948381253E-02 a       325     0    17     1     5
  2.4183189695955598E-01 a       326     0    17     1     6
 -4.4701810351542193E-02 a       327     0    17     1     7
  2.4404511123884656E-01 a       328     0    17     1     8
 -8.3811346453603747E-02 a       329     0    17     1     9
  2.1412030341962634E-02 a       330     0    17     1    10
  1.8859074329104533E-01 a       331     0    17     1    11
 -1.8212355971985320E-01 a       332     0    17     1    12
  1.1254671974439701E-01 a       333     0    17     1    13
  2.5487166525666564E-02 a       334     0    17     1    14
  7.7283989593163613E-02 a       335     0    17     1    15
 -3.1406280650015317E-01 a       336     0    17     1    16
 -8.3906257451624625E-02 a       337     0    17     1    17
  3.9706387556306683E-01 a       338     0    17     1    18
 -3.6104055676831570E-01 a       339     0    17     1    19
  2.4384570314703782E-02 a       340     0    17     1    20
  1.3339029484559994E-01 a       341     0    18     1     1
  1.8064913643643266E-02 a       342     0    18     1     2
 -1.2089737032924078E-02 a       343     0    18     1     3
 -1.5592314410781682E-01 a       344     0    18     1     4
 -6.5626735956611559E-02 a       345     0    18     1     5
  3.3066465546687518E-01 a       346     0    18     1     6
  5.1143680692167730E-02 a       347     0    18     1     7
  1.2718219391675289E-01 a       348     0    18     1     8
 -3.5771753243627430E-01 a       349     0    18     1     9
  4.0258364232551712E-02 a       350     0    18     1    10
  1.8279612512006632E-01 a       351     0    18     1    11
 -2.5102687884702085E-01 a       352     0    18     1    12
  7.5263795014436266E-02 a       353     0    18     1    13
  6.0478258815191061E-02 a       354     0    18     1    14
  7.8058394680392176E-02 a       355     0    18     1    15
  3.8437516690758350E-01 a       356     0    18     1    16
  2.7124153267939860E-01 a       357     0    18     1    17
 -2.4083955781960117E-01 a       358     0    18     1    18
 -4.0359564045098079E-03 a       359     0    18     1    19
  1.6977618861972019E-01 a       360     0    18     1    20
 -1.4933003169094683E-01 a       361     0    19     1     1
  1.1556351977381269E-02 a       362     0    19     1     2
 -5.1329137142541968E-03 a       363     0    19     1     3
 -2.6514920558261740E-01 a       364     0    19     1     4
 -1.2439569727090914E-01 a       365     0    19     1     5
 -2.4909055104270858E-01 a       366     0    19     1     6
  1.1802638942230752E-01 a       367     0    19     1     7
 -2.5922781758449409E-01 a       368     0    19     1     8
  4.3909284397899956E-02 a       369     0    19     1     9
 -2.2018185671433044E-01 a       370     0    19     1    10
 -3.2078650366095962E-01 a       371     0    19     1    11
 -7.4937637124252471E-02 a       372     0    19     1    12
  9.2948517531507666E-02 a       373     0    19     1    13
  5.8226426550914985E-02 a       374     0    19     1    14
 -4.1260186549734165E-02 a       375     0    19     1    15
 -2.2987979709550321E-01 a       376     0    19     1    16
  1.3361114480507991E-01 a       377     0    19     1    17
 -2.9481521798132049E-01 a       378     0    19     1    18
  6.7554104525256078E-02 a       379     0    19     1    19
  7.6464494552971898E-02 a       380     0    19     1    20
  3.1597253746228397E-02 a       381     0    20     1     1
  3.2866649169685852E-01 a       382     0    20     1     2
 -2.7322929333106144E-01 a       383     0    20     1     3
 -3.8680871157167562E-02 a       384     0    20     1     4
  7.1214286164487259E-02 a       385     0    20     1     5
 -2.5446900337603745E-01 a       386     0    20     1     6
 -6.7721699117181417E-03 a       387     0    20     1     7
  3.7836466252567341E-01 a       388     0    20     1     8
  1.1403633555700543E-01 a       389     0    20     1     9
  2.5019896459784369E-01 a       390     0    20     1    10
 -4.1005312404189642E-02 a       391     0    20     1    11
  2.7061249242997742E-01 a       392     0    20     1    12
  5.8591069342990354E-02 a       393     0    20     1    13
 -4.7276486864506688E-02 a       394     0    20     1    14
 -3.2949430654875683E-01 a       395     0    20     1    15
 -2.4208389873097580E-01 a       396     0    20     1    16
 -2.5597411358069805E-01 a       397     0    20     1    17
  1.1543026136298774E-02 a       398     0    20     1    18
 -2.6590067641118101E-03 a       399     0    20     1    19
 -4.7757717730911947E-02 a       400     0    20     1    20
  2.9924917745069485E-03 a       401     0    21     1     1
  1.9157374239163685E-01 a       402     0    21     1     2
 -4.2523733038454054E-01 a       403     0    21     1     3
 -9.1505778589764580E-02 a       404     0    21     1     4
 -2.5362710512487674E-01 a       405     0    21     1     5
 -3.0056077340121740E-02 a       406     0    21     1     6
 -1.1362657779448385E-01 a       407     0    21     1     7
  1.5055571226168182E-01 a       408     0    21     1     8
  9.3828961375100675E-02 a       409     0    21     1     9
 -1.9038967448869099E-01 a       410     0    21     1    10
  2.0359826505379156E-01 a       411     0    21     1    11
  2.4297414799486070E-01 a       412     0    21     1    12
 -6.7197343295968007E-02 a       413     0    21     1    13
 -1.6938121369741663E-01 a       414     0    21     1    14
  7.8788445352759959E-02 a       415     0    21     1    15
  3.1563763546637445E-02 a       416     0    21     1    16
 -2.0424998622272095E-01 a       417     0    21     1    17
 -1.3266898664510657E-01 a       418     0    21     1    18
  2.1062227061316569E-01 a       419     0    21     1    19
  2.6292239574145004E-01 a       420     0    21     1    20
  4.0448183088197087E-02 a       421     0    22     1     1
  1.9894079396408797E-02 a       422     0    22     1     2
  2.1058199091628846E-01 a       423     0    22     1     3
  4.1162710439089917E-01 a       424     0    22     1     4
  2.1942870326347236E-01 a       425     0    22     1     5
  3.2711277410166599E-02 a       426     0    22     1     6
  4.3904545018549018E-01 a       427     0    22     1     7
  2.3509670982791128E-01 a       428     0    22     1     8
 -3.4276192793258065E-01 a       429     0    22     1     9
  3.2436371326475610E-01 a       430     0    22     1    10
 -1.5099764912907657E-01 a       431     0    22     1    11
  3.0173581093018736E-01 a       432     0    22     1    12
  4.3829809865816804E-02 a       433     0    22     1    13
  1.7365700282153240E-01 a       434     0    22     1    14
  2.0647442128090096E-01 a       435     0    22     1    15
 -2.6813709893280324E-01 a       436     0    22     1    16
 -2.2479442448193632E-01 a       437     0    22     1    17
  4.2463442902965098E-01 a       438     0    22     1    18
 -2.5680371842651972E-01 a       439     0    22     1    19
  2.1196081293076016E-01 a       440     0    22     1    20
  3.7920044183446072E-01 a       441     0    23     1     1
 -2.1275228836206980E-01 a       442     0    23     1     2
  4.0867777898030183E-01 a       443     0    23     1     3
  9.1131017290292785E-02 a       444     0    23     1     4
 -4.5535805275702657E-01 a       445     0    23     1     5
 -1.8079902576025281E-02 a       446     0    23     1     6
  2.3363643392828709E-01 a       447     0    23     1     7
  2.9959765926248105E-01 a       448     0    23     1     8
 -9.2166268715081184E-02 a       449     0    23     1     9
 -2.9085450201926805E-01 a       450     0    23     1    10
  2.8902035046322866E-01 a       451     0    23     1    11
 -2.8037296025388903E-01 a       452     0    23     1    12
  1.0291202218473497E-01 a       453     0    23     1    13
  3.2807407897962569E-02 a       454     0    23     1    14
  8.0205621284451092E-02 a       455     0    23     1    15
  2.1746008593656782E-01 a       456     0    23     1    16
 -1.5758319595647986E-02 a       457     0    23     1    17
  2.9075902814191451E-01 a       458     0    23     1    18
  7.9374859032980624E-02 a       459     0    23     1    19
  2.7898016568854222E-02 a       460     0    23     1    20
  7.4963901278914582E-03 a       461     0    24     1     1
  2.9275808657298324E-01 a       462     0    24     1     2
 -1.7948108237465493E-02 a       463     0    24     1     3
  2.4403987916080836E-03 a       464     0    24     1     4
 -3.4727055418197367E-01 a       465     0    24     1     5
 -3.3664230202144119E-01 a       466     0    24     1     6
 -2.9196851708998001E-01 a       467     0    24     1     7
 -2.4247909241546761E-01 a       468     0    24     1     8
  3.0004261758926554E-01 a       469     0    24     1     9
  2.1413789569913058E-01 a       470     0    24     1    10
 -2.9081028447996099E-01 a       471     0    24     1    11
  3.3714322061926272E-01 a       472     0    24     1    12
 -2.6939740701423458E-02 a       473     0    24     1    13
  2.0737024164739704E-01 a       474     0    24     1    14
 -3.7819525022872824E-01 a       475     0    24     1    15
 -8.6170308678746324E-02 a       476     0    24     1    16
  5.0062715855201612E-01 a       477     0    24     1    17
  2.1451189485790648E-01 a       478     0    24     1    18
  4.3850470228629795E-01 a       479     0    24     1    19
 -3.6025512863951431E-01 a       480     0    24     1    20
 -2.2108907667691177E-01 a       481     0    25     1     1
 -8.9726548015688662E-02 a       482     0    25     1     2
 -4.1080182670247295E-01 a       483     0    25     1     3
  6.8094795250967136E-02 a       484     0    25     1     4
  2.1949223859755554E-01 a       485     0    25     1     5
  6.0014332291097629E-02 a       486     0    25     1     6
 -1.2455385754020648E-03 a       487     0    25     1     7
 -1.9079686756094263E-01 a       488     0    25     1     8
  4.1850291848644172E-01 a       489     0    25     1     9
 -8.8891886976143253E-02 a       490     0    25     1    10
 -2.4916967477984220E-01 a       491     0    25     1    11
 -1.2404886955803503E-01 a       492     0    25     1    12
  5.0233575820744517E-02 a       493     0    25     1    13
 -3.3963139297782530E-01 a       494     0    25     1    14
 -4.2507718503063691E-01 a       495     0    25     1    15
 -1.7116922081699465E-01 a       496     0    25     1    16
 -3.7463937655807222E-01 a       497     0    25     1    17
 -4.2791850618342908E-01 a       498     0    25     1    18
 -1.1445411950559922E-01 a       499     0    25     1    19
  2.8317586343614448E-01 a       500     0    25     1    20
 -2.1259132700165945E-01 a       501     0    26     1     1
  1.8939819141964728E-01 a       502     0    26     1     2
 -2.5063098205769940E-01 a       503     0    26     1     3
 -1.5185285745042471E-01 a       504     0    26     1     4
  2.8889296023430749E-01 a       505     0    26     1     5
  2.0595479326590702E-01 a       506     0    26     1     6
  3.2285085801359950E-03 a       507     0    26     1     7
  2.1422979990106669E-01 a       508     0    26     1     8
 -2.7833254876898311E-01 a       509     0    26     1     9
  1.3848571252078026E-01 a       510     0    26     1    10
  6.5473704499936849E-02 a       511     0    26     1    11
 -7.5399762406133095E-02 a       512     0    26     1    12
 -2.3925623272087046E-01 a       513     0    26     1    13
  2.7081249767591211E-02 a       514     0    26     1    14
  1.3416770246044935E-01 a       515     0    26     1    15
  8.6214870597539767E-03 a       516     0    26     1    16
  1.7751182871747972E-01 a       517     0    26     1    17
  9.4099758350626797E-02 a       518     0    26     1    18
  3.5877058128472850E-01 a       519     0    26     1    19
 -2.0779268958007904E-01 a       520     0    26     1    20
  7.5673322524273237E-02 a       521     0    27     1     1
  2.8382247860898113E-01 a       522     0    27     1     2
 -1.9428483520203302E-01 a       523     0    27     1     3
 -3.9297958444573611E-01 a       524     0    27     1     4
 -9.2154818228065899E-02 a       525     0    27     1     5
 -1.8248280413842157E-02 a       526     0    27     1     6
 -5.3375161365955591E-03 a       527     0    27     1     7
 -3.8055501394638785E-01 a       528     0    27     1     8
  1.6502017082152634E-01 a       529     0    27     1     9
  3.5091916876700824E-01 a       530     0    27     1    10
 -3.9664013273078114E-02 a       531     0    27     1    11
 -1.7669653658737436E-01 a       532     0    27     1    12
  2.4543292571929887E-01 a       533     0    27     1    13
  3.7123931777908292E-01 a       534     0    27     1    14
 -2.8521256363851094E-01 a       535     0    27     1    15
  4.1863874462146877E-01 a       536     0    27     1    16
  3.7084194646954192E-02 a       537     0    27     1    17
 -7.1433420963521566E-02 a       538     0    27     1    18
 -3.4331176261964330E-01 a       539     0    27     1    19
  2.2783698506491087E-02 a       540     0    27     1    20
  9.5789546696937490E-03 a       541     0    28     1     1
 -2.4892047792472141E-01 a       542     0    28     1     2
 -1.2757939930646547E-01 a       543     0    28     1     3
  1.4275685443468425E-01 a       544     0    28     1     4
  1.7507925097284843E-01 a       545     0    28     1     5
  4.9347786232607861E-02 a       546     0    28     1     6
  8.6597490293541496E-02 a       547     0    28     1     7
  2.8036257201101555E-01 a       548     0    28     1     8
 -3.3036719050278779E-01 a       549     0    28     1     9
 -8.7118464848934991E-03 a       550     0    28     1    10
  1.6671017696894375E-01 a       551     0    28     1    11
 -2.6202104062481379E-01 a       552     0    28     1    12
 -2.3664263080407255E-02 a       553     0    28     1    13
  4.8249897276670659E-02 a       554     0    28     1    14
 -1.6279704716276547E-01 a       555     0    28     1    15
  9.7414562653305777E-03 a       556     0    28     1    16
  3.9817915407010518E-01 a       557     0    28     1    17
 -4.8956527130889320E-02 a       558     0    28     1    18
  2.9192532849495079E-01 a       559     0    28     1    19
  4.0258154763820919E-01 a       560     0    28     1    20
 -4.4421228234148021E-02 a       561     0    29     1     1
 -1.2873560044797344E-01 a       562     0    29     1     2
 -3.1181323043041231E-01 a       563     0    29     1     3
  1.7169445407067932E-01 a       564     0    29     1     4
  2.6697116289380829E-01 a       565     0    29     1     5
 -3.4960308458968437E-01 a       566     0    29     1     6
 -2.3173740163086565E-01 a       567     0    29     1     7
 -2.2582073294505650E-02 a       568     0    29     1     8
  1.2069783687616459E-01 a       569     0    29     1     9
  4.7658198081079745E-01 a       570     0    29     1    10
  3.4731297268573164E-01 a       571     0    29     1    11
  3.2268663805905470E-02 a       572     0    29     1    12
 -1.9870219957863858E-01 a       573     0    29     1    13
 -1.9331090636451026E-01 a       574     0    29     1    14
  7.4403031602596981E-02 a       575     0    29     1    15
  1.8418690178050526E-01 a       576     0    29     1    16
 -4.4845519186756377E-01 a       577     0    29     1    17
 -1.6293128167951029E-01 a       578     0    29     1    18
  2.1399593038044704E-01 a       579     0    29     1    19
  7.8165017705396758E-02 a       580     0    29     1    20
 -6.8419848165922476E-03 a       581     0    30     1     1
  6.3386715830451553E-04 a       582     0    30     1     2
 -1.8486950479771025E-01 a       583     0    30     1     3
  4.5726239809574437E-01 a       584     0    30     1     4
  2.7230349258938403E-02 a       585     0    30     1     5
  3.7919999453775083E-01 a       586     0    30     1     6
 -1.2995685529741366E-01 a       587     0    30     1     7
 -2.1921049121489228E-01 a       588     0    30     1     8
 -2.7887259867892622E-01 a       589     0    30     1     9
  6.6776815213852966E-02 a       590     0    30     1    10
 -1.7951523485245674E-01 a       591     0    30     1    11
 -9.0317276641310590E-02 a       592     0    30     1    12
 -4.7201244062673453E-01 a       593     0    30     1    13
  1.4009570860636364E-01 a       594     0    30     1    14
  2.1163861135636683E-01 a       595     0    30     1    15
  2.4865265469878978E-01 a       596     0    30     1    16
  9.0665793196319566E-02 a       597     0    30     1    17
 -3.1787840052830307E-01 a       598     0    30     1    18
 -3.1839124690145554E-01 a       599     0    30     1    19
 -1.7933688232472222E-01 a       600     0    30     1    20
 -9.4751881999551951E-02 a       601     0    31     1     1
 -1.7953163514902226E-01 a       602     0    31     1     2
  1.5818703497124398E-01 a       603     0    31     1     3
 -2.2318933896295276E-01 a       604     0    31     1     4
 -4.6092406084660564E-01 a       605     0    31     1     5
  3.5659589153630022E-01 a       606     0    31     1     6
 -3.4402179287457119E-02 a       607     0    31     1     7
  4.8739116980261184E-02 a       608     0    31     1     8
 -1.0589948593551585E-01 a       609     0    31     1     9
 -3.0554154011519147E-01 a       610     0    31     1    10
 -2.7404331925542114E-01 a       611     0    31     1    11
  4.1771059076959702E-02 a       612     0    31     1    12
  4.7357903172363852E-02 a       613     0    31     1    13
  2.1709010066740994E-01 a       614     0    31     1    14
  4.9900673596874952E-02 a       615     0    31     1    15
 -9.9175254144083277E-02 a       616     0    31     1    16
 -2.3508259808580576E-01 a       617     0    31     1    17
  2.7538272999882152E-01 a       618     0    31     1    18
  2.7321538699447584E-01 a       619     0    31     1    19
  3.9632582441619457E-01 a       620     0    31     1    20
 -1.6770888813618218E-01 a       621     0    32     1     1
  1.3037246649471185E-01 a       622     0    32     1     2
  1.3609029088073030E-01 a       623     0    32     1     3
  1.9884351415270549E-01 a       624     0    32     1     4
 -8.1640299269677016E-02 a       625     0    32     1     5
 -2.1495333939541000E-01 a       626     0    32     1     6
  1.1694014037126911E-01 a       627     0    32     1     7
  3.2463066725555967E-01 a       628     0    32     1     8
  3.8063051753214711E-01 a       629     0    32     1     9
 -3.8158233534630365E-01 a       630     0    32     1    10
  1.4768631386662795E-02 a       631     0    32     1    11
  6.8101274808192641E-02 a       632     0    32     1    12
  8.2687579611583850E-02 a       633     0    32     1    13
  1.1125414144801164E-01 a       634     0    32     1    14
 -7.0953985503555972E-02 a       635     0    32     1    15
 -1.9630417108847767E-01 a       636     0    32     1    16
 -1.1565186917184424E-01 a       637     0    32     1    17
 -1.5985644472147179E-01 a       638     0    32     1    18
  2.2390744161025203E-01 a       639     0    32     1    19
 -3.7794738907660969E-01 a       640     0    32     1    20
 -8.4995678408917211E-02 b       641     1     1
  7.9622410569207058E-01 b       642     1     2
  6.1536285596172802E-01 b       643     1     3
 -1.2587406706285791E+00 b       644     1     4
 -1.5480010706199143E-01 b       645     1     5
  1.1545703571335750E+00 b       646     1     6
  1.4335125465589157E-01 b       647     1     7
  1.0062151236461470E+00 b       648     1     8
  1.4825364816939670E+00 b       649     1     9
 -3.7366958255966159E-01 b       650     1    10
  1.0004205919151847E+00 b       651     1    11
  7.6015598277479446E-01 b       652     1    12
 -3.4367077240406768E-01 b       653     1    13
 -1.1488100737024616E+00 b       654     1    14
 -3.0773498602844535E-01 b       655     1    15
 -1.4695091676108483E+00 b       656     1    16
  1.4552587448492924E+00 b       657     1    17
 -9.6732937172361677E-01 b       658     1    18
  1.5790888330386719E+00 b       659     1    19
  1.6475177372215462E+00 b       660     1    20
  3.7301781704465808E-01 a       661     1     1     2     1
 -1.2082084939274426E-01 a       662     1     1     2     2
  4.4455187965747955E-01 a       663     1     1     2     3
 -2.3064086825584787E-01 a       664     1     1     2     4
  4.5519373797423468E-01 a       665     1     1     2     5
 -9.2424408194865290E-02 a       666     1     1     2     6
  4.6731534865364693E-01 a       667     1     1     2     7
  2.2141898449106433E-02 a       668     1     1     2     8
 -4.1916429118757315E-02 a       669     1     1     2     9
 -2.5476389384659276E-01 a       670     1     1     2    10
  3.1208134148238015E-01 a       671     1     1     2    11
 -1.8814637829764383E-01 a       672     1     1     2    12
  7.4975687759407883E-01 a       673     1     1     2    13
 -6.3871689067099646E-01 a       674     1     1     2    14
  3.1743095656286352E-01 a       675     1     1     2    15
  5.6593223022635947E-02 a       676     1     1     2    16
  5.9017355148010686E-01 a       677     1     1     2    17
  3.2058289963650216E-01 a       678     1     1     2    18
  2.5477222319980503E-01 a       679     1     1     2    19
 -4.1301350960162025E-01 a       680     1     1     2    20
  2.2882673458984124E-01 a       681     1     2     2     1
  3.3228821426646188E-01 a       682     1     2     2     2
 -7.9506526920330181E-02 a       683     1     2     2     3
  5.7319808423516871E-01 a       684     1     2     2     4
  2.7065301357433118E-02 a       685     1     2     2     5
 -7.8342288649762071E-01 a       686     1     2     2     6
  4.1971450255462733E-01 a       687     1     2     2     7
 -1.7916019051112908E-01 a       688     1     2     2     8
  6.5170715207728602E-01 a       689     1     2     2     9
  1.7155683696651994E-01 a       690     1     2     2    10
  4.4938578151043801E-01 a       691     1     2     2    11
 -2.1161472982194593E-01 a       692     1     2     2    12
  2.2900287205100345E-01 a       693     1     2     2    13
  4.4168990176908990E-01 a       694     1     2     2    14
 -1.1765787681761747E-01 a       695     1     2     2    15
  6.9160095705133173E-01 a       696     1     2     2    16
  3.0528964084421212E-02 a       697     1     2     2    17
  2.9030966181231244E-01 a       698     1     2     2    18
 -3.2284366682687149E-01 a       699     1     2     2    19
  3.7706227664717745E-01 a       700     1     2     2    20
  4.5681318360341833E-01 a       701     1     3     2     1
 -3.6527317847128027E-01 a       702     1     3     2     2
  6.1341376925982272E-01 a       703     1     3     2     3
 -1.7311040619502527E-01 a       704     1     3     2     4
  2.9740468657470048E-01 a       705     1     3     2     5
 -2.4499371193466182E-01 a       706     1     3     2     6
 -2.8949512393782756E-01 a       707     1     3     2     7
  4.4449503133654683E-01 a       708     1     3     2     8
  2.9379529781182923E-01 a       709     1     3     2     9
 -4.3402754165840655E-02 a       710     1     3     2    10
 -5.7804066364696849E-01 a       711     1     3     2    11
  4.2884571630985596E-01 a       712     1     3     2    12
 -4.4988845815284806E-01 a       713     1     3     2    13
  4.9367339110711461E-01 a       714     1     3     2    14
  4.2450535611085161E-01 a       715     1     3     2    15
 -5.9710030643424688E-03 a       716     1     3     2    16
  4.9573971192931532E-01 a       717     1     3     2    17
  2.0061102929256092E-01 a       718     1     3     2    18
 -4.4118501194634951E-01 a       719     1     3     2    19
  5.4044579451158958E-01 a       720     1     3     2    20
 -9.1816941757291142E-03 a       721     1     4     2     1
  6.0331702371182083E-01 a       722     1     4     2     2
  1.1412224821317428E-01 a       723     1     4     2     3
  5.8909432466734279E-01 a       724     1     4     2     4
 -2.7455179825944959E-01 a       725     1     4     2     5
  5.6125710632948123E-01 a       726     1     4     2     6
 -2.8584675207307003E-01 a       727     1     4     2     7
  5.3076640251852070E-01 a       728     1     4     2     8
  5.1945988054665726E-01 a       729     1     4     2     9
 -3.3953667849932595E-01 a       730     1     4     2    10
  3.0491442451867584E-01 a       731     1     4     2    11
 -4.2141748185723310E-01 a       732     1     4     2    12
  4.8291094592047674E-02 a       733     1     4     2    13
  4.3052705762516413E-01 a       734     1     4     2    14
  4.3961030266673962E-01 a       735     1     4     2    15
 -1.2075743202848215E-01 a       736     1     4     2    16
 -2.7859691626557387E-01 a       737     1     4     2    17
  4.0665518114785620E-01 a       738     1     4     2    18
  4.0503727285651719E-01 a       739     1     4     2    19
 -3.4086847994049990E-01 a       740     1     4     2    20
 -3.4383828767788593E-01 a       741     1     5     2     1
  4.1766624165072409E-02 a       742     1     5     2     2
 -3.0740191686699159E-01 a       743     1     5     2     3
  3.4913354622781700E-01 a       744     1     5     2     4
 -5.9686840383548034E-01 a       745     1     5     2     5
  7.7034359894793306E-02 a       746     1     5     2     6
 -3.3276240860576384E-01 a       747     1     5     2     7
  2.4992030254056333E-01 a       748     1     5     2     8
 -2.8731298146947232E-01 a       749     1     5     2     9
 -5.9845780980640328E-01 a       750     1     5     2    10
 -1.6075052950512653E-01 a       751     1     5     2    11
  7.5679771378934640E-02 a       752     1     5     2    12
  4.5776787508570266E-01 a       753     1     5     2    13
 -9.8944028061364681E-02 a       754     1     5     2    14
 -3.1871104113961918E-01 a       755     1     5     2    15
  6.4654265497967855E-01 a       756     1     5     2    16
  5.1354204466923248E-01 a       757     1     5     2    17
 -5.1945465277811589E-02 a       758     1     5     2    18
 -5.2064657043043083E-01 a       759     1     5     2    19
 -5.8958222346352129E-01 a       760     1     5     2    20
 -3.1894334096041915E-01 a       761     1     6     2     1
 -3.8481856042282152E-02 a       762     1     6     2     2
  2.5582479562325666E-01 a       763     1     6     2     3
  5.7912515971453464E-02 a       764     1     6     2     4
  4.3707324772712852E-01 a       765     1     6     2     5
 -2.7725757522780164E-01 a       766     1     6     2     6
 -2.0518466995925605E-01 a       767     1     6     2     7
  7.2710424065767318E-02 a       768     1     6     2     8
 -2.5306027006619491E-01 a       769     1     6     2     9
  3.9152844841544569E-02 a       770     1     6     2    10
  4.9938977463778073E-01 a       771     1     6     2    11
 -6.6657149680170713E-01 a       772     1     6     2    12
 -2.0622329885030266E-01 a       773     1     6     2    13
 -5.3002605382872214E-01 a       774     1     6     2    14
  8.8786100234983192E-02 a       775     1     6     2    15
  3.2008503352062553E-02 a       776     1     6     2    16
  3.5387184128818910E-01 a       777     1     6     2    17
 -6.3080043839989564E-01 a       778     1     6     2    18
  2.8381366316607531E-01 a       779     1     6     2    19
  4.0491460575047933E-01 a       780     1     6     2    20
  2.2119618299989716E-01 a       781     1     7     2     1
  5.2341773722782092E-01 a       782     1     7     2     2
  4.0220455746745751E-02 a       783     1     7     2     3
 -3.5175164353666993E-01 a       784     1     7     2     4
  6.3068011317294048E-01 a       785     1     7     2     5
  1.2402306171195006E-01 a       786     1     7     2     6
  6.0559644792483225E-01 a       787     1     7     2     7
 -3.1393726854127241E-01 a       788     1     7     2     8
 -4.6903493724287465E-01 a       789     1     7     2     9
 -5.6013391858724049E-01 a       790     1     7     2    10
 -2.2500837949897037E-01 a       791     1     7     2    11
  5.4476587452607594E-01 a       792     1     7     2    12
 -4.5679126531711571E-02 a       793     1     7     2    13
 -2.8160455083671321E-01 a       794     1     7     2    14
  2.3336443558392742E-01 a       795     1     7     2    15
 -6.1296325268868412E-01 a       796     1     7     2    16
 -5.1347163926574335E-01 a       797     1     7     2    17
  6.6708018146307191E-01 a       798     1     7     2    18
  2.5573790293072179E-01 a       799     1     7     2    19
 -2.8010263611884773E-01 a       800     1     7     2    20
 -5.3684992004541021E-01 a       801     1     8     2     1
  1.0694755900261187E-01 a       802     1     8     2     2
  4.9980088170747167E-01 a       803     1     8     2     3
  3.7567025447955588E-01 a       804     1     8     2     4
 -4.3241196518412228E-01 a       805     1     8     2     5
  4.7626531306588321E-01 a       806     1     8     2     6
 -1.1741309748795420E-01 a       807     1     8     2     7
 -4.1942909168559550E-01 a       808     1     8     2     8
  2.3110621806933423E-01 a       809     1     8     2     9
  3.8669499602592711E-01 a       810     1     8     2    10
  2.7284674143742399E-01 a       811     1     8     2    11
 -3.2711777080468393E-02 a       812     1     8     2    12
 -1.3414029355774162E-01 a       813     1     8     2    13
  1.1012171020180617E-01 a       814     1     8     2    14
  6.4044037031288276E-02 a       815     1     8     2    15
 -1.3771406180384660E-01 a       816     1     8     2    16
 -1.7382025391187267E-01 a       817     1     8     2    17
  5.7031671725716340E-02 a       818     1     8     2    18
  3.8218373280306001E-01 a       819     1     8     2    19
 -4.1024492293898551E-01 a       820     1     8     2    20
 -4.7095033337496905E-01 a       821     1     9     2     1
 -6.5493968753208154E-01 a       822     1     9     2     2
  5.3808052150966834E-01 a       823     1     9     2     3
 -4.2316717548695792E-01 a       824     1     9     2     4
  2.1021201003267476E-01 a       825     1     9     2     5
 -7.0636917464625260E-01 a       826     1     9     2     6
  1.3326910981989493E-01 a       827     1     9     2     7
 -3.4024708900156458E-01 a       828     1     9     2     8
  2.3441870136946810E-01 a       829     1     9     2     9
  1.0836669227753513E-01 a       830     1     9     2    10
 -3.2915849773434602E-01 a       831     1     9     2    11
  5.6323649247617380E-01 a       832     1     9     2    12
  1.2270352764517976E-01 a       833     1     9     2    13
 -4.7846350558066686E-01 a       834     1     9     2    14
 -1.0924158693367837E-01 a       835     1     9     2    15
  4.3051232022331654E-01 a       836     1     9     2    16
 -4.1549675777744038E-01 a       837     1     9     2    17
  1.5170856609582442E-01 a       838     1     9     2    18
 -3.8232520808635939E-01 a       839     1     9     2    19
 -2.6824525925704312E-01 a       840     1     9     2    20
  3.6782313034809377E-01 a       841     1    10     2     1
 -9.9282433464842265E-02 a       842     1    10     2     2
  2.2701971206089291E-01 a       843     1    10     2     3
  3.8367002341773221E-01 a       844     1    10     2     4
  1.6735704020546077E-01 a       845     1    10     2     5
 -3.8997887493061413E-02 a       846     1    10     2     6
 -3.1902881485153445E-01 a       847     1    10     2     7
 -2.7284753261380218E-01 a       848     1    10     2     8
  3.9180175457206051E-01 a       849     1    10     2     9
  4.1992417160639600E-01 a       850     1    10     2    10
  4.4425446169618527E-01 a       851     1    10     2    11
 -4.2187588211579385E-01 a       852     1    10     2    12
 -5.4102152222542199E-01 a       853     1    10     2    13
 -2.0718672772176466E-01 a       854     1    10     2    14
  3.1251918355218222E-01 a       855     1    10     2    15
 -1.9254277581014206E-01 a       856     1    10     2    16
  3.2872394636782393E-01 a       857     1    10     2    17
 -4.4366588587743644E-02 a       858     1    10     2    18
  4.1462445842388818E-01 a       859     1    10     2    19
  4.1128126335632220E-01 a       860     1    10     2    20
  3.7542524819963086E-01 a       861     1    11     2     1
  3.5563073040501547E-01 a       862     1    11     2     2
 -4.7809990014041109E-01 a       863     1    11     2     3
 -3.3748409321174283E-01 a       864     1    11     2     4
 -4.3462218411923081E-01 a       865     1    11     2     5
 -1.9922650132725109E-01 a       866     1    11     2     6
  4.4145311826863437E-01 a       867     1    11     2     7
  3.9672027855112668E-01 a       868     1    11     2     8
  2.8844708571586458E-01 a       869     1    11     2     9
 -1.5847862826391224E-01 a       870     1    11     2    10
 -6.0048700388215159E-01 a       871     1    11     2    11
  2.1885117546138363E-01 a       872     1    11     2    12
 -6.1676047869640628E-02 a       873     1    11     2    13
  4.7101847250782769E-01 a       874     1    11     2    14
 -2.7003916770840658E-01 a       875     1    11     2    15
 -4.6300540869983503E-01 a       876     1    11     2    16
 -6.2611906491844158E-02 a       877     1    11     2    17
 -5.1131908974818496E-01 a       878     1    11     2    18
  1.9912109202911080E-01 a       879     1    11     2    19
  5.2294073918053807E-01 a       880     1    11     2    20
  4.3119660105212076E-01 a       881     1    12     2     1
  1.3807812411160870E-02 a       882     1    12     2     2
  2.0891068736770327E-01 a       883     1    12     2     3
 -8.7776946852832285E-02 a       884     1    12     2     4
  3.8716594949767291E-01 a       885     1    12     2     5
 -8.3293009296155601E-02 a       886     1    12     2     6
  7.9835107720519838E-01 a       887     1    12     2     7
 -3.2714481301454934E-01 a       888     1    12     2     8
  2.1973436965642623E-01 a       889     1    12     2     9
  5.0371363398253111E-01 a       890     1    12     2    10
 -2.8201404609794684E-01 a       891     1    12     2    11
  2.5169327687313781E-01 a       892     1    12     2    12
 -4.4985375798925559E-01 a       893     1    12     2    13
 -2.6847938758296164E-01 a       894     1    12     2    14
 -9.5576861961915921E-02 a       895     1    12     2    15
  1.2052908119181834E-01 a       896     1    12     2    16
  4.0188171482960444E-01 a       897     1    12     2    17
  1.1952495130645051E-01 a       898     1    12     2    18
  2.6372722569326223E-01 a       899     1    12     2    19
 -2.2149123439906541E-02 a       900     1    12     2    20
  5.3970033618771840E-02 a       901     1    13     2     1
 -4.8734080270266750E-01 a       902     1    13     2     2
 -6.0523168573229293E-02 a       903     1    13     2     3
  3.6369322267793691E-01 a       904     1    13     2     4
 -4.3778602373261166E-01 a       905     1    13     2     5
 -5.7296461427882506E-01 a       906     1    13     2     6
 -9.9015547857064609E-02 a       907     1    13     2     7
  6.4555357662364554E-01 a       908     1    13     2     8
  1.0894671090175168E-01 a       909     1    13     2     9
 -4.8270440295190747E-01 a       910     1    13     2    10
  5.5948198347441069E-01 a       911     1    13     2    11
 -6.8346227377228408E-01 a       912     1    13     2    12
 -4.8578155976376941E-01 a       913     1    13     2    13
 -1.4303536875358958E-01 a       914     1    13     2    14
 -3.7860449044956923E-01 a       915     1    13     2    15
  3.5359904036635176E-01 a       916     1    13     2    16
 -6.2831471509863235E-01 a       917     1    13     2    17
 -3.1807984503571951E-01 a       918     1    13     2    18
  1.8148814819182515E-01 a       919     1    13     2    19
  2.6946165226528918E-01 a       920     1    13     2    20
  1.1566731649820258E-01 a       921     1    14     2     1
 -1.4900033452275718E-01 a       922     1    14     2     2
  1.2151885583797867E-01 a       923     1    14     2     3
  4.1963162157978878E-01 a       924     1    14     2     4
 -7.8290280126198569E-02 a       925     1    14     2     5
 -1.6845295108491984E-01 a       926     1    14     2     6
 -4.9338545421774754E-01 a       927     1    14     2     7
 -3.9103951836624079E-03 a       928     1    14     2     8
  2.6002959542509385E-01 a       929     1    14     2     9
 -1.6570254557738379E-01 a       930     1    14     2    10
 -1.9275425883460962E-01 a       931     1    14     2    11
 -1.5589727498680855E-01 a       932     1    14     2    12
  1.7203245634237554E-01 a       933     1    14     2    13
  2.4626390610386883E-01 a       934     1    14     2    14
 -1.5506082504926852E-01 a       935     1    14     2    15
 -2.6834589897344263E-01 a       936     1    14     2    16
 -4.4753676318345986E-01 a       937     1    14     2    17
  2.5804955008455078E-02 a       938     1    14     2    18
 -4.2122253508127683E-01 a       939     1    14     2    19
 -6.9944169737621964E-02 a       940     1    14     2    20
 -4.0849045082783902E-01 a       941     1    15     2     1
 -3.2341400015389782E-01 a       942     1    15     2     2
  4.2297422060277146E-01 a       943     1    15     2     3
 -3.6218644602304984E-01 a       944     1    15     2     4
 -4.0947362483984645E-01 a       945     1    15     2     5
 -4.0307951991615204E-01 a       946     1    15     2     6
 -5.2796793021379074E-01 a       947     1    15     2     7
 -6.5170802111751980E-01 a       948     1    15     2     8
 -4.3062657019490835E-01 a       949     1    15     2     9
 -2.0150818579039612E-01 a       950     1    15     2    10
  4.9223226790683122E-01 a       951     1    15     2    11
  4.1682550555449976E-01 a       952     1    15     2    12
 -3.4030903943943119E-01 a       953     1    15     2    13
  7.2186595172439069E-02 a       954     1    15     2    14
 -1.6216840458193035E-02 a       955     1    15     2    15
 -5.4986137726160322E-01 a       956     1    15     2    16
 -2.1561454005413826E-02 a       957     1    15     2    17
 -4.9783576452877587E-01 a       958     1    15     2    18
 -2.6384309355753915E-01 a       959     1    15     2    19
  1.3050177519118350E-01 a       960     1    15     2    20
  4.1029779597379101E-01 a       961     1    16     2     1
 -1.1511905739522557E-01 a       962     1    16     2     2
 -1.5071678619032919E-01 a       963     1    16     2     3
  5.5841094698375027E-01 a       964     1    16     2     4
 -4.0994392037821142E-01 a       965     1    16     2     5
 -4.7393771873122464E-02 a       966     1    16     2     6
  9.4075119296538820E-02 a       967     1    16     2     7
  3.2078875152932185E-01 a       968     1    16     2     8
  2.2897507124381930E-01 a       969     1    16     2     9
  3.8560440123233508E-01 a       970     1    16     2    10
  3.4929524876972562E-01 a       971     1    16     2    11
 -1.8594352672624052E-02 a       972     1    16     2    12
  2.6674713217872476E-01 a       973     1    16     2    13
 -4.3629769712737243E-01 a       974     1    16     2    14
 -4.1515905697621758E-01 a       975     1    16     2    15
 -6.0006209798395915E-01 a       976     1    16     2    16
 -9.4582062847758611E-03 a       977     1    16     2    17
 -6.4416235718152448E-01 a       978     1    16     2    18
  6.0763373052186953E-01 a       979     1    16     2    19
 -3.3751621210228633E-01 a       980     1    16     2    20
  2.6994477968458491E-01 a       981     1    17     2     1
  2.1677413578186056E-01 a       982     1    17     2     2
 -2.9230843091029302E-01 a       983     1    17     2     3
  1.9135927549357695E-01 a       984     1    17     2     4
  2.6560174862610203E-01 a       985     1    17     2     5
 -1.1346199341308030E-01 a       986     1    17     2     6
  6.2994248308234524E-01 a       987     1    17     2     7
  5.9711106526310676E-02 a       988     1    17     2     8
  1.1705818789578763E-01 a       989     1    17     2     9
  5.0976574941194563E-01 a       990     1    17     2    10
 -2.7935822883839312E-01 a       991     1    17     2    11
 -9.9110174614929922E-02 a       992     1    17     2    12
  6.2392938952027810E-01 a       993     1    17     2    13
  5.0653450104955144E-01 a       994     1    17     2    14
  1.5427957099831302E-01 a       995     1    17     2    15
  1.1951751291866809E-02 a       996     1    17     2    16
  3.1604344826432304E-02 a       997     1    17     2    17
  5.9087494769885385E-01 a       998     1    17     2    18
 -4.6284829474797923E-01 a       999     1    17     2    19
 -2.5954079176610861E-01 a      1000     1    17     2    20
  4.7939959617286632E-01 a      1001     1    18     2     1
  7.9503728613165098E-02 a      1002     1    18     2     2
  3.8539795407958366E-01 a      1003     1    18     2     3
 -8.0015211669531516E-02 a      1004     1    18     2     4
 -1.0119898367695020E-01 a      1005     1    18     2     5
  3.9768630697282914E-01 a      1006     1    18     2     6
 -2.7370681260385266E-01 a      1007     1    18     2     7
 -3.6631015741891093E-01 a      1008     1    18     2     8
 -5.1001930889630476E-01 a      1009     1    18     2     9
 -4.9576592562767648E-02 a      1010     1    18     2    10
  3.9004485160601593E-02 a      1011     1    18     2    11
  5.4188838463658329E-01 a      1012     1    18     2    12
 -1.1829421867557345E-02 a      1013     1    18     2    13
 -3.5387518148135644E-01 a      1014     1    18     2    14
  2.5166210269745620E-01 a      1015     1    18     2    15
 -3.4216120770828101E-01 a      1016     1    18     2    16
  1.7597885529485369E-01 a      1017     1    18     2    17
  3.0995828730167108E-01 a      1018     1    18     2    18
 -1.4231071270094360E-02 a      1019     1    18     2    19
 -2.7973825192385449E-01 a      1020     1    18     2    20
  4.1622656413060191E-02 a      1021     1    19     2     1
  3.6794501707494170E-01 a      1022     1    19     2     2
  2.6406843635720006E-01 a      1023     1    19     2     3
  2.9144222731679426E-01 a      1024     1    19     2     4
  3.4721289730267285E-01 a      1025     1    19     2     5
 -5.3036714137234653E-01 a      1026     1    19     2     6
 -4.1376136778028490E-02 a      1027     1    19     2     7
 -1.3937590984855556E-02 a      1028     1    19     2     8
  7.0349085798931976E-01 a      1029     1    19     2     9
  4.0799159468594931E-01 a      1030     1    19     2    10
 -1.7518720021897635E-01 a      1031     1    19     2    11
 -1.3785219208648805E-01 a      1032     1    19     2    12
  3.8443518854356090E-01 a      1033     1    19     2    13
  1.2541306703647598E-01 a      1034     1    19     2    14
 -3.8670006028816373E-01 a      1035     1    19     2    15
  1.9175581089817273E-01 a      1036     1    19     2    16
 -2.8917949210738447E-01 a      1037     1    19     2    17
 -1.2428342731823958E-01 a      1038     1    19     2    18
 -1.3867533461522483E-01 a      1039     1    19     2    19
 -2.2935543577581202E-01 a      1040     1    19     2    20
 -5.2094485148723157E-01 a      1041     1    20     2     1
 -3.8900591689454378E-01 a      1042     1    20     2     2
 -5.8816225894714624E-01 a      1043     1    20     2     3
 -4.6595815806324065E-01 a      1044     1    20     2     4
 -1.3802006691464822E-01 a      1045     1    20     2     5
 -5.0281940118294266E-01 a      1046     1    20     2     6
  1.7507605855890812E-01 a      1047     1    20     2     7
  2.1013693881651652E-01 a      1048     1    20     2     8
  4.7202733630682198E-02 a      1049     1    20     2     9
 -4.6935697840700830E-01 a      1050     1    20     2    10
 -4.0427503310089974E-01 a      1051     1    20     2    11
  6.9867423447099633E-02 a      1052     1    20     2    12
 -2.9774608057393986E-01 a      1053     1    20     2    13
 -1.2708679449523476E-02 a      1054     1    20     2    14
 -5.0727724729453205E-01 a      1055     1    20     2    15
  7.8643356040451043E-02 a      1056     1    20     2    16
 -6.0308906388813026E-02 a      1057     1    20     2    17
 -4.8358501154573902E-01 a      1058     1    20     2    18
 -1.9209448912005517E-01 a      1059     1    20     2    19
  7.0189643481941927E-02 a      1060     1    20     2    20
  1.5861257503518966E-01 b      1061     2     1
  1.5184167081512625E+00 b      1062     2     2
 -7.0454595860267547E-02 b      1063     2     3
 -1.4184543451380545E+00 b      1064     2     4
  1.5585885550307392E+00 b      1065     2     5
  1.1560064612429806E+00 b      1066     2     6
 -5.1077770770354747E-01 b      1067     2     7
 -1.3980490320316203E+00 b      1068     2     8
  1.3084476662563631E+00 b      1069     2     9
  3.0441742398997806E-01 b      1070     2    10
  2.5422335033429716E-01 b      1071     2    11
  1.3247214337067210E+00 b      1072     2    12
  1.0594246622078543E+00 b      1073     2    13
  1.3085931273829414E+00 b      1074     2    14
  7.9438360573128342E-01 b      1075     2    15
  3.9715091366183453E-01 b      1076     2    16
  1.4507341816551651E+00 b      1077     2    17
  2.6309599845727405E-01 b      1078     2    18
 -5.7009637063705665E-01 b      1079     2    19
 -7.5675034043917955E-01 b      1080     2    20
  4.6819681249159445E-02 a      1081     2     1     3     1
 -2.9282810824857830E-01 a      1082     2     2     3     1
  1.3313162248233676E-01 a      1083     2     3     3     1
  4.4887849429722082E-01 a      1084     2     4     3     1
 -9.8262739506005170E-01 a      1085     2     5     3     1
  9.2681065214454372E-01 a      1086     2     6     3     1
 -8.0061330802737685E-01 a      1087     2     7     3     1
 -6.2773974453788517E-01 a      1088     2     8     3     1
 -8.1690265650989169E-01 a      1089     2     9     3     1
  5.0059180582101653E-02 a      1090     2    10     3     1
  1.0196592252561290E+00 a      1091     2    11     3     1
  1.7844336653676632E-01 a      1092     2    12     3     1
  2.6089549495128039E-01 a      1093     2    13     3     1
  2.0298691286097373E-01 a      1094     2    14     3     1
 -4.4967729789371591E-01 a      1095     2    15     3     1
 -1.1108047809633219E-01 a      1096     2    16     3     1
  8.3637083109699736E-02 a      1097     2    17     3     1
  1.2083895861636053E-01 a      1098     2    18     3     1
 -6.4223251762101841E-01 a      1099     2    19     3     1
  3.0560229804888661E-01 a      1100     2    20     3     1
  6.5632946617905530E-01 b      1101     3     1
