################################################################################
# Neural network connection values (weights and biases).
################################################################################
# Col  Name       Description
################################################################################
# 1    connection Neural network connection value.
# 2    t          Connection type (a = weight, b = bias).
# 3    index      Index enumerating weights.
# 4    l_s        Starting point layer (end point layer for biases).
# 5    n_s        Starting point neuron in starting layer (end point neuron for biases).
# 6    l_e        End point layer.
# 7    n_e        End point neuron in end layer.
################################################################################
#                      1 2         3     4     5     6     7
#             connection t     index   l_s   n_s   l_e   n_e
############################################################
  3.3584258767363628E-01 a         1     0     1     1     1
  3.8351822062634011E-01 a         2     0     1     1     2
  2.4980737860702379E-01 a         3     0     1     1     3
 -1.4865699350701017E-01 a         4     0     1     1     4
 -2.0424740687918869E-01 a         5     0     1     1     5
 -3.2400229093786703E-02 a         6     0     1     1     6
 -1.7878466157431691E-01 a         7     0     1     1     7
 -9.0312527247315408E-02 a         8     0     1     1     8
  4.5512106923838114E-01 a         9     0     1     1     9
 -3.1742386336982270E-01 a        10     0     1     1    10
 -5.0573245150313229E-01 a        11     0     1     1    11
 -3.7902052107149181E-01 a        12     0     1     1    12
 -2.2441058243906850E-01 a        13     0     1     1    13
  1.2966337203972814E-01 a        14     0     1     1    14
  5.4653421267642235E-02 a        15     0     1     1    15
  8.3882913316061403E-02 a        16     0     1     1    16
  8.6960322737040296E-02 a        17     0     1     1    17
 -6.9021100393467247E-02 a        18     0     1     1    18
  1.5890998194522787E-01 a        19     0     1     1    19
  2.0402344293387220E-01 a        20     0     1     1    20
  3.6685636400459493E-01 a        21     0     2     1     1
 -9.5503522385095824E-02 a        22     0     2     1     2
 -5.5265742853662606E-02 a        23     0     2     1     3
  1.4269785708446028E-01 a        24     0     2     1     4
 -2.9511675047475305E-01 a        25     0     2     1     5
  7.4505467400742417E-02 a        26     0     2     1     6
 -2.3794845587544353E-01 a        27     0     2     1     7
 -1.6744610842441576E-01 a        28     0     2     1     8
  2.2216582772718826E-01 a        29     0     2     1     9
  2.4660977415734406E-02 a        30     0     2     1    10
 -3.0593839583271343E-01 a        31     0     2     1    11
 -3.2703563484198989E-01 a        32     0     2     1    12
  2.9712268634245387E-01 a        33     0     2     1    13
 -1.5384343300519754E-01 a        34     0     2     1    14
 -2.7994098585534612E-02 a        35     0     2     1    15
 -3.2268895786244461E-01 a        36     0     2     1    16
 -4.6631131911793544E-01 a        37     0     2     1    17
 -5.1010820905096410E-01 a        38     0     2     1    18
  1.1888278543334835E-01 a        39     0     2     1    19
 -2.2296937855990964E-01 a        40     0     2     1    20
 -2.6819056776431610E-01 a        41     0     3     1     1
  1.1102329076413950E-01 a        42     0     3     1     2
  2.1803047884043519E-01 a        43     0     3     1     3
  6.6670621626901821E-02 a        44     0     3     1     4
 -2.7470982912358742E-02 a        45     0     3     1     5
 -3.9188223732164468E-01 a        46     0     3     1     6
  2.3515747296165213E-01 a        47     0     3     1     7
  1.7634886721803122E-01 a        48     0     3     1     8
 -1.7410000406646350E-01 a        49     0     3     1     9
  1.6148555981119850E-01 a        50     0     3     1    10
  1.0249560889262581E-01 a        51     0     3     1    11
  1.7383934038505522E-01 a        52     0     3     1    12
 -6.7654972135307009E-02 a        53     0     3     1    13
  2.9425539480402472E-02 a        54     0     3     1    14
  3.3015509831546125E-01 a        55     0     3     1    15
  3.6289419349670843E-01 a        56     0     3     1    16
  2.9644361474066422E-01 a        57     0     3     1    17
 -2.2354983720018626E-01 a        58     0     3     1    18
 -3.4735556212532542E-01 a        59     0     3     1    19
 -4.0279942226439125E-01 a        60     0     3     1    20
  3.9398728207830408E-01 a        61     0     4     1     1
  2.6702907878249765E-01 a        62     0     4     1     2
 -3.6222598811144585E-01 a        63     0     4     1     3
  1.7087715266618764E-01 a        64     0     4     1     4
 -2.0320707671774310E-01 a        65     0     4     1     5
  1.1447463131654470E-01 a        66     0     4     1     6
 -1.0493970558181105E-01 a        67     0     4     1     7
 -2.1063427333287078E-02 a        68     0     4     1     8
 -8.2686275942349188E-02 a        69     0     4     1     9
  6.6771910373816967E-02 a        70     0     4     1    10
 -6.4430072789679271E-02 a        71     0     4     1    11
  1.2340977916297344E-01 a        72     0     4     1    12
 -1.7825465145517541E-01 a        73     0     4     1    13
  3.9844573176720133E-01 a        74     0     4     1    14
  1.2706450297864005E-01 a        75     0     4     1    15
 -1.6030093272597554E-02 a        76     0     4     1    16
 -5.0890594307248394E-01 a        77     0     4     1    17
  2.8770952718576848E-01 a        78     0     4     1    18
 -3.2129997692396176E-02 a        79     0     4     1    19
  1.5042317594493282E-01 a        80     0     4     1    20
 -4.0048527917895277E-01 a        81     0     5     1     1
 -4.0466832263275282E-01 a        82     0     5     1     2
  9.1955932628077691E-02 a        83     0     5     1     3
 -3.8225018914839648E-01 a        84     0     5     1     4
 -1.7612196296475097E-01 a        85     0     5     1     5
 -2.4952708348958549E-01 a        86     0     5     1     6
 -2.0256830842638798E-01 a        87     0     5     1     7
  8.4680687673650931E-02 a        88     0     5     1     8
  9.4483737295284670E-02 a        89     0     5     1     9
 -3.8702898189703391E-02 a        90     0     5     1    10
  3.1813554459017185E-01 a        91     0     5     1    11
 -5.9072376629858016E-02 a        92     0     5     1    12
 -4.2072116984295399E-01 a        93     0     5     1    13
  5.6642531791719235E-02 a        94     0     5     1    14
  2.2549079452168883E-01 a        95     0     5     1    15
 -2.4553460939569213E-01 a        96     0     5     1    16
  4.6030558714247544E-01 a        97     0     5     1    17
 -1.1716613076700862E-01 a        98     0     5     1    18
 -3.2128756672065689E-01 a        99     0     5     1    19
 -2.3678242955794022E-02 a       100     0     5     1    20
 -2.2034956293488070E-01 a       101     0     6     1     1
  1.3574122475301355E-02 a       102     0     6     1     2
 -4.2075048827130118E-01 a       103     0     6     1     3
 -9.3859921035593152E-02 a       104     0     6     1     4
  2.5496421821797949E-01 a       105     0     6     1     5
  3.9217293856601904E-01 a       106     0     6     1     6
  2.5540293821323462E-01 a       107     0     6     1     7
 -3.0421278738351465E-01 a       108     0     6     1     8
  3.1795502990630586E-01 a       109     0     6     1     9
 -2.3099880880558959E-02 a       110     0     6     1    10
 -1.0029319586452949E-01 a       111     0     6     1    11
  9.9674169326745748E-02 a       112     0     6     1    12
 -2.2946263302373196E-01 a       113     0     6     1    13
  1.8791807652732145E-01 a       114     0     6     1    14
  1.8960996789693260E-01 a       115     0     6     1    15
 -6.5740957434529623E-02 a       116     0     6     1    16
 -1.6058277904934010E-01 a       117     0     6     1    17
  4.3153796049800561E-02 a       118     0     6     1    18
 -2.6423361047255089E-01 a       119     0     6     1    19
  1.6735214570856313E-01 a       120     0     6     1    20
 -2.9917442471958117E-01 a       121     0     7     1     1
  1.1962856437830525E-01 a       122     0     7     1     2
 -2.9091770168728329E-02 a       123     0     7     1     3
  9.3239780400355604E-02 a       124     0     7     1     4
  3.7560100469761937E-02 a       125     0     7     1     5
  1.4246776845861051E-02 a       126     0     7     1     6
 -1.1849437960916771E-01 a       127     0     7     1     7
  3.9815247092490173E-02 a       128     0     7     1     8
  2.4884506915294596E-01 a       129     0     7     1     9
  2.3846845693508908E-01 a       130     0     7     1    10
 -7.5507523225256279E-02 a       131     0     7     1    11
 -2.9710844723206575E-01 a       132     0     7     1    12
 -5.8529764890179005E-02 a       133     0     7     1    13
 -4.2792488776269302E-02 a       134     0     7     1    14
 -2.4335764453308081E-01 a       135     0     7     1    15
  1.9218430436926009E-01 a       136     0     7     1    16
  2.0740936258233389E-01 a       137     0     7     1    17
  3.0315233580777076E-03 a       138     0     7     1    18
 -2.0251483633382303E-01 a       139     0     7     1    19
 -6.2218542721823242E-02 a       140     0     7     1    20
 -2.8550411825271743E-01 a       141     0     8     1     1
 -4.6940351224123550E-01 a       142     0     8     1     2
 -3.2511493730356872E-01 a       143     0     8     1     3
 -8.4550874736905757E-02 a       144     0     8     1     4
 -7.9601427295416874E-02 a       145     0     8     1     5
 -1.4459100275286160E-01 a       146     0     8     1     6
 -1.5471223454226996E-01 a       147     0     8     1     7
 -3.1455138849987524E-01 a       148     0     8     1     8
  7.1912177160111043E-02 a       149     0     8     1     9
 -2.7280994106224471E-01 a       150     0     8     1    10
 -1.3561057590494754E-01 a       151     0     8     1    11
 -2.6369664090276923E-01 a       152     0     8     1    12
 -8.8098594933354576E-02 a       153     0     8     1    13
 -1.2902702604963548E-01 a       154     0     8     1    14
  2.5794825007526601E-01 a       155     0     8     1    15
  3.7598688924395235E-01 a       156     0     8     1    16
 -3.4822722080027069E-01 a       157     0     8     1    17
  1.2849560687853757E-03 a       158     0     8     1    18
 -1.1485841524718846E-01 a       159     0     8     1    19
 -7.3028391826187339E-02 a       160     0     8     1    20
 -1.6519649593032826E-01 a       161     0     9     1     1
 -1.4194065165790806E-01 a       162     0     9     1     2
 -3.5088296539555447E-02 a       163     0     9     1     3
 -1.8086448936688794E-02 a       164     0     9     1     4
  2.6797684352913881E-01 a       165     0     9     1     5
 -1.5373215558470887E-01 a       166     0     9     1     6
 -1.7467410568008521E-02 a       167     0     9     1     7
 -6.7126282583272925E-02 a       168     0     9     1     8
 -2.3524864169927370E-01 a       169     0     9     1     9
 -2.2280424390365369E-01 a       170     0     9     1    10
 -2.7512449269718081E-01 a       171     0     9     1    11
  5.3205590357567301E-01 a       172     0     9     1    12
  1.5140605070768715E-01 a       173     0     9     1    13
  2.5374043695838001E-02 a       174     0     9     1    14
 -2.7359533044543357E-02 a       175     0     9     1    15
 -1.1099862903309726E-01 a       176     0     9     1    16
  2.7856431145518858E-02 a       177     0     9     1    17
  1.8659322212635918E-01 a       178     0     9     1    18
 -1.0189214876237798E-01 a       179     0     9     1    19
 -3.1266190070454995E-02 a       180     0     9     1    20
  7.9666186652195603E-02 a       181     0    10     1     1
  2.5658106198082997E-01 a       182     0    10     1     2
  4.5014635652229559E-02 a       183     0    10     1     3
  2.8705326105324042E-01 a       184     0    10     1     4
  9.0546258194208931E-02 a       185     0    10     1     5
 -2.4310518572429184E-02 a       186     0    10     1     6
  1.7163124399696658E-01 a       187     0    10     1     7
  2.3549023066526345E-01 a       188     0    10     1     8
 -1.2042826436593575E-01 a       189     0    10     1     9
 -2.1557260866222147E-01 a       190     0    10     1    10
 -4.0239943399302658E-01 a       191     0    10     1    11
  1.8322290513632331E-01 a       192     0    10     1    12
  1.2754580940809523E-01 a       193     0    10     1    13
  4.3416068699221416E-01 a       194     0    10     1    14
 -1.0187047619423503E-01 a       195     0    10     1    15
  2.4265532766135706E-01 a       196     0    10     1    16
 -6.5017178100204437E-02 a       197     0    10     1    17
  1.5745920365448865E-01 a       198     0    10     1    18
 -2.0192837780120890E-02 a       199     0    10     1    19
 -6.8897312650163703E-02 a       200     0    10     1    20
  5.5630145447542858E-04 a       201     0    11     1     1
 -7.0269054485640600E-03 a       202     0    11     1     2
 -4.0573409086919691E-02 a       203     0    11     1     3
  1.4123759350536346E-02 a       204     0    11     1     4
 -1.1195786792230933E-02 a       205     0    11     1     5
 -1.7560906211534622E-01 a       206     0    11     1     6
 -1.0381743008126683E-01 a       207     0    11     1     7
 -8.5636939963197850E-02 a       208     0    11     1     8
  7.2299652131091074E-02 a       209     0    11     1     9
 -8.9523078848405574E-02 a       210     0    11     1    10
 -2.4291266243147147E-01 a       211     0    11     1    11
 -9.1328564808632870E-02 a       212     0    11     1    12
 -1.0802811241604207E-01 a       213     0    11     1    13
  4.5900792021065307E-03 a       214     0    11     1    14
 -1.6354797719929929E-02 a       215     0    11     1    15
  2.3986326307698641E-01 a       216     0    11     1    16
 -1.3205660505860561E-01 a       217     0    11     1    17
  1.0910988569662172E-01 a       218     0    11     1    18
  1.2471488008574483E-01 a       219     0    11     1    19
  2.1885057952780460E-01 a       220     0    11     1    20
 -2.0047449790596642E-02 a       221     0    12     1     1
  1.0178186366883194E-02 a       222     0    12     1     2
 -2.3559030660773717E-01 a       223     0    12     1     3
 -2.6697585718799421E-01 a       224     0    12     1     4
 -2.3728116087659459E-01 a       225     0    12     1     5
 -1.2576570717242386E-01 a       226     0    12     1     6
 -3.5770179649324180E-01 a       227     0    12     1     7
 -4.9050465371083402E-01 a       228     0    12     1     8
 -2.6789224536208306E-01 a       229     0    12     1     9
 -9.8219335979569528E-02 a       230     0    12     1    10
  1.7428634085248051E-01 a       231     0    12     1    11
 -3.5595235733877700E-01 a       232     0    12     1    12
 -1.8657200007790306E-01 a       233     0    12     1    13
  6.9769899728857457E-02 a       234     0    12     1    14
  2.9339101718174082E-01 a       235     0    12     1    15
  2.5493388461943489E-01 a       236     0    12     1    16
  3.2098960333691015E-02 a       237     0    12     1    17
 -3.9204619477918402E-02 a       238     0    12     1    18
  2.0163608761883345E-01 a       239     0    12     1    19
  2.9526511952285539E-01 a       240     0    12     1    20
  2.4358596256005099E-01 a       241     0    13     1     1
  2.2865808206017585E-01 a       242     0    13     1     2
 -2.3618695185213170E-01 a       243     0    13     1     3
 -7.6233581699341704E-02 a       244     0    13     1     4
  5.9502661420223570E-02 a       245     0    13     1     5
  6.8806959634174811E-02 a       246     0    13     1     6
  1.6864396703434023E-01 a       247     0    13     1     7
 -1.0991821815060823E-01 a       248     0    13     1     8
  7.2214251417580366E-02 a       249     0    13     1     9
 -2.0072053584594657E-01 a       250     0    13     1    10
 -1.7113436600927462E-01 a       251     0    13     1    11
  3.7765836436378275E-01 a       252     0    13     1    12
  2.2320460262296490E-01 a       253     0    13     1    13
 -1.4898767588973555E-01 a       254     0    13     1    14
  2.1170853152126359E-01 a       255     0    13     1    15
 -1.8483228328480461E-01 a       256     0    13     1    16
 -1.2056539095535304E-01 a       257     0    13     1    17
 -1.8934216565704043E-01 a       258     0    13     1    18
  1.6318703218668584E-01 a       259     0    13     1    19
 -1.8763476723610892E-01 a       260     0    13     1    20
 -9.1440695404393535E-02 a       261     0    14     1     1
  1.9497637288580716E-01 a       262     0    14     1     2
 -2.9041764964773958E-01 a       263     0    14     1     3
  2.1984646041382735E-01 a       264     0    14     1     4
  1.3398782202440299E-01 a       265     0    14     1     5
 -8.8408433246962327E-03 a       266     0    14     1     6
  1.0776491358452692E-01 a       267     0    14     1     7
 -6.6036409442129573E-02 a       268     0    14     1     8
  3.2237153063247137E-01 a       269     0    14     1     9
 -5.3651649169333071E-02 a       270     0    14     1    10
 -2.3606005956575349E-01 a       271     0    14     1    11
  2.0498241076050569E-01 a       272     0    14     1    12
 -6.0134798356373843E-02 a       273     0    14     1    13
  1.3980073077323793E-01 a       274     0    14     1    14
  7.5945042842645930E-02 a       275     0    14     1    15
  6.3017753033131382E-02 a       276     0    14     1    16
 -7.1065603364427590E-02 a       277     0    14     1    17
  8.1265583932784144E-02 a       278     0    14     1    18
 -1.7104464789542528E-01 a       279     0    14     1    19
 -2.2953508471015846E-01 a       280     0    14     1    20
 -3.0563148435186421E-01 a       281     0    15     1     1
  2.2342025338024979E-01 a       282     0    15     1     2
  2.8746268764431082E-01 a       283     0    15     1     3
  1.2432841958123551E-01 a       284     0    15     1     4
  6.8578814255800105E-02 a       285     0    15     1     5
 -2.4157684839843899E-01 a       286     0    15     1     6
  7.0301452522757935E-02 a       287     0    15     1     7
  2.0029161471647006E-02 a       288     0    15     1     8
 -2.3006260878228890E-01 a       289     0    15     1     9
 -4.0943816453675230E-02 a       290     0    15     1    10
  1.6277813503980812E-01 a       291     0    15     1    11
  2.7386663957292431E-02 a       292     0    15     1    12
 -5.7582707160810390E-02 a       293     0    15     1    13
  1.9331575875519716E-01 a       294     0    15     1    14
  4.5540954898504959E-02 a       295     0    15     1    15
  2.3264209639492164E-01 a       296     0    15     1    16
 -1.9947029992480131E-01 a       297     0    15     1    17
  2.3509307912076358E-01 a       298     0    15     1    18
  2.0993818307733680E-02 a       299     0    15     1    19
  2.1248223639749675E-01 a       300     0    15     1    20
  1.1854723388002857E-01 a       301     0    16     1     1
  1.6658435575018271E-01 a       302     0    16     1     2
 -3.0163633999589784E-01 a       303     0    16     1     3
  1.5468251845369999E-01 a       304     0    16     1     4
  3.0698839356204283E-01 a       305     0    16     1     5
  2.9895219181709665E-01 a       306     0    16     1     6
 -1.9189916271907168E-01 a       307     0    16     1     7
 -3.1267134677051045E-01 a       308     0    16     1     8
 -5.8802687890433372E-02 a       309     0    16     1     9
  1.3738831351363714E-01 a       310     0    16     1    10
 -5.0837692568605419E-01 a       311     0    16     1    11
  3.9692041122894789E-02 a       312     0    16     1    12
  3.2254160798957832E-01 a       313     0    16     1    13
 -4.5364101639299367E-02 a       314     0    16     1    14
 -2.6090527461954532E-01 a       315     0    16     1    15
 -1.5612394497119375E-01 a       316     0    16     1    16
 -3.8158112381233888E-01 a       317     0    16     1    17
  3.3732080549530158E-01 a       318     0    16     1    18
  5.8153620681172982E-02 a       319     0    16     1    19
  2.5773230868743219E-01 a       320     0    16     1    20
 -2.6133373302914803E-01 a       321     0    17     1     1
  1.4629924520458593E-01 a       322     0    17     1     2
  2.0106662707789255E-01 a       323     0    17     1     3
  2.3878021186700951E-01 a       324     0    17     1     4
 -4.0571458031053109E-02 a       325     0    17     1     5
  1.7430541183468082E-01 a       326     0    17     1     6
  9.0225076773710639E-02 a       327     0    17     1     7
  1.2743495463366172E-01 a       328     0    17     1     8
 -2.9937908061862747E-02 a       329     0    17     1     9
  1.7775131978509726E-01 a       330     0    17     1    10
 -1.0147279908072684E-01 a       331     0    17     1    11
 -1.2565751172140651E-02 a       332     0    17     1    12
  2.7347034604807552E-01 a       333     0    17     1    13
 -2.0084333305752145E-02 a       334     0    17     1    14
  8.6073284112301487E-02 a       335     0    17     1    15
  3.9733200743969709E-02 a       336     0    17     1    16
 -2.7396513028516239E-01 a       337     0    17     1    17
 -1.5236945813655378E-01 a       338     0    17     1    18
 -5.9047461049554113E-03 a       339     0    17     1    19
 -1.4784524708348654E-01 a       340     0    17     1    20
 -3.2746666434277422E-01 a       341     0    18     1     1
  3.6749555892658037E-01 a       342     0    18     1     2
  1.0751111217886983E-01 a       343     0    18     1     3
  2.2501268641597949E-01 a       344     0    18     1     4
 -2.4277847204254802E-01 a       345     0    18     1     5
 -5.9762091342915040E-02 a       346     0    18     1     6
 -2.3051537279404935E-01 a       347     0    18     1     7
 -1.6742299665638508E-01 a       348     0    18     1     8
  1.4465948605209861E-01 a       349     0    18     1     9
  1.2787210455913706E-02 a       350     0    18     1    10
  1.2133228615739379E-01 a       351     0    18     1    11
  1.8400893369975493E-02 a       352     0    18     1    12
  1.5160632366737781E-02 a       353     0    18     1    13
 -1.5919684864800068E-02 a       354     0    18     1    14
  4.4444293180746264E-01 a       355     0    18     1    15
 -1.8861823706910025E-01 a       356     0    18     1    16
 -6.1822334592347719E-02 a       357     0    18     1    17
 -2.8145542291925918E-01 a       358     0    18     1    18
  1.1606181040802037E-01 a       359     0    18     1    19
 -1.0772626945876700E-01 a       360     0    18     1    20
 -2.5716311958470162E-01 a       361     0    19     1     1
 -3.1679430289216998E-01 a       362     0    19     1     2
 -7.9614830635431552E-02 a       363     0    19     1     3
  4.2657577716650720E-02 a       364     0    19     1     4
 -7.9432999467522483E-02 a       365     0    19     1     5
  2.4843465358645728E-01 a       366     0    19     1     6
  1.8002489136082121E-02 a       367     0    19     1     7
  1.0227690556258522E-01 a       368     0    19     1     8
  2.4506981283050461E-01 a       369     0    19     1     9
  3.5049280535197791E-01 a       370     0    19     1    10
  1.7706797358076240E-01 a       371     0    19     1    11
 -2.4229748317400404E-01 a       372     0    19     1    12
 -1.2770968310214448E-01 a       373     0    19     1    13
 -1.1597205720237837E-02 a       374     0    19     1    14
 -2.9525405361805762E-01 a       375     0    19     1    15
 -2.5719810470076321E-01 a       376     0    19     1    16
 -1.5654147963483650E-01 a       377     0    19     1    17
 -1.0719107435723936E-01 a       378     0    19     1    18
 -3.1471213111050428E-01 a       379     0    19     1    19
 -8.9118207700621038E-02 a       380     0    19     1    20
  2.4675935048007747E-01 a       381     0    20     1     1
 -3.5500265889176824E-01 a       382     0    20     1     2
  2.1053146108834861E-01 a       383     0    20     1     3
  5.8501034150521963E-02 a       384     0    20     1     4
 -1.2943060071417395E-01 a       385     0    20     1     5
  3.5481383375158432E-01 a       386     0    20     1     6
  1.4876692101564071E-01 a       387     0    20     1     7
  2.1540560539122361E-01 a       388     0    20     1     8
 -1.0233538272164357E-01 a       389     0    20     1     9
  8.0320312158780910E-02 a       390     0    20     1    10
  3.8311289405340176E-01 a       391     0    20     1    11
 -8.0987807713875128E-03 a       392     0    20     1    12
  9.5312441945375997E-02 a       393     0    20     1    13
  1.1195269723631615E-02 a       394     0    20     1    14
  1.6371175614638503E-01 a       395     0    20     1    15
  7.9442049288615604E-02 a       396     0    20     1    16
  2.1146850072131890E-01 a       397     0    20     1    17
 -1.3877402298084521E-01 a       398     0    20     1    18
 -1.5512551293110088E-01 a       399     0    20     1    19
 -1.3171264233846855E-01 a       400     0    20     1    20
  1.4083945577461360E-01 a       401     0    21     1     1
  2.4252592130044301E-01 a       402     0    21     1     2
  2.9339019551495110E-01 a       403     0    21     1     3
 -9.6502803059824570E-03 a       404     0    21     1     4
  7.7587052737982762E-02 a       405     0    21     1     5
  4.6220876496291273E-02 a       406     0    21     1     6
 -7.6113616111757307E-02 a       407     0    21     1     7
 -2.6606383653196108E-01 a       408     0    21     1     8
 -2.3534112114499622E-01 a       409     0    21     1     9
 -1.6223302472633205E-01 a       410     0    21     1    10
 -2.1024164154215841E-01 a       411     0    21     1    11
 -5.1336313616172469E-02 a       412     0    21     1    12
  3.7959137264035124E-02 a       413     0    21     1    13
  3.2048459155972187E-01 a       414     0    21     1    14
  1.9174701171669342E-01 a       415     0    21     1    15
 -3.4478356130654431E-01 a       416     0    21     1    16
  6.3684446309252518E-02 a       417     0    21     1    17
  2.0479560855457116E-01 a       418     0    21     1    18
  3.5847806508397378E-01 a       419     0    21     1    19
  6.6671232370895612E-03 a       420     0    21     1    20
 -2.4465430911463432E-01 a       421     0    22     1     1
  3.1919414368233295E-01 a       422     0    22     1     2
  2.0677912467514353E-01 a       423     0    22     1     3
 -5.4432775195798588E-02 a       424     0    22     1     4
  3.7039646888801979E-02 a       425     0    22     1     5
  5.5424987894355827E-03 a       426     0    22     1     6
 -2.5489117061423261E-01 a       427     0    22     1     7
 -3.5266347092525609E-02 a       428     0    22     1     8
  1.4646165061686048E-01 a       429     0    22     1     9
  3.0272207057660055E-01 a       430     0    22     1    10
 -1.1206939332077222E-01 a       431     0    22     1    11
 -1.0079315486361817E-03 a       432     0    22     1    12
  9.0542264094355535E-02 a       433     0    22     1    13
 -2.1493916241120928E-01 a       434     0    22     1    14
 -2.2891167846425559E-01 a       435     0    22     1    15
 -1.8622997528610721E-01 a       436     0    22     1    16
  1.1773600759160591E-01 a       437     0    22     1    17
 -3.0561358048720462E-02 a       438     0    22     1    18
 -1.6619947682192535E-01 a       439     0    22     1    19
 -6.8812025314966024E-02 a       440     0    22     1    20
 -2.8803416200169518E-01 a       441     0    23     1     1
 -1.1031545490453755E-01 a       442     0    23     1     2
 -9.0384490508268453E-02 a       443     0    23     1     3
 -4.0566524218836629E-02 a       444     0    23     1     4
 -1.2469411581055405E-02 a       445     0    23     1     5
  1.8843183867526231E-01 a       446     0    23     1     6
 -2.4306084367378383E-01 a       447     0    23     1     7
  3.7275552617369798E-02 a       448     0    23     1     8
 -9.2937247800412376E-02 a       449     0    23     1     9
  9.3972846363807025E-02 a       450     0    23     1    10
  1.9960331790396631E-02 a       451     0    23     1    11
  1.0045978058651327E-01 a       452     0    23     1    12
  3.5186854622504043E-01 a       453     0    23     1    13
 -2.5494070596283852E-01 a       454     0    23     1    14
 -1.2992388749491152E-01 a       455     0    23     1    15
 -3.8362833831182719E-01 a       456     0    23     1    16
 -3.5846400089843689E-01 a       457     0    23     1    17
 -4.1446563163547279E-02 a       458     0    23     1    18
  6.9859257832115121E-02 a       459     0    23     1    19
  4.0923270921290542E-02 a       460     0    23     1    20
  1.1092996596594629E-01 a       461     0    24     1     1
  1.0959993218052858E-01 a       462     0    24     1     2
  2.5017427412168769E-01 a       463     0    24     1     3
  3.6604616346030661E-01 a       464     0    24     1     4
  1.5508835129312740E-02 a       465     0    24     1     5
  4.9330435379610349E-01 a       466     0    24     1     6
 -1.9028187621910714E-01 a       467     0    24     1     7
 -1.9811928251911606E-01 a       468     0    24     1     8
 -1.5492054548013348E-01 a       469     0    24     1     9
  2.5081367647695535E-01 a       470     0    24     1    10
 -3.7208345116937352E-01 a       471     0    24     1    11
 -6.7963902974651380E-02 a       472     0    24     1    12
  3.2585651114473611E-02 a       473     0    24     1    13
  1.2364269128342864E-01 a       474     0    24     1    14
 -2.3730805440077551E-01 a       475     0    24     1    15
 -2.1201417625930288E-01 a       476     0    24     1    16
  9.3027170002902643E-02 a       477     0    24     1    17
 -2.7612871582777188E-02 a       478     0    24     1    18
  2.4150099135439751E-01 a       479     0    24     1    19
  1.7693115758764890E-03 a       480     0    24     1    20
  4.2024178678574753E-01 a       481     0    25     1     1
 -3.9700410992639670E-02 a       482     0    25     1     2
 -3.7553597771156394E-01 a       483     0    25     1     3
 -9.7249051413308918E-02 a       484     0    25     1     4
 -1.4913092630433586E-01 a       485     0    25     1     5
  4.7306066712154531E-02 a       486     0    25     1     6
 -3.6451434797952442E-01 a       487     0    25     1     7
 -3.0918832695725951E-01 a       488     0    25     1     8
  7.0484705562035316E-02 a       489     0    25     1     9
  2.1705149550050637E-01 a       490     0    25     1    10
  5.2321099918701452E-01 a       491     0    25     1    11
 -1.2484908695784515E-01 a       492     0    25     1    12
 -3.6169159053251167E-02 a       493     0    25     1    13
 -2.6494200536032519E-01 a       494     0    25     1    14
 -7.2235815012241883E-02 a       495     0    25     1    15
  3.2958793557730698E-01 a       496     0    25     1    16
  2.9932111796695970E-01 a       497     0    25     1    17
  3.8344422737041986E-02 a       498     0    25     1    18
  1.8978489679161895E-01 a       499     0    25     1    19
  1.4981018772073493E-01 a       500     0    25     1    20
  1.1238394861760220E-01 a       501     0    26     1     1
  3.0958143128758681E-01 a       502     0    26     1     2
  4.1010264147446907E-02 a       503     0    26     1     3
 -2.0216730118306039E-01 a       504     0    26     1     4
 -7.4998072122506212E-02 a       505     0    26     1     5
 -3.5198544407604188E-01 a       506     0    26     1     6
 -2.1168924524676616E-01 a       507     0    26     1     7
 -2.6762472174120033E-01 a       508     0    26     1     8
  4.0329124989486353E-01 a       509     0    26     1     9
 -1.1186989792731106E-01 a       510     0    26     1    10
 -2.6643599008610841E-01 a       511     0    26     1    11
 -6.4121412029771119E-02 a       512     0    26     1    12
 -2.5900697091185876E-01 a       513     0    26     1    13
 -1.0944871017414769E-01 a       514     0    26     1    14
  3.5409453468781515E-01 a       515     0    26     1    15
 -3.1739330067237242E-01 a       516     0    26     1    16
  1.9795160261595120E-02 a       517     0    26     1    17
 -3.3415256029194745E-01 a       518     0    26     1    18
  5.0831705489117751E-02 a       519     0    26     1    19
 -2.7566470572436502E-01 a       520     0    26     1    20
  1.7649645151253826E-01 a       521     0    27     1     1
  1.8965390283907983E-02 a       522     0    27     1     2
  2.8618209813254741E-01 a       523     0    27     1     3
  2.7489260981747882E-01 a       524     0    27     1     4
  2.0973333378514133E-01 a       525     0    27     1     5
 -3.3309918621914941E-01 a       526     0    27     1     6
  2.2793678482344812E-01 a       527     0    27     1     7
  7.1073732230218872E-02 a       528     0    27     1     8
 -3.6693649983597454E-01 a       529     0    27     1     9
 -2.8153273768201270E-01 a       530     0    27     1    10
 -1.5896691636895258E-01 a       531     0    27     1    11
  4.6735682188573885E-01 a       532     0    27     1    12
  2.6007836805523199E-01 a       533     0    27     1    13
 -4.4365765817338289E-03 a       534     0    27     1    14
  2.4451047494016637E-01 a       535     0    27     1    15
 -6.2490880650548218E-02 a       536     0    27     1    16
  2.6349539329827865E-01 a       537     0    27     1    17
  2.6724787393095667E-01 a       538     0    27     1    18
  3.7087945659930815E-01 a       539     0    27     1    19
  3.5489579992659737E-01 a       540     0    27     1    20
  1.6027002595773920E-01 a       541     0    28     1     1
 -3.3754457475350746E-01 a       542     0    28     1     2
 -1.1360198681699071E-01 a       543     0    28     1     3
  2.8403139030106145E-01 a       544     0    28     1     4
  8.0589508252999056E-02 a       545     0    28     1     5
  2.3621596855699248E-01 a       546     0    28     1     6
  9.8603957333262007E-02 a       547     0    28     1     7
  1.1109528900106579E-01 a       548     0    28     1     8
  1.4924336880447220E-01 a       549     0    28     1     9
  4.0034297600373742E-01 a       550     0    28     1    10
  3.0933900225422439E-01 a       551     0    28     1    11
  1.2695738565085707E-01 a       552     0    28     1    12
  2.4473008333569496E-01 a       553     0    28     1    13
 -3.8684031772150540E-01 a       554     0    28     1    14
  1.3301317986272115E-01 a       555     0    28     1    15
  1.8561808445089301E-02 a       556     0    28     1    16
  3.2256270121416158E-01 a       557     0    28     1    17
  8.0867090294448468E-02 a       558     0    28     1    18
 -3.0692985977138793E-01 a       559     0    28     1    19
  5.6479894735384416E-02 a       560     0    28     1    20
  1.0244802496065190E-01 a       561     0    29     1     1
  1.3418069263567759E-02 a       562     0    29     1     2
 -2.6873021982093437E-01 a       563     0    29     1     3
  4.7292391503523629E-02 a       564     0    29     1     4
  4.1982411573220073E-02 a       565     0    29     1     5
 -2.3081283340201461E-01 a       566     0    29     1     6
  1.4641171239102183E-01 a       567     0    29     1     7
 -2.0053606851457695E-01 a       568     0    29     1     8
  5.4480885646633240E-02 a       569     0    29     1     9
  1.5659820726469392E-01 a       570     0    29     1    10
 -1.2863263610922948E-01 a       571     0    29     1    11
 -1.4981646117840525E-01 a       572     0    29     1    12
 -1.4041389465102130E-01 a       573     0    29     1    13
  3.0211894953479468E-01 a       574     0    29     1    14
  1.8476013236682115E-01 a       575     0    29     1    15
 -3.1449097485891170E-01 a       576     0    29     1    16
 -2.0420528326520349E-01 a       577     0    29     1    17
  5.1082566146207001E-02 a       578     0    29     1    18
 -2.7811708198618068E-01 a       579     0    29     1    19
 -1.6761843149720859E-01 a       580     0    29     1    20
 -2.3205002300007729E-01 a       581     0    30     1     1
  1.9292387067536429E-01 a       582     0    30     1     2
 -7.8836759350954203E-02 a       583     0    30     1     3
 -2.4486929162674639E-01 a       584     0    30     1     4
 -2.0887770305660283E-01 a       585     0    30     1     5
 -1.9489345603902380E-01 a       586     0    30     1     6
  1.7268806452470761E-01 a       587     0    30     1     7
  1.4020955880967395E-01 a       588     0    30     1     8
 -8.9204853882371885E-02 a       589     0    30     1     9
 -3.5328148626219136E-01 a       590     0    30     1    10
  1.7931172386759694E-01 a       591     0    30     1    11
 -1.5515566543074014E-01 a       592     0    30     1    12
  6.0499645780027157E-03 a       593     0    30     1    13
  1.5553121665650735E-01 a       594     0    30     1    14
 -7.7236302361045617E-03 a       595     0    30     1    15
  3.7636403397378088E-01 a       596     0    30     1    16
 -3.4969579890831332E-01 a       597     0    30     1    17
 -2.4429629936849667E-01 a       598     0    30     1    18
  1.6732120803544984E-01 a       599     0    30     1    19
 -1.6533132015162535E-01 a       600     0    30     1    20
 -1.9752781054311830E-02 a       601     0    31     1     1
  1.8689638275167514E-01 a       602     0    31     1     2
  1.0540019960569628E-01 a       603     0    31     1     3
 -1.0006301565533994E-01 a       604     0    31     1     4
  4.8054009521037735E-02 a       605     0    31     1     5
 -2.6366325633110904E-01 a       606     0    31     1     6
  3.8861123278158083E-01 a       607     0    31     1     7
  2.6583184970825458E-01 a       608     0    31     1     8
  4.0089279110301879E-01 a       609     0    31     1     9
  1.4318523594116628E-01 a       610     0    31     1    10
  4.5051874741658476E-02 a       611     0    31     1    11
 -1.6868193205772225E-01 a       612     0    31     1    12
  2.0211741440059555E-01 a       613     0    31     1    13
 -3.1932885231458369E-01 a       614     0    31     1    14
 -1.4952859805920693E-01 a       615     0    31     1    15
  7.7098803314253256E-02 a       616     0    31     1    16
 -2.6957509674637906E-02 a       617     0    31     1    17
 -9.5863913692360345E-02 a       618     0    31     1    18
  1.7505299009887673E-01 a       619     0    31     1    19
  2.2981113939285155E-01 a       620     0    31     1    20
  1.8912721580530115E-01 a       621     0    32     1     1
  6.8141890767457566E-02 a       622     0    32     1     2
 -3.6769861125245884E-01 a       623     0    32     1     3
 -1.5048446051529338E-01 a       624     0    32     1     4
 -1.7367288910976403E-01 a       625     0    32     1     5
  3.4889390366458761E-01 a       626     0    32     1     6
 -2.2500587218049931E-01 a       627     0    32     1     7
 -1.3606421651159464E-01 a       628     0    32     1     8
 -9.9757082249510118E-02 a       629     0    32     1     9
 -1.8697558932275271E-01 a       630     0    32     1    10
  2.2799020652889728E-02 a       631     0    32     1    11
 -1.3491458961078412E-01 a       632     0    32     1    12
 -1.5241441192691779E-02 a       633     0    32     1    13
  1.2169403077091331E-01 a       634     0    32     1    14
 -2.6126377418037705E-01 a       635     0    32     1    15
 -4.7842689569753440E-02 a       636     0    32     1    16
 -3.5098718938643197E-01 a       637     0    32     1    17
 -5.7387062273453589E-02 a       638     0    32     1    18
  1.9681822844138885E-01 a       639     0    32     1    19
  6.9152337290883312E-02 a       640     0    32     1    20
  7.3649936642749736E-01 b       641     1     1
  1.1888788625126476E+00 b       642     1     2
  9.4722455333779698E-01 b       643     1     3
  1.3984647829997141E+00 b       644     1     4
  1.5923167201554361E-01 b       645     1     5
 -5.3400379724387037E-01 b       646     1     6
  1.3762391020361711E+00 b       647     1     7
  1.1531271629607758E+00 b       648     1     8
 -5.6816523491407944E-01 b       649     1     9
  3.7569223131315882E-01 b       650     1    10
  6.8262607918810378E-02 b       651     1    11
  6.7559918100072436E-01 b       652     1    12
  1.6100462736877357E+00 b       653     1    13
  2.4453872097143828E-01 b       654     1    14
 -7.9850118459358455E-01 b       655     1    15
 -1.4161628362590806E+00 b       656     1    16
  7.4559349558310772E-01 b       657     1    17
  1.4409620850499164E-01 b       658     1    18
 -7.3039962102920963E-01 b       659     1    19
 -4.4015706492821144E-01 b       660     1    20
  4.2944675910569624E-01 a       661     1     1     2     1
 -8.1241804375830257E-02 a       662     1     1     2     2
  1.7574161455919560E-01 a       663     1     1     2     3
  6.5283820537149950E-01 a       664     1     1     2     4
 -3.5405418977504249E-01 a       665     1     1     2     5
 -2.2198570966680715E-02 a       666     1     1     2     6
 -1.3237858950268636E-01 a       667     1     1     2     7
 -5.1279261558236955E-01 a       668     1     1     2     8
  6.2732793551099453E-01 a       669     1     1     2     9
 -5.3438165027121531E-01 a       670     1     1     2    10
 -5.9527169236295682E-02 a       671     1     1     2    11
  2.5605844331901267E-01 a       672     1     1     2    12
  2.6857375937507733E-01 a       673     1     1     2    13
 -2.9482787139728933E-01 a       674     1     1     2    14
  1.3883457780670802E-01 a       675     1     1     2    15
 -3.7228910774439194E-01 a       676     1     1     2    16
 -5.9191294799669258E-01 a       677     1     1     2    17
  1.2061141754091748E-01 a       678     1     1     2    18
  5.6190963853183129E-01 a       679     1     1     2    19
 -9.5100250842283823E-02 a       680     1     1     2    20
 -1.4780615163868155E-01 a       681     1     2     2     1
 -2.4849880581566397E-01 a       682     1     2     2     2
  4.0598070065570563E-02 a       683     1     2     2     3
 -6.0196949733553856E-02 a       684     1     2     2     4
  4.4694607555094645E-01 a       685     1     2     2     5
  2.1776633252417019E-01 a       686     1     2     2     6
  3.3303996203546549E-01 a       687     1     2     2     7
  5.0056600571539445E-01 a       688     1     2     2     8
  2.0147778533650265E-01 a       689     1     2     2     9
  3.0682293502990210E-01 a       690     1     2     2    10
  4.6332135907291694E-01 a       691     1     2     2    11
  3.8521292100465410E-01 a       692     1     2     2    12
  2.4890422109573190E-01 a       693     1     2     2    13
  7.1692126766469932E-01 a       694     1     2     2    14
  1.9380679942774223E-01 a       695     1     2     2    15
  2.8026666663993521E-01 a       696     1     2     2    16
  2.2233325683102664E-01 a       697     1     2     2    17
  6.3093533600785645E-01 a       698     1     2     2    18
  4.2366265789687257E-01 a       699     1     2     2    19
  5.8019143036098997E-01 a       700     1     2     2    20
 -1.6510981499234914E-01 a       701     1     3     2     1
 -4.3736434404857893E-01 a       702     1     3     2     2
 -4.4871426095254734E-02 a       703     1     3     2     3
 -2.7181105545985201E-01 a       704     1     3     2     4
  4.5907914660792193E-01 a       705     1     3     2     5
  1.0036290961789389E-01 a       706     1     3     2     6
  2.3705852557424500E-01 a       707     1     3     2     7
  3.2161692678304550E-02 a       708     1     3     2     8
  6.0780248122141711E-01 a       709     1     3     2     9
 -2.0426292435481025E-01 a       710     1     3     2    10
  5.3588227871879990E-01 a       711     1     3     2    11
 -2.5484899285037688E-01 a       712     1     3     2    12
 -5.1223956442715775E-02 a       713     1     3     2    13
  3.6597866173870663E-01 a       714     1     3     2    14
 -4.5295257174907166E-01 a       715     1     3     2    15
  4.6533285021985116E-01 a       716     1     3     2    16
  3.1064868145826145E-02 a       717     1     3     2    17
 -1.0881382940816027E-01 a       718     1     3     2    18
 -5.7554997091570181E-01 a       719     1     3     2    19
  4.0935934056054163E-01 a       720     1     3     2    20
  2.9161151048143030E-01 a       721     1     4     2     1
 -1.7800731557644373E-01 a       722     1     4     2     2
  1.0067894432426715E-01 a       723     1     4     2     3
 -2.5453556167666785E-01 a       724     1     4     2     4
 -6.8423285440962558E-02 a       725     1     4     2     5
 -1.4521974936427845E-01 a       726     1     4     2     6
  4.6515333827630617E-01 a       727     1     4     2     7
 -8.7014578946881721E-02 a       728     1     4     2     8
 -2.1524207168193366E-01 a       729     1     4     2     9
  1.1675297481476371E-01 a       730     1     4     2    10
 -4.9215092150362565E-02 a       731     1     4     2    11
  5.1252745944066824E-01 a       732     1     4     2    12
  6.2499843191523607E-01 a       733     1     4     2    13
 -6.4749247899499141E-01 a       734     1     4     2    14
 -4.4625750903036959E-01 a       735     1     4     2    15
 -3.1859198486183826E-01 a       736     1     4     2    16
 -4.2560236999999063E-01 a       737     1     4     2    17
 -1.4379575429165589E-01 a       738     1     4     2    18
 -1.0595482061314683E-01 a       739     1     4     2    19
  1.9742193608689518E-01 a       740     1     4     2    20
  5.3138286885382136E-01 a       741     1     5     2     1
 -6.9753819543261111E-02 a       742     1     5     2     2
 -3.9014039547234003E-01 a       743     1     5     2     3
  3.3112324237957064E-01 a       744     1     5     2     4
 -3.1897676945399012E-01 a       745     1     5     2     5
 -4.9241202518952626E-01 a       746     1     5     2     6
  6.1600078084956733E-01 a       747     1     5     2     7
 -5.5151502966274535E-01 a       748     1     5     2     8
 -5.2318748035110429E-01 a       749     1     5     2     9
  6.3497034453922785E-01 a       750     1     5     2    10
  2.5628108979699898E-01 a       751     1     5     2    11
  6.7609519249928682E-02 a       752     1     5     2    12
  3.3972360910703342E-01 a       753     1     5     2    13
 -2.5112007899186334E-01 a       754     1     5     2    14
 -3.5345268391960305E-01 a       755     1     5     2    15
 -2.8095560551172505E-01 a       756     1     5     2    16
 -6.1872527928387233E-01 a       757     1     5     2    17
  3.0660321795395151E-01 a       758     1     5     2    18
  5.1384255427754788E-01 a       759     1     5     2    19
 -4.1860679640883047E-01 a       760     1     5     2    20
 -4.2200988902123154E-01 a       761     1     6     2     1
 -3.3580347223472767E-01 a       762     1     6     2     2
 -4.8131814473298513E-02 a       763     1     6     2     3
 -4.5136645621391219E-01 a       764     1     6     2     4
  1.5125890117927066E-01 a       765     1     6     2     5
 -5.1947744569618169E-02 a       766     1     6     2     6
 -3.0057944478868626E-01 a       767     1     6     2     7
  2.2835643066029179E-01 a       768     1     6     2     8
  4.8251076643282048E-01 a       769     1     6     2     9
  3.8846639017534784E-01 a       770     1     6     2    10
 -7.2866015016014515E-02 a       771     1     6     2    11
  9.3898025950041611E-02 a       772     1     6     2    12
 -1.5492505567712631E-01 a       773     1     6     2    13
  2.2480251907022505E-01 a       774     1     6     2    14
  8.0306242465885275E-02 a       775     1     6     2    15
  4.2997091117110242E-01 a       776     1     6     2    16
  4.2003082375423856E-01 a       777     1     6     2    17
 -3.7909173076512349E-02 a       778     1     6     2    18
 -4.8117978774872699E-01 a       779     1     6     2    19
  1.2588547558513322E-01 a       780     1     6     2    20
  6.0520914478726506E-01 a       781     1     7     2     1
  4.2845548292800023E-01 a       782     1     7     2     2
  5.4977120795311196E-01 a       783     1     7     2     3
 -6.1779641116248363E-01 a       784     1     7     2     4
  5.3521084654688944E-01 a       785     1     7     2     5
 -4.0066145323434371E-01 a       786     1     7     2     6
 -6.2675924663236338E-01 a       787     1     7     2     7
 -2.1550498291966452E-01 a       788     1     7     2     8
  2.6027234726909809E-01 a       789     1     7     2     9
 -8.9642577856310204E-02 a       790     1     7     2    10
  2.3870016850662954E-02 a       791     1     7     2    11
 -3.3895208777461334E-02 a       792     1     7     2    12
  5.0046503331099190E-01 a       793     1     7     2    13
 -3.9435904219177542E-01 a       794     1     7     2    14
 -2.0054977059954671E-01 a       795     1     7     2    15
  4.9080686013910302E-02 a       796     1     7     2    16
  5.7479555768868074E-01 a       797     1     7     2    17
  7.2217208211026673E-02 a       798     1     7     2    18
 -1.1126624138937821E-01 a       799     1     7     2    19
 -4.0005513747369625E-01 a       800     1     7     2    20
 -4.7444860559894159E-01 a       801     1     8     2     1
  4.9928838118454494E-01 a       802     1     8     2     2
  6.2238462996286714E-01 a       803     1     8     2     3
  3.8938281314718265E-01 a       804     1     8     2     4
  5.9533181252435696E-01 a       805     1     8     2     5
 -3.2645193295238678E-01 a       806     1     8     2     6
 -4.7260484321468327E-01 a       807     1     8     2     7
 -6.2201952814647832E-01 a       808     1     8     2     8
  6.0518619516127414E-01 a       809     1     8     2     9
  1.7947192133580991E-01 a       810     1     8     2    10
 -2.1600225478548807E-01 a       811     1     8     2    11
 -2.8364308101610503E-02 a       812     1     8     2    12
 -2.7943618797198977E-01 a       813     1     8     2    13
  3.4615945928924065E-02 a       814     1     8     2    14
 -4.9213421724198675E-01 a       815     1     8     2    15
 -4.8497271363245698E-01 a       816     1     8     2    16
 -2.9940460694372784E-01 a       817     1     8     2    17
 -4.3278804601731652E-01 a       818     1     8     2    18
  2.7461439463492932E-01 a       819     1     8     2    19
  7.4476129197840173E-03 a       820     1     8     2    20
 -2.3929688589819012E-01 a       821     1     9     2     1
 -4.0795699872291330E-01 a       822     1     9     2     2
 -6.9474312555237305E-01 a       823     1     9     2     3
 -1.4347819379310400E-01 a       824     1     9     2     4
 -8.9239804270726225E-02 a       825     1     9     2     5
  3.0822384215349719E-01 a       826     1     9     2     6
  5.3039290786132498E-01 a       827     1     9     2     7
  2.7981808490292931E-01 a       828     1     9     2     8
  7.3755966708259491E-01 a       829     1     9     2     9
 -2.7818304277583528E-01 a       830     1     9     2    10
  5.2036583817850779E-01 a       831     1     9     2    11
 -3.3602318169350109E-01 a       832     1     9     2    12
 -6.1971547307600783E-01 a       833     1     9     2    13
  2.0195725587798910E-01 a       834     1     9     2    14
 -6.2706295916524457E-01 a       835     1     9     2    15
 -3.6725859892195417E-03 a       836     1     9     2    16
  1.1901552714458552E-01 a       837     1     9     2    17
 -2.5309743929030531E-01 a       838     1     9     2    18
  9.9050774438779535E-02 a       839     1     9     2    19
  4.6525279817811482E-01 a       840     1     9     2    20
  4.7655969373922624E-01 a       841     1    10     2     1
  5.4775075267256690E-01 a       842     1    10     2     2
 -1.3232585720286130E-01 a       843     1    10     2     3
  5.0335628734784865E-02 a       844     1    10     2     4
 -3.3328887538316443E-01 a       845     1    10     2     5
  3.0475161358240321E-01 a       846     1    10     2     6
 -4.9459035001663482E-01 a       847     1    10     2     7
 -1.4305361496137281E-01 a       848     1    10     2     8
  1.1546662430660556E-01 a       849     1    10     2     9
  3.2132548280711454E-01 a       850     1    10     2    10
  4.8853132166097921E-02 a       851     1    10     2    11
  4.1360856132828649E-01 a       852     1    10     2    12
 -2.5818250252321534E-01 a       853     1    10     2    13
  3.8735994893430825E-01 a       854     1    10     2    14
  5.5545831990258854E-01 a       855     1    10     2    15
  4.2763768962642257E-01 a       856     1    10     2    16
  3.6467866626314183E-01 a       857     1    10     2    17
  5.6127111453581180E-01 a       858     1    10     2    18
  4.1519076519117695E-02 a       859     1    10     2    19
 -2.7799063064354934E-01 a       860     1    10     2    20
  1.8561740611475957E-02 a       861     1    11     2     1
 -2.5919957279438910E-01 a       862     1    11     2     2
 -4.8081273888214970E-01 a       863     1    11     2     3
 -1.4598637096808595E-01 a       864     1    11     2     4
 -3.1484625699637542E-01 a       865     1    11     2     5
  2.1552539122076400E-01 a       866     1    11     2     6
  3.9759159870393657E-01 a       867     1    11     2     7
 -5.8874501184163552E-01 a       868     1    11     2     8
 -1.5958761642146921E-01 a       869     1    11     2     9
 -1.2458229833517229E-01 a       870     1    11     2    10
  4.5527407483540483E-01 a       871     1    11     2    11
 -5.6957341167919650E-03 a       872     1    11     2    12
  1.1029651418915955E-02 a       873     1    11     2    13
 -1.7497325010735107E-01 a       874     1    11     2    14
 -4.3620682720699566E-01 a       875     1    11     2    15
 -2.6541693704860975E-01 a       876     1    11     2    16
  3.4187725144296438E-02 a       877     1    11     2    17
 -1.6076036009171524E-01 a       878     1    11     2    18
  2.0145155231297274E-01 a       879     1    11     2    19
  1.8182319330732530E-01 a       880     1    11     2    20
 -1.3459312727680852E-02 a       881     1    12     2     1
  5.0004500067555713E-01 a       882     1    12     2     2
 -3.9615742584895663E-01 a       883     1    12     2     3
  2.0131104354959592E-01 a       884     1    12     2     4
  1.8389877174677546E-01 a       885     1    12     2     5
  5.6224775932206372E-01 a       886     1    12     2     6
 -2.9340777796124756E-01 a       887     1    12     2     7
 -9.3376587573252082E-03 a       888     1    12     2     8
 -5.7568623235580228E-02 a       889     1    12     2     9
 -3.4793350330577844E-01 a       890     1    12     2    10
 -4.7643997103086488E-01 a       891     1    12     2    11
  4.6562674329499693E-01 a       892     1    12     2    12
 -4.0677661070134508E-01 a       893     1    12     2    13
 -1.7437805287171468E-01 a       894     1    12     2    14
 -2.9456591737131799E-01 a       895     1    12     2    15
 -4.5103705029906360E-01 a       896     1    12     2    16
  1.8688026510212424E-02 a       897     1    12     2    17
  2.9233939360317907E-01 a       898     1    12     2    18
  5.2250829660848663E-01 a       899     1    12     2    19
  5.8863453115976172E-01 a       900     1    12     2    20
 -3.0713472034772774E-02 a       901     1    13     2     1
  1.8688533246381849E-02 a       902     1    13     2     2
 -2.7744976798335869E-01 a       903     1    13     2     3
  5.6193668437141388E-02 a       904     1    13     2     4
  1.5302462947419176E-01 a       905     1    13     2     5
  1.4046066004223989E-01 a       906     1    13     2     6
 -4.0651640294165400E-03 a       907     1    13     2     7
  3.7065583993701912E-01 a       908     1    13     2     8
  1.1527078270315842E-01 a       909     1    13     2     9
 -1.9042993620644680E-01 a       910     1    13     2    10
  5.1439479572129931E-01 a       911     1    13     2    11
 -3.6649836091241084E-01 a       912     1    13     2    12
  9.5500224531039235E-02 a       913     1    13     2    13
  5.0701680749232358E-01 a       914     1    13     2    14
  3.1096687847001631E-01 a       915     1    13     2    15
  9.6268452569844717E-02 a       916     1    13     2    16
  2.8142025525164421E-01 a       917     1    13     2    17
 -4.2693146326321552E-01 a       918     1    13     2    18
  4.5683969173283939E-01 a       919     1    13     2    19
  1.4019017653758103E-01 a       920     1    13     2    20
 -4.0403671705231897E-01 a       921     1    14     2     1
 -3.4529649738599177E-01 a       922     1    14     2     2
 -4.5100498668917632E-01 a       923     1    14     2     3
  1.2706579987518912E-01 a       924     1    14     2     4
 -4.0583418945997357E-01 a       925     1    14     2     5
 -1.4475149342139565E-01 a       926     1    14     2     6
 -7.2079748471927463E-01 a       927     1    14     2     7
 -4.4201512923778052E-01 a       928     1    14     2     8
 -3.2405233675212530E-01 a       929     1    14     2     9
 -3.7452254256735223E-01 a       930     1    14     2    10
 -4.0463175973324089E-01 a       931     1    14     2    11
  2.4879380658798658E-01 a       932     1    14     2    12
 -3.6261885629901836E-01 a       933     1    14     2    13
  2.7657791218224809E-01 a       934     1    14     2    14
 -6.1936353642359687E-01 a       935     1    14     2    15
  3.5501107785241409E-01 a       936     1    14     2    16
 -2.7417887899226678E-01 a       937     1    14     2    17
  3.4050109396962691E-01 a       938     1    14     2    18
 -3.6484991301244063E-01 a       939     1    14     2    19
 -2.3221824566915475E-01 a       940     1    14     2    20
  3.3798818589798896E-01 a       941     1    15     2     1
  5.2615262756593195E-01 a       942     1    15     2     2
 -5.0382443388724585E-01 a       943     1    15     2     3
 -1.8045349303172361E-02 a       944     1    15     2     4
 -1.2877841958888034E-01 a       945     1    15     2     5
 -3.0705495696890150E-01 a       946     1    15     2     6
 -7.7272748446812659E-02 a       947     1    15     2     7
  5.6166320016262572E-01 a       948     1    15     2     8
 -5.7302190180946400E-01 a       949     1    15     2     9
  4.9077405621752118E-01 a       950     1    15     2    10
 -6.1675990308147077E-01 a       951     1    15     2    11
  2.3076901316958293E-01 a       952     1    15     2    12
  5.6899294736744999E-01 a       953     1    15     2    13
  1.4372959604985974E-01 a       954     1    15     2    14
  1.3359900107697364E-01 a       955     1    15     2    15
  6.1616873448358568E-02 a       956     1    15     2    16
  1.3787490340161532E-01 a       957     1    15     2    17
 -3.8930653135585819E-01 a       958     1    15     2    18
  4.7567124019756885E-01 a       959     1    15     2    19
 -2.6581686868289461E-01 a       960     1    15     2    20
 -6.0011512891711050E-01 a       961     1    16     2     1
  2.9102446979702329E-01 a       962     1    16     2     2
 -3.3904605074828020E-01 a       963     1    16     2     3
 -5.8344726796093571E-01 a       964     1    16     2     4
  4.1250751615720832E-01 a       965     1    16     2     5
  4.5020382588978686E-01 a       966     1    16     2     6
  6.0715498930988571E-02 a       967     1    16     2     7
 -1.9658975567015763E-01 a       968     1    16     2     8
  7.4409513558366695E-03 a       969     1    16     2     9
 -4.2688239670845962E-01 a       970     1    16     2    10
 -5.1296360649542394E-01 a       971     1    16     2    11
 -5.2509973977167590E-01 a       972     1    16     2    12
 -5.1150983811989759E-01 a       973     1    16     2    13
  2.7685413636518670E-02 a       974     1    16     2    14
 -1.3102292498782142E-01 a       975     1    16     2    15
  2.7953950973825570E-01 a       976     1    16     2    16
  4.7605110090493191E-01 a       977     1    16     2    17
 -5.9849837087533919E-01 a       978     1    16     2    18
 -1.2122082633749932E-01 a       979     1    16     2    19
 -3.1750446235748486E-01 a       980     1    16     2    20
  2.8483893825998052E-01 a       981     1    17     2     1
  4.8217452203735273E-01 a       982     1    17     2     2
  3.9557484793315900E-01 a       983     1    17     2     3
 -2.8809245768093659E-02 a       984     1    17     2     4
 -2.0135324388740883E-01 a       985     1    17     2     5
  3.1987407468905915E-01 a       986     1    17     2     6
  4.9700012217238215E-01 a       987     1    17     2     7
 -4.4983941009772321E-02 a       988     1    17     2     8
  1.7885701003140492E-01 a       989     1    17     2     9
  2.2014462677246749E-01 a       990     1    17     2    10
 -2.5680632456224617E-01 a       991     1    17     2    11
  9.4433229896012938E-02 a       992     1    17     2    12
 -3.8773188766388300E-01 a       993     1    17     2    13
  1.3968795208635407E-01 a       994     1    17     2    14
  1.5848935444275278E-01 a       995     1    17     2    15
  1.5168726412096278E-01 a       996     1    17     2    16
  8.6865680352010796E-02 a       997     1    17     2    17
 -4.9434694888060288E-01 a       998     1    17     2    18
  1.1550234072651962E-01 a       999     1    17     2    19
  2.9374825098485913E-01 a      1000     1    17     2    20
 -2.1391740959574349E-01 a      1001     1    18     2     1
  4.0289954542802203E-01 a      1002     1    18     2     2
  7.2654309348604484E-01 a      1003     1    18     2     3
  2.0965331680119537E-01 a      1004     1    18     2     4
  5.4318860696746574E-01 a      1005     1    18     2     5
  6.1241307762045516E-01 a      1006     1    18     2     6
  2.8677123398383397E-01 a      1007     1    18     2     7
  4.5012681231771617E-01 a      1008     1    18     2     8
  3.0136164949725069E-01 a      1009     1    18     2     9
 -4.2221230164411039E-01 a      1010     1    18     2    10
  2.4746538870309420E-01 a      1011     1    18     2    11
 -2.1250911147620596E-03 a      1012     1    18     2    12
  1.9438560452206141E-01 a      1013     1    18     2    13
  6.6388318309924099E-01 a      1014     1    18     2    14
  5.5923846696233226E-01 a      1015     1    18     2    15
  5.2029374903183212E-01 a      1016     1    18     2    16
  2.5297768340349902E-01 a      1017     1    18     2    17
 -6.5786041592305666E-01 a      1018     1    18     2    18
 -1.4915376083539006E-01 a      1019     1    18     2    19
  5.2140704570040819E-01 a      1020     1    18     2    20
  5.5236824808220099E-02 a      1021     1    19     2     1
  6.7568163987257701E-01 a      1022     1    19     2     2
  4.0258702631592513E-01 a      1023     1    19     2     3
  1.1864695434911665E-01 a      1024     1    19     2     4
 -5.4447014391480886E-01 a      1025     1    19     2     5
  2.8016197623868327E-01 a      1026     1    19     2     6
  6.5578726943682789E-02 a      1027     1    19     2     7
 -5.4377274549125265E-01 a      1028     1    19     2     8
 -1.3377385709960193E-01 a      1029     1    19     2     9
  9.6484197577229786E-02 a      1030     1    19     2    10
 -3.9023096988470601E-01 a      1031     1    19     2    11
  4.9141852959273941E-01 a      1032     1    19     2    12
  2.5768552364727026E-01 a      1033     1    19     2    13
  2.9448049726736636E-01 a      1034     1    19     2    14
 -1.3199242271189041E-01 a      1035     1    19     2    15
  1.1030201008122271E-01 a      1036     1    19     2    16
  3.5743183012871443E-01 a      1037     1    19     2    17
  9.4327678637137161E-02 a      1038     1    19     2    18
  6.7223810365668421E-02 a      1039     1    19     2    19
 -5.4580708663561894E-01 a      1040     1    19     2    20
  2.3799946384153300E-01 a      1041     1    20     2     1
 -3.8911798200991228E-02 a      1042     1    20     2     2
 -4.3011879758277749E-01 a      1043     1    20     2     3
 -3.4001882317033133E-02 a      1044     1    20     2     4
  3.6097214106229442E-01 a      1045     1    20     2     5
  2.4562480333624856E-01 a      1046     1    20     2     6
  2.1080277911974965E-01 a      1047     1    20     2     7
  2.5253975449886079E-01 a      1048     1    20     2     8
  7.3806162258684205E-01 a      1049     1    20     2     9
 -4.9396266820346472E-02 a      1050     1    20     2    10
 -2.8319996527402511E-03 a      1051     1    20     2    11
  5.2627383980972808E-01 a      1052     1    20     2    12
 -6.8532997407802376E-01 a      1053     1    20     2    13
  3.2088065978362412E-01 a      1054     1    20     2    14
  4.1042213676649691E-01 a      1055     1    20     2    15
  4.4234664077575664E-01 a      1056     1    20     2    16
 -5.0166014162353190E-01 a      1057     1    20     2    17
  7.7329375465719830E-02 a      1058     1    20     2    18
  1.0949640451814473E-01 a      1059     1    20     2    19
  1.3173501505740304E-01 a      1060     1    20     2    20
  5.7454828374770528E-01 b      1061     2     1
  4.7857023270605520E-01 b      1062     2     2
 -7.1777406543776323E-01 b      1063     2     3
  7.6461317939658391E-01 b      1064     2     4
  4.6479202693855642E-01 b      1065     2     5
 -1.0803240557207390E+00 b      1066     2     6
 -6.4176480834110816E-02 b      1067     2     7
  2.0239207257403419E-01 b      1068     2     8
 -1.6742624873974625E+00 b      1069     2     9
 -1.6477779959245107E+00 b      1070     2    10
  5.7856452675444064E-02 b      1071     2    11
 -1.2174373473252933E+00 b      1072     2    12
 -1.4616956754897383E+00 b      1073     2    13
 -1.3364844327340943E+00 b      1074     2    14
  8.8070913629235859E-02 b      1075     2    15
 -6.1312210265469491E-01 b      1076     2    16
 -4.8035042220067675E-01 b      1077     2    17
 -7.8096924217144548E-01 b      1078     2    18
  9.4544474209264240E-01 b      1079     2    19
  8.3281080504583527E-01 b      1080     2    20
 -5.0708175934608946E-01 a      1081     2     1     3     1
  4.0683049626821462E-02 a      1082     2     2     3     1
 -6.6665181625249745E-02 a      1083     2     3     3     1
 -9.4976106203966837E-01 a      1084     2     4     3     1
  2.5101127621423146E-03 a      1085     2     5     3     1
 -1.0742687344907396E+00 a      1086     2     6     3     1
  1.2106320125900713E-01 a      1087     2     7     3     1
  2.8735536177730052E-02 a      1088     2     8     3     1
  1.0554393645951956E-02 a      1089     2     9     3     1
  1.0087919587502618E+00 a      1090     2    10     3     1
 -8.3126533372240102E-02 a      1091     2    11     3     1
  2.2699904631805051E-01 a      1092     2    12     3     1
 -2.2197235220216799E-01 a      1093     2    13     3     1
 -9.2057726928648242E-01 a      1094     2    14     3     1
 -1.2144970048615050E-01 a      1095     2    15     3     1
  7.4810659916905387E-01 a      1096     2    16     3     1
 -1.0562613480712679E+00 a      1097     2    17     3     1
  5.8375513711082037E-02 a      1098     2    18     3     1
  6.7450032838831642E-01 a      1099     2    19     3     1
 -6.6184797099427140E-01 a      1100     2    20     3     1
 -8.7337554461984368E-01 b      1101     3     1
