################################################################################
# Neural network connection values (weights and biases).
################################################################################
# Col  Name       Description
################################################################################
# 1    connection Neural network connection value.
# 2    t          Connection type (a = weight, b = bias).
# 3    index      Index enumerating weights.
# 4    l_s        Starting point layer (end point layer for biases).
# 5    n_s        Starting point neuron in starting layer (end point neuron for biases).
# 6    l_e        End point layer.
# 7    n_e        End point neuron in end layer.
################################################################################
#                      1 2         3     4     5     6     7
#             connection t     index   l_s   n_s   l_e   n_e
############################################################
 -2.1729152153798653E-01 a         1     0     1     1     1
 -2.7534413263729124E-01 a         2     0     1     1     2
 -2.2191641727783312E-03 a         3     0     1     1     3
  1.9423674460389295E-01 a         4     0     1     1     4
 -1.4320117403506882E-01 a         5     0     1     1     5
  1.7567796265309207E-01 a         6     0     1     1     6
  2.9825705130923419E-01 a         7     0     1     1     7
  1.6104511237760835E-01 a         8     0     1     1     8
 -4.7972051942308698E-02 a         9     0     1     1     9
 -3.0164221071107493E-02 a        10     0     1     1    10
 -1.9776946169461360E-01 a        11     0     1     1    11
 -2.6461981569996124E-01 a        12     0     1     1    12
 -8.9782268929852055E-02 a        13     0     1     1    13
 -1.0665690240005361E-01 a        14     0     1     1    14
  3.1527608319226175E-01 a        15     0     1     1    15
 -1.1196999342296576E-01 a        16     0     1     1    16
  4.6117184676048045E-01 a        17     0     1     1    17
  5.6591845475059806E-02 a        18     0     1     1    18
 -2.1539955540811209E-01 a        19     0     1     1    19
 -2.2003396583623144E-01 a        20     0     1     1    20
 -1.2143058337937652E-01 a        21     0     2     1     1
 -4.7020768020045872E-01 a        22     0     2     1     2
 -1.2064519185843659E-02 a        23     0     2     1     3
  1.4016083851208697E-01 a        24     0     2     1     4
  2.2344681275592754E-01 a        25     0     2     1     5
  6.2200161529835304E-02 a        26     0     2     1     6
 -3.4737603538013959E-02 a        27     0     2     1     7
  6.0211643981894221E-02 a        28     0     2     1     8
  2.2061842146166119E-01 a        29     0     2     1     9
 -3.1150411008017126E-01 a        30     0     2     1    10
  1.0977081009623707E-01 a        31     0     2     1    11
 -2.8124979956455359E-01 a        32     0     2     1    12
 -4.1066096683050296E-01 a        33     0     2     1    13
 -4.0829056095617955E-01 a        34     0     2     1    14
  5.2544381330390078E-01 a        35     0     2     1    15
  2.7035293681924438E-01 a        36     0     2     1    16
 -3.8279882665117997E-02 a        37     0     2     1    17
  4.2690154299195865E-01 a        38     0     2     1    18
  9.6439007302860966E-02 a        39     0     2     1    19
 -1.0911053649261142E-01 a        40     0     2     1    20
  3.0518130181298997E-01 a        41     0     3     1     1
 -1.6277541981484389E-01 a        42     0     3     1     2
  6.9804590860740451E-02 a        43     0     3     1     3
  1.4568313941441435E-01 a        44     0     3     1     4
 -1.4061584695441354E-01 a        45     0     3     1     5
  2.0046753747034238E-01 a        46     0     3     1     6
 -2.4951951357075910E-01 a        47     0     3     1     7
  1.1521308042027319E-01 a        48     0     3     1     8
  3.8792279471491481E-01 a        49     0     3     1     9
 -4.2743904974147490E-01 a        50     0     3     1    10
  4.9247642687007112E-02 a        51     0     3     1    11
  2.3515521169797621E-01 a        52     0     3     1    12
 -4.1968280359219545E-01 a        53     0     3     1    13
 -1.0874353199099843E-01 a        54     0     3     1    14
  2.8442822683194341E-01 a        55     0     3     1    15
  3.1469120363691944E-01 a        56     0     3     1    16
 -5.8320142826795496E-01 a        57     0     3     1    17
 -3.8418521219914653E-01 a        58     0     3     1    18
  1.4768530570090696E-01 a        59     0     3     1    19
 -2.2790087525993447E-01 a        60     0     3     1    20
  1.7412302164625881E-01 a        61     0     4     1     1
  4.2392529989780758E-01 a        62     0     4     1     2
 -1.1443482432773822E-01 a        63     0     4     1     3
 -8.8897502955458632E-02 a        64     0     4     1     4
 -2.1667223836548474E-01 a        65     0     4     1     5
 -3.1409573143032221E-02 a        66     0     4     1     6
  1.2846634968064544E-01 a        67     0     4     1     7
 -1.5807428343207014E-01 a        68     0     4     1     8
 -3.9514745747468627E-01 a        69     0     4     1     9
 -1.5128723670206190E-01 a        70     0     4     1    10
 -3.3773973027363602E-01 a        71     0     4     1    11
 -2.1905406975126555E-02 a        72     0     4     1    12
  3.2836461562999297E-01 a        73     0     4     1    13
  9.8165009998916641E-02 a        74     0     4     1    14
 -2.0834840866488624E-02 a        75     0     4     1    15
  2.3557871263609795E-02 a        76     0     4     1    16
  3.5382843239936840E-01 a        77     0     4     1    17
 -7.8028620096178147E-01 a        78     0     4     1    18
  5.3505105823275771E-02 a        79     0     4     1    19
 -1.0919278029207512E-01 a        80     0     4     1    20
 -1.5703391947831852E-01 a        81     0     5     1     1
 -7.7350030083652321E-02 a        82     0     5     1     2
 -2.8581613732833960E-01 a        83     0     5     1     3
  2.9023060723423455E-01 a        84     0     5     1     4
 -1.7185218649690820E-01 a        85     0     5     1     5
 -2.7787834093546043E-01 a        86     0     5     1     6
 -1.3367879431839474E-01 a        87     0     5     1     7
 -1.4612931351700800E-03 a        88     0     5     1     8
 -4.8888917643305663E-01 a        89     0     5     1     9
 -1.2140780620027875E-02 a        90     0     5     1    10
 -2.7995259563065564E-02 a        91     0     5     1    11
 -2.9913205487223526E-01 a        92     0     5     1    12
  1.7649156672782454E-01 a        93     0     5     1    13
  2.9121154876089800E-01 a        94     0     5     1    14
 -1.4360930707815545E-01 a        95     0     5     1    15
 -2.0866806509017505E-01 a        96     0     5     1    16
  4.3929622450454453E-01 a        97     0     5     1    17
  3.1923329959746682E-01 a        98     0     5     1    18
 -2.5358252940031634E-01 a        99     0     5     1    19
  3.0616043249883879E-01 a       100     0     5     1    20
  1.5736361903921495E-01 a       101     0     6     1     1
  2.7282381357100385E-02 a       102     0     6     1     2
 -3.8038722216682452E-03 a       103     0     6     1     3
 -3.4813722315795693E-02 a       104     0     6     1     4
 -2.5353162867878514E-02 a       105     0     6     1     5
 -3.8636504342356458E-02 a       106     0     6     1     6
 -2.7455745235752160E-01 a       107     0     6     1     7
 -2.1836661689962161E-01 a       108     0     6     1     8
 -1.0034624494140347E-01 a       109     0     6     1     9
  9.0154172087426349E-02 a       110     0     6     1    10
  2.8805084110210821E-01 a       111     0     6     1    11
  5.8716718600954579E-02 a       112     0     6     1    12
  1.8793143972354445E-01 a       113     0     6     1    13
 -2.3655611033382362E-01 a       114     0     6     1    14
 -8.6669085963450437E-02 a       115     0     6     1    15
 -8.3014989831758673E-02 a       116     0     6     1    16
  1.3715834725100209E-01 a       117     0     6     1    17
  3.4488313455730490E-01 a       118     0     6     1    18
  2.5969002203495617E-01 a       119     0     6     1    19
 -9.4215471697655123E-02 a       120     0     6     1    20
  2.4628081852036596E-01 a       121     0     7     1     1
  1.1794382056389122E-02 a       122     0     7     1     2
 -2.7905949997886696E-02 a       123     0     7     1     3
  2.6782326601481116E-01 a       124     0     7     1     4
 -7.1586253282416634E-02 a       125     0     7     1     5
  2.7361455078924492E-02 a       126     0     7     1     6
 -2.4410963549177711E-01 a       127     0     7     1     7
  1.3297060754576173E-01 a       128     0     7     1     8
  2.2321180892490142E-01 a       129     0     7     1     9
 -9.5708587859204358E-02 a       130     0     7     1    10
 -2.3729349467896660E-01 a       131     0     7     1    11
  1.5881604640373850E-01 a       132     0     7     1    12
  1.1544050977356743E-01 a       133     0     7     1    13
 -2.7401590749715077E-01 a       134     0     7     1    14
  3.2429699942494489E-01 a       135     0     7     1    15
 -2.9281103284819510E-01 a       136     0     7     1    16
 -2.4171414396370322E-01 a       137     0     7     1    17
 -1.9506742586816092E-01 a       138     0     7     1    18
 -6.6804089174773533E-03 a       139     0     7     1    19
 -1.8676513949823031E-01 a       140     0     7     1    20
  3.1244654071757791E-02 a       141     0     8     1     1
  1.3041517431267075E-01 a       142     0     8     1     2
 -3.2687719480057997E-02 a       143     0     8     1     3
  2.2681487213559501E-01 a       144     0     8     1     4
  8.6694139261419292E-02 a       145     0     8     1     5
 -1.3627749597827621E-01 a       146     0     8     1     6
  1.9398062784958761E-01 a       147     0     8     1     7
 -1.7925137281588832E-01 a       148     0     8     1     8
 -5.4028089488337011E-02 a       149     0     8     1     9
 -2.7079346379550839E-01 a       150     0     8     1    10
  1.7101617577913375E-01 a       151     0     8     1    11
 -8.6340977181241618E-02 a       152     0     8     1    12
 -1.3360958508581200E-01 a       153     0     8     1    13
  1.1290737086105887E-01 a       154     0     8     1    14
 -1.6205262815098501E-01 a       155     0     8     1    15
 -2.1004205842316950E-01 a       156     0     8     1    16
  1.2398579368985627E-01 a       157     0     8     1    17
 -2.1718026858096737E-01 a       158     0     8     1    18
  1.0738664927333420E-02 a       159     0     8     1    19
 -5.6319583204402009E-02 a       160     0     8     1    20
 -5.3242054518211054E-02 a       161     0     9     1     1
  1.9270252886508053E-02 a       162     0     9     1     2
 -2.8280139643684554E-01 a       163     0     9     1     3
  9.7625996438351528E-02 a       164     0     9     1     4
 -9.9988329779916660E-02 a       165     0     9     1     5
 -3.2954238573755137E-02 a       166     0     9     1     6
 -1.7939054049681526E-02 a       167     0     9     1     7
 -1.0746888539449176E-01 a       168     0     9     1     8
  3.5137333390137465E-03 a       169     0     9     1     9
 -2.2179945921635827E-01 a       170     0     9     1    10
  3.9440420497938744E-01 a       171     0     9     1    11
  4.4362078511565962E-02 a       172     0     9     1    12
 -1.8741867219290567E-01 a       173     0     9     1    13
  5.3119839587401199E-02 a       174     0     9     1    14
 -1.7428381177351196E-01 a       175     0     9     1    15
 -2.9062238182468908E-01 a       176     0     9     1    16
  3.0669778769901707E-02 a       177     0     9     1    17
 -1.5013954711116165E-01 a       178     0     9     1    18
  7.6598044683951358E-02 a       179     0     9     1    19
  1.0319391423311472E-01 a       180     0     9     1    20
 -1.8038205091677564E-01 a       181     0    10     1     1
 -5.4854621629076686E-02 a       182     0    10     1     2
 -6.1255753688106117E-02 a       183     0    10     1     3
 -4.2153326056612667E-01 a       184     0    10     1     4
 -3.2445015486859463E-02 a       185     0    10     1     5
  1.8697652691822078E-01 a       186     0    10     1     6
 -1.7718934877075623E-01 a       187     0    10     1     7
  1.1891788248964119E-01 a       188     0    10     1     8
  2.9927643718138399E-03 a       189     0    10     1     9
  2.4559301700789454E-01 a       190     0    10     1    10
 -1.6134891302815625E-02 a       191     0    10     1    11
 -1.2128104304874793E-02 a       192     0    10     1    12
  5.4903086926376909E-01 a       193     0    10     1    13
  3.1385835586198736E-02 a       194     0    10     1    14
  2.1441964386907420E-02 a       195     0    10     1    15
 -1.4268215227489531E-02 a       196     0    10     1    16
 -9.2344447066023627E-02 a       197     0    10     1    17
 -9.5128619210604615E-02 a       198     0    10     1    18
  1.5631453326365694E-01 a       199     0    10     1    19
  2.9817796596829527E-01 a       200     0    10     1    20
  9.1001644559683348E-02 a       201     0    11     1     1
  2.1365691538635267E-01 a       202     0    11     1     2
 -1.6640596493587834E-01 a       203     0    11     1     3
  5.2574171085475845E-02 a       204     0    11     1     4
  2.5255503934674732E-02 a       205     0    11     1     5
 -1.7531407345031128E-01 a       206     0    11     1     6
 -8.4293743918947603E-02 a       207     0    11     1     7
  1.4642968611577672E-01 a       208     0    11     1     8
  7.3130551301145404E-03 a       209     0    11     1     9
  6.0973940527461100E-02 a       210     0    11     1    10
 -7.6155217225754898E-02 a       211     0    11     1    11
  1.0584501832101804E-02 a       212     0    11     1    12
  2.3453927700026189E-01 a       213     0    11     1    13
 -1.6765590468859312E-01 a       214     0    11     1    14
 -1.1887938226569339E-01 a       215     0    11     1    15
 -2.8152010885067347E-01 a       216     0    11     1    16
  4.3462839894472961E-03 a       217     0    11     1    17
  4.4458174869415057E-02 a       218     0    11     1    18
 -8.0699881506145835E-02 a       219     0    11     1    19
 -1.0325828959724272E-01 a       220     0    11     1    20
  7.3188569338505538E-02 a       221     0    12     1     1
 -1.7148526760062613E-01 a       222     0    12     1     2
  2.8504229811249077E-01 a       223     0    12     1     3
  7.9643291639787214E-02 a       224     0    12     1     4
  7.7030853123761060E-03 a       225     0    12     1     5
 -1.7992176290257708E-01 a       226     0    12     1     6
  4.5892793801768035E-02 a       227     0    12     1     7
 -3.3549353474247334E-01 a       228     0    12     1     8
 -1.1551044508143359E-01 a       229     0    12     1     9
  5.4455714518969259E-02 a       230     0    12     1    10
  2.0284673016195268E-01 a       231     0    12     1    11
  2.5168165714362064E-03 a       232     0    12     1    12
  9.3298122571498082E-02 a       233     0    12     1    13
  2.1075830185400060E-01 a       234     0    12     1    14
 -2.2397190483589799E-01 a       235     0    12     1    15
  2.7767979311213664E-01 a       236     0    12     1    16
 -1.9137221859689660E-01 a       237     0    12     1    17
 -9.3482711614134101E-02 a       238     0    12     1    18
 -1.4746687195275568E-01 a       239     0    12     1    19
 -1.7388212389478108E-01 a       240     0    12     1    20
 -2.3660244703250385E-01 a       241     0    13     1     1
  1.3925897140482127E-01 a       242     0    13     1     2
 -4.0281874540023799E-01 a       243     0    13     1     3
  2.0608515748484990E-01 a       244     0    13     1     4
 -2.3843727957351751E-01 a       245     0    13     1     5
  2.1522168242944975E-01 a       246     0    13     1     6
  1.6491376447773623E-01 a       247     0    13     1     7
 -3.0366890118254156E-03 a       248     0    13     1     8
  2.5959680361284521E-01 a       249     0    13     1     9
 -3.8570119125455678E-03 a       250     0    13     1    10
 -1.3402906541587326E-02 a       251     0    13     1    11
 -1.0504232540464688E-01 a       252     0    13     1    12
  7.3098802531597257E-02 a       253     0    13     1    13
  2.2607395700220445E-01 a       254     0    13     1    14
 -1.4032164596778718E-01 a       255     0    13     1    15
 -6.3939633307491693E-03 a       256     0    13     1    16
  1.3971787173765909E-01 a       257     0    13     1    17
 -8.0649656442229392E-02 a       258     0    13     1    18
 -9.6623511288233647E-03 a       259     0    13     1    19
 -3.4875090010641936E-02 a       260     0    13     1    20
 -2.4412696512204249E-01 a       261     0    14     1     1
  1.4148816842901726E-01 a       262     0    14     1     2
 -2.5146075974692866E-01 a       263     0    14     1     3
 -1.1906678232556825E-01 a       264     0    14     1     4
  2.0019330183417932E-02 a       265     0    14     1     5
  2.2482962965281528E-01 a       266     0    14     1     6
  6.4222901024540605E-02 a       267     0    14     1     7
  2.5434815384785686E-01 a       268     0    14     1     8
  1.4751476371644998E-01 a       269     0    14     1     9
  1.9797313578660100E-01 a       270     0    14     1    10
 -2.2298968212563869E-01 a       271     0    14     1    11
 -1.2761366901326016E-01 a       272     0    14     1    12
  1.6068859140505523E-01 a       273     0    14     1    13
  1.7877672045150980E-01 a       274     0    14     1    14
 -8.3935614723346638E-02 a       275     0    14     1    15
 -2.8921336229720773E-01 a       276     0    14     1    16
 -3.3635931096103605E-02 a       277     0    14     1    17
 -5.6340898976788109E-02 a       278     0    14     1    18
  1.2647566171350885E-01 a       279     0    14     1    19
  3.0414663975102635E-01 a       280     0    14     1    20
 -1.1535211796740935E-01 a       281     0    15     1     1
 -1.0341133192952401E-01 a       282     0    15     1     2
  3.7572186945149122E-01 a       283     0    15     1     3
 -2.4751180107599849E-01 a       284     0    15     1     4
  1.8805047656492965E-01 a       285     0    15     1     5
  6.4382932371158594E-02 a       286     0    15     1     6
  5.7809619588176125E-02 a       287     0    15     1     7
 -8.8390065080707972E-02 a       288     0    15     1     8
 -1.1627339580914475E-01 a       289     0    15     1     9
 -1.1138438234392960E-01 a       290     0    15     1    10
 -1.5508195346442832E-01 a       291     0    15     1    11
 -7.8053427625911886E-02 a       292     0    15     1    12
 -3.7872015688587718E-01 a       293     0    15     1    13
  1.3704709157874237E-01 a       294     0    15     1    14
 -5.4370909913698681E-02 a       295     0    15     1    15
 -1.1289433742654928E-01 a       296     0    15     1    16
 -1.7657531923259920E-01 a       297     0    15     1    17
  4.6414569503425769E-02 a       298     0    15     1    18
 -1.0932972365323482E-01 a       299     0    15     1    19
  1.4518855691663235E-01 a       300     0    15     1    20
  2.1630831483858519E-02 a       301     0    16     1     1
 -1.1615823112329908E-01 a       302     0    16     1     2
  2.6764738723275666E-01 a       303     0    16     1     3
 -8.5244605768519083E-02 a       304     0    16     1     4
 -4.6042422429654332E-02 a       305     0    16     1     5
 -6.8458847637182602E-02 a       306     0    16     1     6
 -1.1874823880343718E-01 a       307     0    16     1     7
 -1.9308245540601124E-01 a       308     0    16     1     8
 -2.4701793037001116E-01 a       309     0    16     1     9
 -2.1458561198007026E-01 a       310     0    16     1    10
  2.3480952388845286E-01 a       311     0    16     1    11
 -4.7301342278968109E-02 a       312     0    16     1    12
  2.9588880534004586E-01 a       313     0    16     1    13
  5.4434887299048135E-02 a       314     0    16     1    14
  2.8839070588397020E-01 a       315     0    16     1    15
 -1.4369894650741402E-01 a       316     0    16     1    16
 -4.7185511880655458E-02 a       317     0    16     1    17
 -8.4583053416030646E-02 a       318     0    16     1    18
 -1.4635524907121669E-01 a       319     0    16     1    19
  3.2493024100397158E-02 a       320     0    16     1    20
 -9.0426104495726176E-02 a       321     0    17     1     1
 -2.3529240291273887E-01 a       322     0    17     1     2
  5.6481238518566172E-02 a       323     0    17     1     3
 -1.4269220370084104E-01 a       324     0    17     1     4
 -4.0682824501613715E-02 a       325     0    17     1     5
  1.8047940909167765E-01 a       326     0    17     1     6
  1.8410464153696748E-01 a       327     0    17     1     7
  1.7942337112594309E-01 a       328     0    17     1     8
  2.4120575880290169E-02 a       329     0    17     1     9
 -2.0877140293906687E-01 a       330     0    17     1    10
 -4.8725604483493334E-02 a       331     0    17     1    11
 -1.6603187439814979E-01 a       332     0    17     1    12
 -1.3761120515476054E-02 a       333     0    17     1    13
 -2.5249295170788938E-01 a       334     0    17     1    14
  3.8205865140478240E-01 a       335     0    17     1    15
 -2.0445916440594014E-01 a       336     0    17     1    16
  2.1206790487717764E-01 a       337     0    17     1    17
  2.9495540274073990E-02 a       338     0    17     1    18
 -6.3937764992532037E-02 a       339     0    17     1    19
 -1.4502691837491219E-01 a       340     0    17     1    20
 -9.4494524715934475E-02 a       341     0    18     1     1
  7.0472917932587018E-02 a       342     0    18     1     2
 -2.9762467507049001E-01 a       343     0    18     1     3
 -3.1640673565031108E-01 a       344     0    18     1     4
 -6.3566434230876781E-02 a       345     0    18     1     5
  1.5488449616234401E-01 a       346     0    18     1     6
  6.6397683642118607E-02 a       347     0    18     1     7
  9.1365217283079225E-02 a       348     0    18     1     8
 -1.1044068144932258E-02 a       349     0    18     1     9
 -2.0614459375719860E-02 a       350     0    18     1    10
  1.5448605753979411E-01 a       351     0    18     1    11
 -7.1397518035310345E-02 a       352     0    18     1    12
 -3.4398592360603342E-01 a       353     0    18     1    13
 -2.3631335752650259E-01 a       354     0    18     1    14
  1.5402253026399956E-01 a       355     0    18     1    15
  2.8789338000393683E-01 a       356     0    18     1    16
 -1.6894682432046726E-01 a       357     0    18     1    17
  8.7351913161517664E-02 a       358     0    18     1    18
  7.5484727424588616E-02 a       359     0    18     1    19
  6.3916444559467198E-02 a       360     0    18     1    20
 -8.1269618684507744E-02 a       361     0    19     1     1
  6.5889093939169904E-02 a       362     0    19     1     2
  1.5235225347060388E-01 a       363     0    19     1     3
 -6.4000870920212671E-02 a       364     0    19     1     4
  6.3356357573223887E-02 a       365     0    19     1     5
  7.6044591574525658E-02 a       366     0    19     1     6
 -3.3922235435069150E-03 a       367     0    19     1     7
 -8.3079109968672196E-02 a       368     0    19     1     8
  1.0779453529786352E-01 a       369     0    19     1     9
  1.7335532760998235E-01 a       370     0    19     1    10
 -2.0433216913984634E-01 a       371     0    19     1    11
  4.4091879181706777E-03 a       372     0    19     1    12
 -1.1236609418295500E-01 a       373     0    19     1    13
  3.7262194699620427E-01 a       374     0    19     1    14
 -3.9677653090800824E-01 a       375     0    19     1    15
  3.3021993354814670E-02 a       376     0    19     1    16
  4.4906121245937888E-02 a       377     0    19     1    17
  3.2190097892975389E-02 a       378     0    19     1    18
 -1.0545712408196727E-02 a       379     0    19     1    19
  1.1124931390254197E-01 a       380     0    19     1    20
 -1.4370470988065709E-01 a       381     0    20     1     1
  1.3355581487571846E-01 a       382     0    20     1     2
 -2.1834605035398907E-01 a       383     0    20     1     3
  1.9098756214483537E-01 a       384     0    20     1     4
 -1.3596715228243603E-01 a       385     0    20     1     5
  8.0420468250101768E-02 a       386     0    20     1     6
  6.4855547467952177E-02 a       387     0    20     1     7
  5.3035114990784782E-02 a       388     0    20     1     8
  8.3344830660504021E-02 a       389     0    20     1     9
 -5.3559354218959132E-02 a       390     0    20     1    10
 -1.1219673624541250E-01 a       391     0    20     1    11
 -1.7044920205494002E-01 a       392     0    20     1    12
 -6.8027975958762199E-02 a       393     0    20     1    13
  1.6132464567190929E-01 a       394     0    20     1    14
  2.2066938820136137E-02 a       395     0    20     1    15
 -3.7111793581276609E-01 a       396     0    20     1    16
 -5.9868153684295447E-02 a       397     0    20     1    17
 -9.2350892002014850E-02 a       398     0    20     1    18
 -9.5788451284472845E-02 a       399     0    20     1    19
  2.2811639391298036E-03 a       400     0    20     1    20
  1.3268217589278797E-01 a       401     0    21     1     1
  2.2336394283115332E-01 a       402     0    21     1     2
  2.7084083582897861E-01 a       403     0    21     1     3
 -2.8079177283155249E-01 a       404     0    21     1     4
 -1.7813060264534178E-02 a       405     0    21     1     5
  1.3228717863350259E-01 a       406     0    21     1     6
 -3.6151480079388998E-01 a       407     0    21     1     7
 -1.9028200651705277E-01 a       408     0    21     1     8
 -1.4206339605657367E-01 a       409     0    21     1     9
  2.2155805513753832E-01 a       410     0    21     1    10
  3.4220735585823940E-02 a       411     0    21     1    11
  1.9285772592177758E-01 a       412     0    21     1    12
  2.7259234040799177E-02 a       413     0    21     1    13
  1.7807614268923064E-01 a       414     0    21     1    14
  4.4640861420217247E-02 a       415     0    21     1    15
  8.0112362650733571E-02 a       416     0    21     1    16
  1.4246407776497563E-01 a       417     0    21     1    17
  6.8459938917286328E-02 a       418     0    21     1    18
  1.8647766703809486E-02 a       419     0    21     1    19
  2.1890314233260322E-01 a       420     0    21     1    20
 -2.4122537215746703E-01 a       421     0    22     1     1
 -1.4560391427187586E-01 a       422     0    22     1     2
  3.8182046004995342E-02 a       423     0    22     1     3
 -4.9031456918930255E-01 a       424     0    22     1     4
  7.2692664919029593E-02 a       425     0    22     1     5
  1.2142214309523632E-01 a       426     0    22     1     6
  4.5583289008654893E-01 a       427     0    22     1     7
  4.7875892098207040E-01 a       428     0    22     1     8
  1.4420857816087584E-01 a       429     0    22     1     9
  2.8161501540636680E-01 a       430     0    22     1    10
  2.2278796445697280E-01 a       431     0    22     1    11
 -3.4135178694317303E-01 a       432     0    22     1    12
  2.1144655098895149E-01 a       433     0    22     1    13
 -1.4013019082933958E-01 a       434     0    22     1    14
  5.1911834939907454E-02 a       435     0    22     1    15
  2.8381075662747118E-01 a       436     0    22     1    16
  1.4558573408151247E-02 a       437     0    22     1    17
  4.6325333331227368E-02 a       438     0    22     1    18
  5.8086029231987954E-02 a       439     0    22     1    19
  1.1240401001801507E-01 a       440     0    22     1    20
 -6.0264798195235066E-02 a       441     0    23     1     1
 -2.0250611412286551E-01 a       442     0    23     1     2
  1.4896580129233106E-01 a       443     0    23     1     3
 -4.8619129926929419E-02 a       444     0    23     1     4
 -1.9393691595980272E-01 a       445     0    23     1     5
 -1.0399011398755476E-01 a       446     0    23     1     6
 -2.4584341550704908E-01 a       447     0    23     1     7
 -1.7532789371682601E-02 a       448     0    23     1     8
 -2.1374825080901144E-01 a       449     0    23     1     9
  2.1865355512069851E-01 a       450     0    23     1    10
 -4.0711992810241064E-02 a       451     0    23     1    11
  1.1460778494179583E-01 a       452     0    23     1    12
 -5.1154721483367666E-02 a       453     0    23     1    13
  1.0554776999359761E-01 a       454     0    23     1    14
  3.0793145915591197E-01 a       455     0    23     1    15
  1.3258387566886806E-01 a       456     0    23     1    16
 -2.2416709133785784E-01 a       457     0    23     1    17
  1.7045736666025821E-01 a       458     0    23     1    18
 -1.5594274650719198E-01 a       459     0    23     1    19
 -8.8317893754430332E-02 a       460     0    23     1    20
  1.8038036442504160E-01 a       461     0    24     1     1
 -9.2471782299057892E-02 a       462     0    24     1     2
  3.1130282018296673E-01 a       463     0    24     1     3
  2.0559649156728993E-01 a       464     0    24     1     4
 -1.8943545497169853E-01 a       465     0    24     1     5
 -7.8545704642809314E-02 a       466     0    24     1     6
 -2.2310587726402355E-02 a       467     0    24     1     7
 -3.2747287287868310E-01 a       468     0    24     1     8
 -1.7759776250555045E-01 a       469     0    24     1     9
 -3.6983472948113610E-01 a       470     0    24     1    10
  8.8719069121772604E-02 a       471     0    24     1    11
 -1.5478098950571045E-01 a       472     0    24     1    12
  1.9987708654969824E-01 a       473     0    24     1    13
  1.6444882310161188E-01 a       474     0    24     1    14
 -5.9666219161344042E-02 a       475     0    24     1    15
  3.0871057480008629E-01 a       476     0    24     1    16
  1.5258593932306844E-01 a       477     0    24     1    17
  2.0602920672958705E-01 a       478     0    24     1    18
 -7.5822505719209371E-02 a       479     0    24     1    19
 -2.5101454711992832E-01 a       480     0    24     1    20
 -4.0223420848357677E-01 a       481     0    25     1     1
  2.6652503239779951E-01 a       482     0    25     1     2
 -3.8035569161755534E-01 a       483     0    25     1     3
 -1.3327235570632948E-01 a       484     0    25     1     4
  3.4713569597842264E-01 a       485     0    25     1     5
  5.2645889871160345E-01 a       486     0    25     1     6
  5.6120068465442408E-01 a       487     0    25     1     7
 -6.3255727031560446E-02 a       488     0    25     1     8
  5.0785706233176087E-01 a       489     0    25     1     9
  3.3367469881356265E-01 a       490     0    25     1    10
 -5.2362923555629291E-02 a       491     0    25     1    11
  2.8416510182386545E-01 a       492     0    25     1    12
 -2.3055484075254526E-01 a       493     0    25     1    13
  2.0588033631754046E-01 a       494     0    25     1    14
  1.7705385811956406E-01 a       495     0    25     1    15
 -3.0737684893278427E-01 a       496     0    25     1    16
 -2.3717141464285899E-02 a       497     0    25     1    17
  4.6622589735315530E-02 a       498     0    25     1    18
  2.5571117191128478E-01 a       499     0    25     1    19
  9.6197774157375307E-02 a       500     0    25     1    20
  3.3009689568562768E-02 a       501     0    26     1     1
 -1.5546466349262872E-01 a       502     0    26     1     2
  3.3319097307979934E-01 a       503     0    26     1     3
  1.0555187764149760E-02 a       504     0    26     1     4
  1.8488996405270253E-01 a       505     0    26     1     5
 -2.4752268251328666E-01 a       506     0    26     1     6
 -6.9580081596364335E-02 a       507     0    26     1     7
 -7.3311122434125339E-02 a       508     0    26     1     8
 -3.1013039522278929E-01 a       509     0    26     1     9
 -1.6680176252261902E-01 a       510     0    26     1    10
  1.2293494097698109E-01 a       511     0    26     1    11
 -2.0046901542099725E-02 a       512     0    26     1    12
 -2.1395032810985928E-01 a       513     0    26     1    13
 -3.0021650176290621E-01 a       514     0    26     1    14
  2.2593024376614343E-01 a       515     0    26     1    15
  8.4611397971382854E-02 a       516     0    26     1    16
  3.8806586749708216E-02 a       517     0    26     1    17
  1.4332179565860143E-01 a       518     0    26     1    18
 -1.3252894377382041E-01 a       519     0    26     1    19
  6.5981807530434533E-02 a       520     0    26     1    20
  6.3545882121166450E-02 a       521     0    27     1     1
  9.4347224271964264E-02 a       522     0    27     1     2
 -1.4011888389659041E-01 a       523     0    27     1     3
  1.9797926683453035E-01 a       524     0    27     1     4
 -3.4139914258800468E-02 a       525     0    27     1     5
  6.5667947587437367E-02 a       526     0    27     1     6
  1.7117956129610779E-01 a       527     0    27     1     7
  1.3747426298845560E-02 a       528     0    27     1     8
  1.3341980853084787E-02 a       529     0    27     1     9
 -3.5564633743083235E-01 a       530     0    27     1    10
  1.8873158658526765E-01 a       531     0    27     1    11
 -4.8116669275187048E-02 a       532     0    27     1    12
 -1.7086072119911835E-01 a       533     0    27     1    13
 -2.2491900811385312E-01 a       534     0    27     1    14
  1.6151024384051860E-01 a       535     0    27     1    15
 -9.0484765021441163E-02 a       536     0    27     1    16
  3.8118915022429817E-01 a       537     0    27     1    17
  1.4959327406623054E-02 a       538     0    27     1    18
  1.1580893171343469E-01 a       539     0    27     1    19
 -2.0564373220364154E-01 a       540     0    27     1    20
 -2.5469198804390003E-01 a       541     0    28     1     1
 -1.1464924423371625E-01 a       542     0    28     1     2
  1.9134463923334530E-01 a       543     0    28     1     3
 -6.8643198515413714E-02 a       544     0    28     1     4
  1.0267103434879064E-01 a       545     0    28     1     5
  2.4809167995404731E-02 a       546     0    28     1     6
  2.0179096189438428E-03 a       547     0    28     1     7
 -1.3127440771630486E-01 a       548     0    28     1     8
 -1.1254714980839269E-01 a       549     0    28     1     9
  2.7132338971960285E-01 a       550     0    28     1    10
 -6.3511267268358982E-03 a       551     0    28     1    11
  2.4467853828949799E-02 a       552     0    28     1    12
  3.1217130243026381E-01 a       553     0    28     1    13
  3.3606643695299471E-01 a       554     0    28     1    14
 -6.7900799262860176E-02 a       555     0    28     1    15
 -1.6112693069104886E-01 a       556     0    28     1    16
 -8.4012406914655086E-02 a       557     0    28     1    17
 -1.0728555247922242E-01 a       558     0    28     1    18
 -6.8667924506148281E-02 a       559     0    28     1    19
  2.2788334028931412E-01 a       560     0    28     1    20
  2.4530517816186825E-01 a       561     0    29     1     1
 -4.9109240141781384E-02 a       562     0    29     1     2
  1.8438826535762476E-01 a       563     0    29     1     3
  2.2388712284656165E-02 a       564     0    29     1     4
  9.0259969957660266E-02 a       565     0    29     1     5
 -1.1873340343241257E-01 a       566     0    29     1     6
 -2.0573043507633917E-01 a       567     0    29     1     7
  3.6671749502417195E-02 a       568     0    29     1     8
  1.7836720175517343E-01 a       569     0    29     1     9
  1.6065128741270662E-01 a       570     0    29     1    10
  1.6564387833731145E-03 a       571     0    29     1    11
  1.0262183088086092E-01 a       572     0    29     1    12
  3.3974443509640496E-02 a       573     0    29     1    13
 -5.1548868521062961E-03 a       574     0    29     1    14
 -3.6877317160963413E-01 a       575     0    29     1    15
  2.5199496503519841E-01 a       576     0    29     1    16
 -1.1393409738327313E-01 a       577     0    29     1    17
  8.8491364421247262E-02 a       578     0    29     1    18
  5.0165630922412351E-02 a       579     0    29     1    19
 -9.9063748351192887E-02 a       580     0    29     1    20
 -1.9532538394269380E-01 a       581     0    30     1     1
  2.9795466345769317E-01 a       582     0    30     1     2
 -2.0450378812224296E-01 a       583     0    30     1     3
  3.1929844965267268E-01 a       584     0    30     1     4
  2.6004637853688439E-01 a       585     0    30     1     5
 -2.5183198787346256E-01 a       586     0    30     1     6
 -1.6394141612793952E-02 a       587     0    30     1     7
 -2.6250385148649791E-01 a       588     0    30     1     8
 -1.0486394830169568E-01 a       589     0    30     1     9
  1.1065245936890428E-01 a       590     0    30     1    10
 -4.4913370385225936E-02 a       591     0    30     1    11
  2.2505446446524277E-01 a       592     0    30     1    12
 -3.0978343276918976E-02 a       593     0    30     1    13
  2.2504900914317751E-02 a       594     0    30     1    14
 -2.8785375487701209E-01 a       595     0    30     1    15
 -2.5634256558666246E-01 a       596     0    30     1    16
 -4.4207358409005015E-01 a       597     0    30     1    17
 -1.9367694026198898E-01 a       598     0    30     1    18
  1.1646695396741928E-02 a       599     0    30     1    19
  2.9601705302633652E-01 a       600     0    30     1    20
  1.4637174037694692E-01 a       601     0    31     1     1
 -1.5547980636900124E-01 a       602     0    31     1     2
  2.5218942715339437E-01 a       603     0    31     1     3
 -4.0757909884504520E-02 a       604     0    31     1     4
 -2.3567780447794939E-01 a       605     0    31     1     5
 -1.3425461205962699E-01 a       606     0    31     1     6
  1.1705381560927423E-01 a       607     0    31     1     7
  2.4259705028020051E-01 a       608     0    31     1     8
  1.5501453255704081E-01 a       609     0    31     1     9
  2.5408808151884127E-01 a       610     0    31     1    10
 -2.8790740503888473E-01 a       611     0    31     1    11
 -1.3248118015655824E-01 a       612     0    31     1    12
 -2.2600572032960925E-01 a       613     0    31     1    13
  5.7596037328622375E-02 a       614     0    31     1    14
 -2.9957492586159107E-01 a       615     0    31     1    15
 -4.6836023212284243E-02 a       616     0    31     1    16
  6.7123469306040975E-02 a       617     0    31     1    17
 -6.6995777535441364E-02 a       618     0    31     1    18
 -2.9551278784745888E-01 a       619     0    31     1    19
 -2.3968158141922821E-01 a       620     0    31     1    20
  3.4326083065028318E-01 a       621     0    32     1     1
 -6.7628959314542575E-02 a       622     0    32     1     2
  1.7184316671513267E-02 a       623     0    32     1     3
 -6.3092897397635947E-02 a       624     0    32     1     4
  2.8534979958921101E-03 a       625     0    32     1     5
  1.3741087341346396E-02 a       626     0    32     1     6
 -2.1640109292160042E-01 a       627     0    32     1     7
  2.7615389608396501E-01 a       628     0    32     1     8
  1.6213691349521196E-02 a       629     0    32     1     9
  8.4108906954661593E-03 a       630     0    32     1    10
 -4.7904433483545471E-02 a       631     0    32     1    11
  1.2273942866773610E-01 a       632     0    32     1    12
  4.5062092523305924E-02 a       633     0    32     1    13
 -1.2410059654534199E-01 a       634     0    32     1    14
  9.2624971562518976E-02 a       635     0    32     1    15
  2.4925184004562984E-01 a       636     0    32     1    16
  2.5748983187730756E-01 a       637     0    32     1    17
  1.0542525923450857E-01 a       638     0    32     1    18
  2.3495803902132764E-01 a       639     0    32     1    19
 -5.0747343885992224E-02 a       640     0    32     1    20
  6.5821699906057274E-01 b       641     1     1
  4.1857294589434768E-01 b       642     1     2
 -1.1748408796633631E+00 b       643     1     3
  4.5760953204058502E-01 b       644     1     4
  3.7754851935654277E-01 b       645     1     5
 -6.9281441383881104E-01 b       646     1     6
 -5.8866802713228650E-01 b       647     1     7
 -1.1976911938609687E+00 b       648     1     8
 -5.8847973617532112E-01 b       649     1     9
 -1.3632911265006584E+00 b       650     1    10
  2.2068297903728729E-01 b       651     1    11
 -6.3205896349784541E-01 b       652     1    12
  1.4513372401076332E+00 b       653     1    13
  4.7292607904967976E-01 b       654     1    14
 -4.3104661734565308E-01 b       655     1    15
 -1.4485111229746690E+00 b       656     1    16
 -1.5239034515569623E+00 b       657     1    17
 -7.9721509920475853E-01 b       658     1    18
  1.2761645064038720E+00 b       659     1    19
 -8.0250252202986205E-01 b       660     1    20
 -5.5129300409783220E-02 a       661     1     1     2     1
  3.0851368964794523E-01 a       662     1     1     2     2
  1.7643170507106112E-01 a       663     1     1     2     3
  5.7250988635673183E-01 a       664     1     1     2     4
  1.0864858915884566E-01 a       665     1     1     2     5
 -1.5056038875738023E-01 a       666     1     1     2     6
 -3.0768846468188793E-01 a       667     1     1     2     7
 -4.2670354879718425E-01 a       668     1     1     2     8
 -4.0472127220867748E-01 a       669     1     1     2     9
 -4.0298466393413052E-01 a       670     1     1     2    10
 -6.1572028140972339E-02 a       671     1     1     2    11
 -4.3020764447189724E-01 a       672     1     1     2    12
  6.4154455432836899E-01 a       673     1     1     2    13
  2.8076565122020142E-01 a       674     1     1     2    14
  4.4748331892762738E-01 a       675     1     1     2    15
 -4.0210683673608671E-01 a       676     1     1     2    16
 -2.4095939507861436E-01 a       677     1     1     2    17
 -1.3114019642632585E-02 a       678     1     1     2    18
 -1.0604282385240585E-01 a       679     1     1     2    19
 -5.7976801307794890E-01 a       680     1     1     2    20
 -2.5326895503583985E-01 a       681     1     2     2     1
 -4.6240938609517618E-01 a       682     1     2     2     2
 -2.1885583761938324E-01 a       683     1     2     2     3
 -4.6046272312757569E-01 a       684     1     2     2     4
  5.2084951943332103E-01 a       685     1     2     2     5
 -2.8870059240476566E-02 a       686     1     2     2     6
  5.9055021718729883E-01 a       687     1     2     2     7
  2.8202530102469381E-01 a       688     1     2     2     8
 -4.0658095986237147E-01 a       689     1     2     2     9
  9.1632264990687259E-02 a       690     1     2     2    10
 -1.2908204235585249E-01 a       691     1     2     2    11
 -4.3678957570386845E-01 a       692     1     2     2    12
 -3.5638157494602152E-01 a       693     1     2     2    13
 -5.7570819558164461E-02 a       694     1     2     2    14
 -8.1385076544875257E-02 a       695     1     2     2    15
 -3.0637163463082706E-01 a       696     1     2     2    16
 -4.8338940169895939E-01 a       697     1     2     2    17
  5.1847980982486785E-01 a       698     1     2     2    18
 -1.6178919128612884E-02 a       699     1     2     2    19
 -1.1830020980854644E-01 a       700     1     2     2    20
  6.4400858339965439E-01 a       701     1     3     2     1
  3.6192207284974409E-01 a       702     1     3     2     2
 -4.3349187379324544E-01 a       703     1     3     2     3
 -4.5458918135841897E-01 a       704     1     3     2     4
  6.0670059426061768E-02 a       705     1     3     2     5
 -3.4959768726080448E-01 a       706     1     3     2     6
 -1.6379104898392216E-01 a       707     1     3     2     7
 -3.3901264484757293E-01 a       708     1     3     2     8
  2.6919493424031782E-01 a       709     1     3     2     9
  1.2428580136929331E-01 a       710     1     3     2    10
 -4.5234752044200294E-01 a       711     1     3     2    11
  4.0134101471174050E-01 a       712     1     3     2    12
 -2.7114680468794577E-01 a       713     1     3     2    13
  4.6229163687577052E-01 a       714     1     3     2    14
 -1.6365723554521122E-01 a       715     1     3     2    15
 -7.2353394258833956E-02 a       716     1     3     2    16
 -2.1417154192101089E-02 a       717     1     3     2    17
  2.6558552153983644E-01 a       718     1     3     2    18
 -1.8009594695557440E-01 a       719     1     3     2    19
  3.9295278940457568E-01 a       720     1     3     2    20
 -1.3322610010413652E-01 a       721     1     4     2     1
  4.4355844569113023E-01 a       722     1     4     2     2
  1.3170584691374082E-01 a       723     1     4     2     3
 -8.4083658326823782E-02 a       724     1     4     2     4
 -2.2333859301057526E-01 a       725     1     4     2     5
  9.2030430328854815E-02 a       726     1     4     2     6
 -1.2665185077876884E-01 a       727     1     4     2     7
 -4.4318939656168244E-01 a       728     1     4     2     8
 -3.9597388007235101E-01 a       729     1     4     2     9
  2.5657344662725123E-01 a       730     1     4     2    10
  7.9168463639770537E-02 a       731     1     4     2    11
 -4.5166565050740087E-01 a       732     1     4     2    12
 -7.5337100563000067E-02 a       733     1     4     2    13
  2.3250430056001586E-01 a       734     1     4     2    14
  3.5443280482709269E-02 a       735     1     4     2    15
  2.7759880460415554E-01 a       736     1     4     2    16
  6.2130090756915457E-01 a       737     1     4     2    17
  5.4705073652696967E-01 a       738     1     4     2    18
  2.9253301950908628E-01 a       739     1     4     2    19
  2.9408467602155580E-01 a       740     1     4     2    20
  3.2627770559721697E-01 a       741     1     5     2     1
 -1.2332401486251560E-02 a       742     1     5     2     2
  4.3989801347175111E-01 a       743     1     5     2     3
  5.7967516590590418E-01 a       744     1     5     2     4
  1.5778716088775693E-01 a       745     1     5     2     5
  6.3218325351646276E-01 a       746     1     5     2     6
  5.9451907087826639E-01 a       747     1     5     2     7
  6.0636472520713547E-01 a       748     1     5     2     8
  4.7913733241117212E-01 a       749     1     5     2     9
  6.0523987981174299E-01 a       750     1     5     2    10
  3.7017479542781118E-02 a       751     1     5     2    11
 -1.3160687073285368E-01 a       752     1     5     2    12
  1.2961777105904867E-02 a       753     1     5     2    13
 -2.2368314532710351E-01 a       754     1     5     2    14
 -4.4706135803058805E-01 a       755     1     5     2    15
 -4.5861800690540910E-01 a       756     1     5     2    16
  1.6640459698678758E-01 a       757     1     5     2    17
 -3.6281731121157873E-02 a       758     1     5     2    18
  4.4732595110366019E-01 a       759     1     5     2    19
 -3.7907715254648217E-01 a       760     1     5     2    20
 -2.8819143112118673E-01 a       761     1     6     2     1
  8.3236387912061893E-02 a       762     1     6     2     2
  9.7509006893949160E-02 a       763     1     6     2     3
 -5.4696697378175951E-01 a       764     1     6     2     4
 -2.4806490054902650E-01 a       765     1     6     2     5
 -1.7343021667946212E-01 a       766     1     6     2     6
  4.7519747518765232E-01 a       767     1     6     2     7
  5.0419787796552407E-01 a       768     1     6     2     8
 -3.9096429853428305E-01 a       769     1     6     2     9
 -7.5768408455053213E-02 a       770     1     6     2    10
  7.9228954120084261E-01 a       771     1     6     2    11
 -1.1448908291608632E-02 a       772     1     6     2    12
  1.9547036321724603E-01 a       773     1     6     2    13
  3.8090582425873265E-01 a       774     1     6     2    14
  2.0275668528315161E-01 a       775     1     6     2    15
 -4.5244717418388558E-01 a       776     1     6     2    16
  1.9364141493167103E-01 a       777     1     6     2    17
  6.4042975128379331E-01 a       778     1     6     2    18
  7.0677359459793854E-01 a       779     1     6     2    19
 -3.7909833498404594E-01 a       780     1     6     2    20
  3.8063390484588139E-01 a       781     1     7     2     1
 -5.3995213347435178E-01 a       782     1     7     2     2
  2.7258593701789191E-01 a       783     1     7     2     3
 -9.6070659505545261E-02 a       784     1     7     2     4
  3.9415273062800693E-01 a       785     1     7     2     5
 -2.7161330345324064E-01 a       786     1     7     2     6
 -2.6929182392857837E-01 a       787     1     7     2     7
  7.6218728218473863E-02 a       788     1     7     2     8
  1.3212714383075905E-01 a       789     1     7     2     9
  8.7477584684064497E-02 a       790     1     7     2    10
 -3.9656660729778614E-01 a       791     1     7     2    11
  1.7414177004732781E-01 a       792     1     7     2    12
 -6.3146260491951212E-01 a       793     1     7     2    13
 -7.3366418885268722E-02 a       794     1     7     2    14
 -6.5515443374852200E-01 a       795     1     7     2    15
 -5.5917902637205585E-01 a       796     1     7     2    16
  2.6210640818715142E-01 a       797     1     7     2    17
 -5.5085226742575133E-01 a       798     1     7     2    18
 -2.6058935732528848E-01 a       799     1     7     2    19
  7.0862849595361752E-02 a       800     1     7     2    20
  2.5214897284435073E-01 a       801     1     8     2     1
 -5.6906298697304514E-01 a       802     1     8     2     2
 -6.9280004606602974E-03 a       803     1     8     2     3
 -6.8903453529112382E-02 a       804     1     8     2     4
  6.5431196556695870E-01 a       805     1     8     2     5
 -2.0511796233654450E-01 a       806     1     8     2     6
  8.2388486159907820E-02 a       807     1     8     2     7
  8.0664532569193662E-02 a       808     1     8     2     8
 -4.7791029924060480E-01 a       809     1     8     2     9
 -7.6654797860838442E-01 a       810     1     8     2    10
  2.2971222099176977E-01 a       811     1     8     2    11
 -2.9174272850908450E-01 a       812     1     8     2    12
 -6.9401506178706926E-02 a       813     1     8     2    13
  7.2050250699517593E-01 a       814     1     8     2    14
 -6.2834467514603476E-01 a       815     1     8     2    15
 -3.7760777046710620E-01 a       816     1     8     2    16
 -3.6526507203661035E-01 a       817     1     8     2    17
  5.2727435512229026E-01 a       818     1     8     2    18
 -3.3279244337735753E-01 a       819     1     8     2    19
  3.8534898513908072E-01 a       820     1     8     2    20
 -3.1347374681329881E-01 a       821     1     9     2     1
 -3.2919223671343362E-01 a       822     1     9     2     2
 -2.6956239477561528E-01 a       823     1     9     2     3
 -1.1644751424535624E-01 a       824     1     9     2     4
 -5.2509608040980489E-02 a       825     1     9     2     5
 -3.3695530841834381E-01 a       826     1     9     2     6
 -8.0532939547924301E-02 a       827     1     9     2     7
  4.2608325831469462E-01 a       828     1     9     2     8
  2.2681984969768490E-01 a       829     1     9     2     9
  5.1306207429963202E-01 a       830     1     9     2    10
 -8.6545511720974175E-02 a       831     1     9     2    11
  3.3920745705281069E-01 a       832     1     9     2    12
 -4.4538642378854804E-01 a       833     1     9     2    13
 -5.4213240981112076E-01 a       834     1     9     2    14
  2.1298417914192946E-01 a       835     1     9     2    15
  5.5910760493300005E-01 a       836     1     9     2    16
 -5.0448527254012798E-01 a       837     1     9     2    17
  4.2865864027338479E-01 a       838     1     9     2    18
 -5.7586597094672154E-01 a       839     1     9     2    19
  4.8528784737769126E-01 a       840     1     9     2    20
 -3.5222241430413442E-01 a       841     1    10     2     1
 -4.9546682282105081E-01 a       842     1    10     2     2
  4.0210443625526177E-01 a       843     1    10     2     3
 -4.5309464818486481E-02 a       844     1    10     2     4
 -4.0138787238191365E-01 a       845     1    10     2     5
  6.1565850425642632E-01 a       846     1    10     2     6
 -9.6766921634218600E-02 a       847     1    10     2     7
 -4.6017637912757237E-01 a       848     1    10     2     8
  4.4558494822921235E-01 a       849     1    10     2     9
 -1.6660245411894348E-01 a       850     1    10     2    10
 -3.3119706264751192E-01 a       851     1    10     2    11
 -2.6578852546483051E-01 a       852     1    10     2    12
  1.7623387852632139E-01 a       853     1    10     2    13
  6.6404721014299661E-01 a       854     1    10     2    14
  2.2545944670384713E-01 a       855     1    10     2    15
 -6.1627456389756563E-01 a       856     1    10     2    16
  4.5845891766828778E-01 a       857     1    10     2    17
  5.8350477070984497E-01 a       858     1    10     2    18
  2.8717871010900881E-01 a       859     1    10     2    19
 -2.1929509867589347E-01 a       860     1    10     2    20
 -3.6313496410390739E-01 a       861     1    11     2     1
 -4.0281567667837542E-01 a       862     1    11     2     2
 -2.4751838339849819E-01 a       863     1    11     2     3
  3.8832853253978145E-01 a       864     1    11     2     4
 -4.3895377500913546E-01 a       865     1    11     2     5
 -1.5880432201793493E-01 a       866     1    11     2     6
  3.1930063480640508E-01 a       867     1    11     2     7
 -1.6656080970062548E-01 a       868     1    11     2     8
 -5.8606560598738455E-01 a       869     1    11     2     9
  1.1908788989432251E-01 a       870     1    11     2    10
  2.2417267159389939E-01 a       871     1    11     2    11
 -6.0907772307630614E-01 a       872     1    11     2    12
  1.4402261242329450E-01 a       873     1    11     2    13
  1.8750011395859006E-01 a       874     1    11     2    14
  4.6646467361381105E-01 a       875     1    11     2    15
 -8.5998173386567303E-02 a       876     1    11     2    16
  5.0062277698625635E-01 a       877     1    11     2    17
 -1.3730746072339123E-01 a       878     1    11     2    18
 -3.1783533474940356E-01 a       879     1    11     2    19
  9.4309311607271420E-02 a       880     1    11     2    20
  1.0241307515184724E-01 a       881     1    12     2     1
  2.1606107436480015E-01 a       882     1    12     2     2
 -4.7372293212669177E-02 a       883     1    12     2     3
  7.0493495079177543E-02 a       884     1    12     2     4
  6.5094505848644613E-01 a       885     1    12     2     5
  5.1654470946941167E-01 a       886     1    12     2     6
  5.1677718744858170E-01 a       887     1    12     2     7
 -2.1563506307339941E-02 a       888     1    12     2     8
  3.1388067261079666E-01 a       889     1    12     2     9
 -9.2470455199718138E-02 a       890     1    12     2    10
  7.4549302743545365E-01 a       891     1    12     2    11
 -3.5522562982120465E-01 a       892     1    12     2    12
 -1.3153025721579677E-02 a       893     1    12     2    13
 -8.6158067721596066E-02 a       894     1    12     2    14
  1.0017561538825975E-01 a       895     1    12     2    15
  2.9083652325741793E-01 a       896     1    12     2    16
 -1.7778958570178416E-01 a       897     1    12     2    17
  6.6566320932659323E-02 a       898     1    12     2    18
 -5.5437670654375193E-01 a       899     1    12     2    19
  4.1213478342310927E-01 a       900     1    12     2    20
 -6.3095149149494256E-01 a       901     1    13     2     1
 -3.3939464252133750E-01 a       902     1    13     2     2
 -5.9685033765305491E-02 a       903     1    13     2     3
  1.3024193582046856E-01 a       904     1    13     2     4
 -2.3724292174125708E-01 a       905     1    13     2     5
 -2.1241861234058240E-01 a       906     1    13     2     6
 -1.0333458437775665E-02 a       907     1    13     2     7
 -5.9709499133138699E-01 a       908     1    13     2     8
 -4.8210981212066251E-01 a       909     1    13     2     9
  2.4740730843100783E-01 a       910     1    13     2    10
 -2.1935497583572752E-01 a       911     1    13     2    11
 -1.7844697262768278E-01 a       912     1    13     2    12
  6.6783600698670176E-01 a       913     1    13     2    13
  1.5729426962742996E-01 a       914     1    13     2    14
  4.0045825339329644E-01 a       915     1    13     2    15
 -3.1847157574362461E-01 a       916     1    13     2    16
  4.6225818519713646E-01 a       917     1    13     2    17
  1.7230832669261897E-01 a       918     1    13     2    18
 -2.5601500788939611E-02 a       919     1    13     2    19
  3.5470571257929123E-01 a       920     1    13     2    20
  2.9737730330449369E-01 a       921     1    14     2     1
 -8.1646555260391079E-02 a       922     1    14     2     2
  1.0033991913215481E-01 a       923     1    14     2     3
  5.5538794808522607E-01 a       924     1    14     2     4
  1.9329736714965146E-01 a       925     1    14     2     5
 -4.2695607880627304E-02 a       926     1    14     2     6
  3.3866144287578659E-01 a       927     1    14     2     7
 -2.7629348637365891E-01 a       928     1    14     2     8
 -2.0526601472629283E-01 a       929     1    14     2     9
  3.3238104204869379E-01 a       930     1    14     2    10
 -1.8758054335022853E-01 a       931     1    14     2    11
  3.3807301383112853E-01 a       932     1    14     2    12
  6.0468729373539742E-01 a       933     1    14     2    13
 -4.6825131885620641E-01 a       934     1    14     2    14
 -1.5898805465758054E-01 a       935     1    14     2    15
 -2.7501410300782214E-01 a       936     1    14     2    16
 -5.1269511324635408E-01 a       937     1    14     2    17
  2.0923693987260911E-01 a       938     1    14     2    18
 -3.6415047298242359E-01 a       939     1    14     2    19
 -4.3431467666146939E-01 a       940     1    14     2    20
 -1.1812159409661067E-01 a       941     1    15     2     1
 -1.1573678124108845E-01 a       942     1    15     2     2
 -2.7792999509243815E-01 a       943     1    15     2     3
  2.7955505018447180E-01 a       944     1    15     2     4
  2.9530597189463198E-01 a       945     1    15     2     5
 -2.4899231006959172E-01 a       946     1    15     2     6
  4.7806372546558829E-01 a       947     1    15     2     7
  2.5937025057668422E-01 a       948     1    15     2     8
 -3.1329095292225911E-02 a       949     1    15     2     9
  5.2254757143973107E-01 a       950     1    15     2    10
  1.0225478795898487E-02 a       951     1    15     2    11
  4.2921319040349082E-01 a       952     1    15     2    12
  3.6481623905929700E-01 a       953     1    15     2    13
 -4.0087560943243916E-01 a       954     1    15     2    14
  1.4265089185451182E-01 a       955     1    15     2    15
 -1.7632071816349307E-01 a       956     1    15     2    16
  8.0383687838254905E-02 a       957     1    15     2    17
 -2.4786599309408922E-01 a       958     1    15     2    18
 -3.0008537340829106E-01 a       959     1    15     2    19
  1.0682677523487721E-01 a       960     1    15     2    20
  2.1284083421403185E-01 a       961     1    16     2     1
 -3.8677540488896894E-01 a       962     1    16     2     2
 -1.8090160834830815E-01 a       963     1    16     2     3
  6.1606763174197421E-01 a       964     1    16     2     4
  1.2563195835503346E-01 a       965     1    16     2     5
  3.0484810169310295E-01 a       966     1    16     2     6
 -1.4441485894342740E-01 a       967     1    16     2     7
  5.1051642461037283E-01 a       968     1    16     2     8
 -2.6994798361378580E-01 a       969     1    16     2     9
 -3.7824694091277089E-01 a       970     1    16     2    10
 -4.8479458783745505E-01 a       971     1    16     2    11
  1.2507607886239827E-01 a       972     1    16     2    12
 -1.9143971403214438E-01 a       973     1    16     2    13
  5.6341124796552311E-01 a       974     1    16     2    14
  4.2702123974447276E-01 a       975     1    16     2    15
  5.1784969315870455E-01 a       976     1    16     2    16
 -1.4544532413315017E-01 a       977     1    16     2    17
 -4.7249056361879219E-02 a       978     1    16     2    18
 -3.0528217064416241E-01 a       979     1    16     2    19
 -1.8311374612630968E-01 a       980     1    16     2    20
  6.7818594095100604E-01 a       981     1    17     2     1
  3.8489007968565359E-01 a       982     1    17     2     2
 -3.2154005081283388E-01 a       983     1    17     2     3
  1.9795019603945049E-01 a       984     1    17     2     4
  4.7085074019198114E-01 a       985     1    17     2     5
  6.4665623860396954E-02 a       986     1    17     2     6
 -5.3594705473158322E-01 a       987     1    17     2     7
  7.5662786029686794E-03 a       988     1    17     2     8
  3.4667929909821976E-01 a       989     1    17     2     9
 -2.5374737465446323E-01 a       990     1    17     2    10
  1.1507518085479466E-01 a       991     1    17     2    11
 -3.8588602280181805E-01 a       992     1    17     2    12
  2.1916408905508021E-02 a       993     1    17     2    13
 -5.5689807764252544E-02 a       994     1    17     2    14
  5.5761415301066453E-01 a       995     1    17     2    15
  4.5125915793467247E-01 a       996     1    17     2    16
  5.2135562562188786E-01 a       997     1    17     2    17
  5.0725317371184253E-01 a       998     1    17     2    18
 -5.1413486259329677E-01 a       999     1    17     2    19
 -3.3401046737462542E-01 a      1000     1    17     2    20
 -3.7312425119505466E-01 a      1001     1    18     2     1
 -6.6016381613993758E-01 a      1002     1    18     2     2
  1.8405499310417475E-01 a      1003     1    18     2     3
 -5.0666363108923607E-01 a      1004     1    18     2     4
 -5.1991269545018959E-01 a      1005     1    18     2     5
 -4.6411375186401493E-01 a      1006     1    18     2     6
  1.1600047692889574E-02 a      1007     1    18     2     7
 -5.7270349690289782E-02 a      1008     1    18     2     8
 -3.2498072503528452E-01 a      1009     1    18     2     9
  3.8481437552683623E-01 a      1010     1    18     2    10
  1.2364375829765303E-01 a      1011     1    18     2    11
  3.9317519775154275E-01 a      1012     1    18     2    12
 -2.6806982618724978E-01 a      1013     1    18     2    13
 -4.5797670801885165E-01 a      1014     1    18     2    14
 -9.7590171357140015E-02 a      1015     1    18     2    15
  1.7470045141919019E-01 a      1016     1    18     2    16
 -5.4974208274468095E-01 a      1017     1    18     2    17
 -2.6600057852424647E-01 a      1018     1    18     2    18
 -3.7395677471673544E-01 a      1019     1    18     2    19
  4.3633268956550086E-01 a      1020     1    18     2    20
  4.0943294223628457E-01 a      1021     1    19     2     1
  6.9368134490394417E-02 a      1022     1    19     2     2
 -4.8986556976382378E-01 a      1023     1    19     2     3
 -3.5980376002864127E-02 a      1024     1    19     2     4
 -1.8271415524210760E-01 a      1025     1    19     2     5
 -1.6273544752472827E-01 a      1026     1    19     2     6
 -2.8077734838341256E-01 a      1027     1    19     2     7
 -3.7504685477722688E-01 a      1028     1    19     2     8
 -2.7737669680860704E-02 a      1029     1    19     2     9
  2.8995226103479926E-01 a      1030     1    19     2    10
 -1.1355521363640468E-01 a      1031     1    19     2    11
 -4.4075036970369769E-01 a      1032     1    19     2    12
  2.9410947631558648E-01 a      1033     1    19     2    13
 -7.3802439983802215E-01 a      1034     1    19     2    14
 -3.2351776094871759E-01 a      1035     1    19     2    15
 -1.6024562883259164E-01 a      1036     1    19     2    16
 -2.4205078711236597E-01 a      1037     1    19     2    17
 -1.6494335430799947E-02 a      1038     1    19     2    18
  8.4029087369379563E-01 a      1039     1    19     2    19
  2.8995479291378501E-01 a      1040     1    19     2    20
 -6.7980015065015414E-02 a      1041     1    20     2     1
  4.5665890566116571E-02 a      1042     1    20     2     2
 -4.8818334788241241E-01 a      1043     1    20     2     3
 -7.8568414744235218E-02 a      1044     1    20     2     4
 -4.9818448413106529E-02 a      1045     1    20     2     5
 -3.6477934994536060E-01 a      1046     1    20     2     6
  3.3394224395503774E-01 a      1047     1    20     2     7
 -3.9636311504045296E-01 a      1048     1    20     2     8
 -2.9727236545028118E-01 a      1049     1    20     2     9
 -2.6215035694253341E-01 a      1050     1    20     2    10
  5.8968413944686693E-01 a      1051     1    20     2    11
  5.5543113483340900E-01 a      1052     1    20     2    12
 -6.7713383412878214E-01 a      1053     1    20     2    13
  4.8098413182225158E-02 a      1054     1    20     2    14
  5.3527875367761746E-01 a      1055     1    20     2    15
  2.6785370979371276E-01 a      1056     1    20     2    16
  2.5678689974313001E-01 a      1057     1    20     2    17
  2.0969492956147268E-01 a      1058     1    20     2    18
 -1.7777345905860137E-01 a      1059     1    20     2    19
  5.9008620267103540E-01 a      1060     1    20     2    20
  6.6528157186305670E-01 b      1061     2     1
  1.0442957116546465E+00 b      1062     2     2
 -8.7168423815388640E-01 b      1063     2     3
  8.9369569521552150E-01 b      1064     2     4
 -5.8885101826882558E-01 b      1065     2     5
 -7.8785566984677968E-01 b      1066     2     6
  3.2603258644784228E-01 b      1067     2     7
 -1.2642411367136854E+00 b      1068     2     8
 -8.3036998149948260E-01 b      1069     2     9
  1.2703885342209792E-01 b      1070     2    10
 -1.1239521039378779E+00 b      1071     2    11
  1.1942301835771008E+00 b      1072     2    12
 -3.4713993823318956E-01 b      1073     2    13
  3.9605950384608885E-01 b      1074     2    14
  1.2538303176282195E+00 b      1075     2    15
 -7.0129496928148316E-01 b      1076     2    16
  1.0371404545286746E+00 b      1077     2    17
 -1.6328537779119925E+00 b      1078     2    18
 -1.0228498393541035E+00 b      1079     2    19
 -8.2278566183719581E-01 b      1080     2    20
  1.3835375293506413E-01 a      1081     2     1     3     1
 -5.3681795714818858E-01 a      1082     2     2     3     1
  9.1888381097670802E-01 a      1083     2     3     3     1
 -2.7668551605627012E-01 a      1084     2     4     3     1
  1.1880150772200271E+00 a      1085     2     5     3     1
 -5.2577235406301004E-01 a      1086     2     6     3     1
  3.6946542924129677E-01 a      1087     2     7     3     1
 -5.0826237867156254E-01 a      1088     2     8     3     1
  5.4978974043195217E-01 a      1089     2     9     3     1
 -3.6037124121368747E-01 a      1090     2    10     3     1
  1.0284618420199181E+00 a      1091     2    11     3     1
 -1.9791168599271526E-02 a      1092     2    12     3     1
 -1.0018359851314647E+00 a      1093     2    13     3     1
  9.6599122536924442E-01 a      1094     2    14     3     1
  4.7287112079974380E-01 a      1095     2    15     3     1
  5.9870753510723729E-01 a      1096     2    16     3     1
  7.9511453808032609E-02 a      1097     2    17     3     1
  5.7359997315228917E-01 a      1098     2    18     3     1
 -8.2026744546227226E-01 a      1099     2    19     3     1
  8.2070718174976143E-01 a      1100     2    20     3     1
 -6.6456746321807780E-01 b      1101     3     1
