################################################################################
# Neural network connection values (weights and biases).
################################################################################
# Col  Name       Description
################################################################################
# 1    connection Neural network connection value.
# 2    t          Connection type (a = weight, b = bias).
# 3    index      Index enumerating weights.
# 4    l_s        Starting point layer (end point layer for biases).
# 5    n_s        Starting point neuron in starting layer (end point neuron for biases).
# 6    l_e        End point layer.
# 7    n_e        End point neuron in end layer.
################################################################################
#                      1 2         3     4     5     6     7
#             connection t     index   l_s   n_s   l_e   n_e
############################################################
  2.7154628204848141E-01 a         1     0     1     1     1
  9.5333471490541666E-02 a         2     0     1     1     2
 -1.9771001751110556E-01 a         3     0     1     1     3
  3.4500912600545064E-01 a         4     0     1     1     4
 -5.4386751328224014E-01 a         5     0     1     1     5
 -3.8445356307786054E-02 a         6     0     1     1     6
 -1.3316052987603141E-01 a         7     0     1     1     7
 -4.3969766757725537E-01 a         8     0     1     1     8
 -4.1803510740070443E-01 a         9     0     1     1     9
 -2.5396803622522265E-02 a        10     0     1     1    10
  1.1556723190450926E-03 a        11     0     1     1    11
 -3.2740070525545489E-01 a        12     0     1     1    12
  1.6469345573935537E-01 a        13     0     1     1    13
  2.2087442260268897E-01 a        14     0     1     1    14
  1.1734410839956806E-02 a        15     0     1     1    15
 -3.1401878261783728E-01 a        16     0     1     1    16
  1.6775486913136961E-01 a        17     0     1     1    17
  1.6875578388865939E-01 a        18     0     1     1    18
  3.1906032568516252E-01 a        19     0     1     1    19
  1.1553374087695334E-01 a        20     0     1     1    20
  3.8068106525015444E-01 a        21     0     2     1     1
  2.7436929063139278E-03 a        22     0     2     1     2
 -1.0340360306800737E-01 a        23     0     2     1     3
  3.5961036409988939E-01 a        24     0     2     1     4
 -2.8188031020123872E-01 a        25     0     2     1     5
  7.2522269190738065E-02 a        26     0     2     1     6
 -3.6478280011325354E-01 a        27     0     2     1     7
  2.3851479235125203E-01 a        28     0     2     1     8
  4.7080521204990212E-02 a        29     0     2     1     9
  2.8986368726580203E-01 a        30     0     2     1    10
  3.4445756984770576E-01 a        31     0     2     1    11
 -9.1001860213607136E-02 a        32     0     2     1    12
  5.8796116974069126E-02 a        33     0     2     1    13
  4.5860233520946714E-01 a        34     0     2     1    14
 -2.6229764689037849E-01 a        35     0     2     1    15
 -1.7467470289860575E-02 a        36     0     2     1    16
 -1.8679570511834562E-01 a        37     0     2     1    17
 -1.9558738353424115E-01 a        38     0     2     1    18
 -1.3826248061577284E-01 a        39     0     2     1    19
 -2.3495878627081168E-01 a        40     0     2     1    20
  1.4704438379082752E-01 a        41     0     3     1     1
  3.1148836194064222E-01 a        42     0     3     1     2
 -2.7377471487731470E-01 a        43     0     3     1     3
  2.9303819950723664E-01 a        44     0     3     1     4
  3.3702093315056214E-01 a        45     0     3     1     5
 -1.2853919383964341E-01 a        46     0     3     1     6
 -2.5359954976326349E-01 a        47     0     3     1     7
 -3.0670931070803092E-01 a        48     0     3     1     8
  2.5389291812792136E-01 a        49     0     3     1     9
  3.8590984700150127E-01 a        50     0     3     1    10
 -4.0024968553506690E-01 a        51     0     3     1    11
 -6.4649325881976194E-02 a        52     0     3     1    12
 -2.0011221157215761E-01 a        53     0     3     1    13
  1.6693890360580024E-01 a        54     0     3     1    14
  1.7137244418637726E-01 a        55     0     3     1    15
 -2.9072447896158582E-01 a        56     0     3     1    16
  2.1474512162844495E-01 a        57     0     3     1    17
 -1.0684170692983148E-01 a        58     0     3     1    18
 -3.0008751153530061E-01 a        59     0     3     1    19
 -2.5300883922516615E-01 a        60     0     3     1    20
 -3.3476426055702613E-01 a        61     0     4     1     1
  3.2053995856725642E-01 a        62     0     4     1     2
 -3.6010354670403161E-01 a        63     0     4     1     3
 -1.6454070436497595E-01 a        64     0     4     1     4
 -2.2866672357746415E-01 a        65     0     4     1     5
  1.2693201192252629E-01 a        66     0     4     1     6
  4.1046044897782866E-02 a        67     0     4     1     7
  7.1115866179320822E-02 a        68     0     4     1     8
  9.8532365063572463E-02 a        69     0     4     1     9
 -3.7161969217964363E-01 a        70     0     4     1    10
  3.2148741241168509E-03 a        71     0     4     1    11
 -9.1951571392658443E-02 a        72     0     4     1    12
 -3.3023182985205674E-01 a        73     0     4     1    13
 -4.0761543529390398E-01 a        74     0     4     1    14
  8.6646701734074821E-02 a        75     0     4     1    15
 -1.5357630862952298E-01 a        76     0     4     1    16
  9.3758364788996088E-02 a        77     0     4     1    17
 -2.5484177472586544E-01 a        78     0     4     1    18
  1.7761618295903909E-02 a        79     0     4     1    19
  2.4391631064073263E-01 a        80     0     4     1    20
 -3.2191533562787374E-02 a        81     0     5     1     1
 -1.8244685722229451E-01 a        82     0     5     1     2
  2.6597485866789855E-01 a        83     0     5     1     3
  2.2534519694931136E-02 a        84     0     5     1     4
  3.3333389984352718E-01 a        85     0     5     1     5
 -3.5864848147578801E-02 a        86     0     5     1     6
  3.7764103379801633E-01 a        87     0     5     1     7
  3.5545347933314192E-01 a        88     0     5     1     8
  1.3249579549674503E-01 a        89     0     5     1     9
 -3.2497435181255578E-02 a        90     0     5     1    10
  1.8180704093506789E-01 a        91     0     5     1    11
 -9.1212633191395318E-02 a        92     0     5     1    12
 -2.7529402871560987E-01 a        93     0     5     1    13
 -3.1936598980498332E-01 a        94     0     5     1    14
 -3.2691391376394224E-01 a        95     0     5     1    15
 -2.8229337274539901E-01 a        96     0     5     1    16
 -6.7087295109904951E-02 a        97     0     5     1    17
  1.6367114707163951E-02 a        98     0     5     1    18
  1.4319352947602695E-01 a        99     0     5     1    19
  3.2979677913289880E-02 a       100     0     5     1    20
  5.2107885126766965E-02 a       101     0     6     1     1
 -4.0966632813925258E-01 a       102     0     6     1     2
 -2.1736601051359930E-01 a       103     0     6     1     3
 -4.9505661782019976E-02 a       104     0     6     1     4
 -2.2514204512247540E-01 a       105     0     6     1     5
  2.2201162973422631E-01 a       106     0     6     1     6
 -1.1124616323592340E-01 a       107     0     6     1     7
 -1.4138979115128700E-01 a       108     0     6     1     8
  2.9513448426219335E-02 a       109     0     6     1     9
 -1.1090645850475545E-01 a       110     0     6     1    10
 -2.7178764026773611E-01 a       111     0     6     1    11
 -8.0911669041703951E-02 a       112     0     6     1    12
  2.0981170792605439E-01 a       113     0     6     1    13
 -3.7292112463003030E-01 a       114     0     6     1    14
 -2.4139835136288826E-01 a       115     0     6     1    15
  4.2615392560589754E-01 a       116     0     6     1    16
  1.4895829466618987E-01 a       117     0     6     1    17
 -3.0522147804164934E-01 a       118     0     6     1    18
 -3.6157757382694550E-01 a       119     0     6     1    19
  2.1288524081452670E-01 a       120     0     6     1    20
 -2.9553775727843767E-01 a       121     0     7     1     1
 -2.5338153441510430E-01 a       122     0     7     1     2
 -4.0167281297034951E-02 a       123     0     7     1     3
  3.4957837746750964E-01 a       124     0     7     1     4
  1.3826012514630112E-01 a       125     0     7     1     5
 -1.2384843374730987E-01 a       126     0     7     1     6
  5.9474686815972996E-02 a       127     0     7     1     7
 -1.9536678838303256E-01 a       128     0     7     1     8
  1.4198282442172322E-01 a       129     0     7     1     9
  8.7962421004769559E-02 a       130     0     7     1    10
 -2.3027517081858329E-01 a       131     0     7     1    11
  8.5875275112101593E-02 a       132     0     7     1    12
 -1.5375345218568751E-01 a       133     0     7     1    13
 -1.1703944670316510E-01 a       134     0     7     1    14
  1.2242592357631756E-01 a       135     0     7     1    15
 -8.2550143622516683E-02 a       136     0     7     1    16
  2.1966846330666237E-01 a       137     0     7     1    17
  1.0081859249672626E-01 a       138     0     7     1    18
 -6.5624673672077449E-03 a       139     0     7     1    19
 -1.2204532448385223E-01 a       140     0     7     1    20
  3.3652194505934269E-01 a       141     0     8     1     1
  3.3645745551819251E-01 a       142     0     8     1     2
  8.5996432169288990E-03 a       143     0     8     1     3
 -2.1083400621187592E-01 a       144     0     8     1     4
  1.7261196649209599E-02 a       145     0     8     1     5
 -3.6777226472125263E-01 a       146     0     8     1     6
 -3.1673007578818974E-01 a       147     0     8     1     7
  2.2465273108665501E-01 a       148     0     8     1     8
  5.3029767224783413E-02 a       149     0     8     1     9
 -1.0020499399516593E-01 a       150     0     8     1    10
  1.7454500165181397E-01 a       151     0     8     1    11
 -1.6327092821691228E-01 a       152     0     8     1    12
 -9.8063733148821164E-02 a       153     0     8     1    13
  1.0217894907432544E-01 a       154     0     8     1    14
  1.8268565718478666E-01 a       155     0     8     1    15
  7.8244097875067031E-02 a       156     0     8     1    16
 -3.3812881853762966E-01 a       157     0     8     1    17
  3.9272705894825338E-01 a       158     0     8     1    18
  3.2724839311256937E-01 a       159     0     8     1    19
 -1.8190035620041051E-01 a       160     0     8     1    20
  2.6221475913006864E-01 a       161     0     9     1     1
 -1.5268588014591827E-01 a       162     0     9     1     2
 -2.3873369506983938E-01 a       163     0     9     1     3
  1.2501469745732130E-01 a       164     0     9     1     4
  2.1646838495236168E-01 a       165     0     9     1     5
  2.0848585318476123E-01 a       166     0     9     1     6
  7.8902017419934176E-02 a       167     0     9     1     7
  3.5038456008704387E-02 a       168     0     9     1     8
  7.8871257495583866E-02 a       169     0     9     1     9
  2.3332565361195495E-01 a       170     0     9     1    10
 -3.4066532576494241E-01 a       171     0     9     1    11
 -2.3801711087122335E-01 a       172     0     9     1    12
  1.8498752488023001E-01 a       173     0     9     1    13
  3.4139956624123044E-02 a       174     0     9     1    14
  2.4978746475666100E-02 a       175     0     9     1    15
 -1.1384075987673811E-01 a       176     0     9     1    16
 -4.9219828027749060E-02 a       177     0     9     1    17
 -2.8129774297961596E-01 a       178     0     9     1    18
 -1.4514441250430601E-01 a       179     0     9     1    19
 -9.4626245697043518E-02 a       180     0     9     1    20
 -4.1125690892805447E-03 a       181     0    10     1     1
  1.0539439964011491E-01 a       182     0    10     1     2
  1.5805371878488478E-01 a       183     0    10     1     3
  2.6302229322069176E-01 a       184     0    10     1     4
 -1.6244518445140163E-01 a       185     0    10     1     5
  1.9837477256282671E-01 a       186     0    10     1     6
  7.0241923170000914E-02 a       187     0    10     1     7
 -2.2674098147451885E-01 a       188     0    10     1     8
 -1.5757332172562183E-01 a       189     0    10     1     9
  9.1081459060632683E-02 a       190     0    10     1    10
  2.0325817859514239E-01 a       191     0    10     1    11
  4.6637409264161322E-01 a       192     0    10     1    12
  1.2993570803580318E-01 a       193     0    10     1    13
  2.6769219495806740E-01 a       194     0    10     1    14
 -2.7566558312637057E-01 a       195     0    10     1    15
 -2.9443732159539526E-01 a       196     0    10     1    16
 -1.6824065901787858E-03 a       197     0    10     1    17
 -4.1956100166177686E-02 a       198     0    10     1    18
  1.3881253229835092E-01 a       199     0    10     1    19
  2.7614892024783344E-01 a       200     0    10     1    20
 -2.1319182346239943E-01 a       201     0    11     1     1
 -2.8199592116290295E-01 a       202     0    11     1     2
  2.6107459209235589E-01 a       203     0    11     1     3
  3.7690520279326047E-02 a       204     0    11     1     4
 -1.7294930710384890E-01 a       205     0    11     1     5
 -6.0839108179047675E-02 a       206     0    11     1     6
  1.4365294409101881E-01 a       207     0    11     1     7
  2.7034996974948454E-02 a       208     0    11     1     8
  2.1656394229613368E-01 a       209     0    11     1     9
  7.8610624459686737E-02 a       210     0    11     1    10
  5.0595931611036989E-02 a       211     0    11     1    11
  1.9531935138130121E-01 a       212     0    11     1    12
 -4.1344459902652769E-01 a       213     0    11     1    13
 -2.0701403500047741E-01 a       214     0    11     1    14
 -5.4697158617099298E-02 a       215     0    11     1    15
  2.8619394346594973E-01 a       216     0    11     1    16
  1.6718241180804133E-01 a       217     0    11     1    17
  1.6634794741363410E-01 a       218     0    11     1    18
 -3.1756322720884200E-01 a       219     0    11     1    19
 -9.7321008665577219E-02 a       220     0    11     1    20
  1.2798971560492853E-01 a       221     0    12     1     1
  1.5097889815300508E-01 a       222     0    12     1     2
  1.5175805763416214E-01 a       223     0    12     1     3
  2.9005723746473960E-02 a       224     0    12     1     4
 -2.2214827587535485E-01 a       225     0    12     1     5
 -2.3394194787398678E-01 a       226     0    12     1     6
 -3.4961427872735756E-01 a       227     0    12     1     7
 -1.6012355000990082E-02 a       228     0    12     1     8
 -1.4337536581216473E-01 a       229     0    12     1     9
 -4.8759282217061030E-02 a       230     0    12     1    10
 -2.4296317023732619E-01 a       231     0    12     1    11
  6.7269927523867651E-02 a       232     0    12     1    12
  1.0620083832336201E-01 a       233     0    12     1    13
 -6.6592639073673590E-02 a       234     0    12     1    14
 -2.0310621449706887E-01 a       235     0    12     1    15
 -5.7885131477726406E-02 a       236     0    12     1    16
  1.0320868889034475E-01 a       237     0    12     1    17
  2.2077788240715376E-01 a       238     0    12     1    18
  4.1319163234721229E-01 a       239     0    12     1    19
 -1.4215910435904605E-01 a       240     0    12     1    20
  2.1187232960468513E-01 a       241     0    13     1     1
  3.2635948740267162E-01 a       242     0    13     1     2
  1.2626873038644354E-01 a       243     0    13     1     3
  3.0585075808836160E-01 a       244     0    13     1     4
 -1.0441924245431387E-01 a       245     0    13     1     5
  3.4490699185586937E-01 a       246     0    13     1     6
 -1.9748670704182048E-01 a       247     0    13     1     7
 -8.7806843330400633E-02 a       248     0    13     1     8
 -1.8726884671978361E-01 a       249     0    13     1     9
  2.1146424665821287E-01 a       250     0    13     1    10
 -3.8007670976680163E-01 a       251     0    13     1    11
  1.6411635026849025E-01 a       252     0    13     1    12
  3.7665758446163133E-01 a       253     0    13     1    13
  8.1716726777807825E-03 a       254     0    13     1    14
 -3.5392189336539476E-01 a       255     0    13     1    15
 -3.4602082687956742E-01 a       256     0    13     1    16
  7.4764276920525922E-03 a       257     0    13     1    17
 -1.3147045244764488E-01 a       258     0    13     1    18
  1.8719747885230900E-01 a       259     0    13     1    19
 -1.2496928956597560E-01 a       260     0    13     1    20
 -1.5404283215042330E-01 a       261     0    14     1     1
  1.3151447235622427E-01 a       262     0    14     1     2
 -1.2816456512706148E-01 a       263     0    14     1     3
  3.2042556892335106E-01 a       264     0    14     1     4
  2.3606704665862166E-01 a       265     0    14     1     5
  1.1755796253146597E-01 a       266     0    14     1     6
  1.4935428948267396E-01 a       267     0    14     1     7
 -7.6770591958096407E-02 a       268     0    14     1     8
 -7.2387383265383617E-02 a       269     0    14     1     9
  1.7417708253405748E-01 a       270     0    14     1    10
  1.5049365388110705E-01 a       271     0    14     1    11
  9.5810051904310106E-02 a       272     0    14     1    12
  3.5478330453689999E-01 a       273     0    14     1    13
 -9.9208910722111798E-02 a       274     0    14     1    14
 -2.1879524391619576E-01 a       275     0    14     1    15
 -2.9763694660698770E-01 a       276     0    14     1    16
 -6.9119344518113343E-02 a       277     0    14     1    17
 -2.0345324733415091E-01 a       278     0    14     1    18
  1.4609219267631268E-01 a       279     0    14     1    19
 -7.9010331613614870E-02 a       280     0    14     1    20
  5.2870737876311517E-02 a       281     0    15     1     1
  1.5566341239093553E-01 a       282     0    15     1     2
  1.7881340319881309E-01 a       283     0    15     1     3
  1.2791441582708766E-02 a       284     0    15     1     4
 -2.1766319912091106E-01 a       285     0    15     1     5
 -1.5592689402975399E-01 a       286     0    15     1     6
 -2.9987938457025176E-01 a       287     0    15     1     7
 -2.4652165876315149E-01 a       288     0    15     1     8
 -6.0621537831721861E-02 a       289     0    15     1     9
  6.9713762702420953E-02 a       290     0    15     1    10
  1.1555764750595873E-01 a       291     0    15     1    11
  2.4748381724262355E-01 a       292     0    15     1    12
 -1.5760607774483201E-01 a       293     0    15     1    13
  4.7388014659046090E-01 a       294     0    15     1    14
  2.7384247822313973E-01 a       295     0    15     1    15
  7.9873373648899904E-02 a       296     0    15     1    16
  6.5924182241419119E-02 a       297     0    15     1    17
  2.8846030945571255E-01 a       298     0    15     1    18
 -1.5059203552970510E-01 a       299     0    15     1    19
  2.2304786260142567E-01 a       300     0    15     1    20
  1.4618889901553911E-01 a       301     0    16     1     1
  8.7049904477970078E-02 a       302     0    16     1     2
 -1.7354128438726224E-01 a       303     0    16     1     3
 -2.3208892350871332E-01 a       304     0    16     1     4
 -2.9102222311396749E-02 a       305     0    16     1     5
 -3.0282773214022102E-01 a       306     0    16     1     6
 -5.7606167164382001E-02 a       307     0    16     1     7
  6.4186834125626466E-02 a       308     0    16     1     8
 -1.6940827778403811E-01 a       309     0    16     1     9
 -2.4806603052392312E-01 a       310     0    16     1    10
 -2.6348234230102515E-02 a       311     0    16     1    11
 -2.7268504782186431E-01 a       312     0    16     1    12
 -1.5268090124499403E-01 a       313     0    16     1    13
  1.0742679412618873E-01 a       314     0    16     1    14
  1.4496059749570547E-01 a       315     0    16     1    15
  4.2631694200474907E-01 a       316     0    16     1    16
  6.7115627058508986E-02 a       317     0    16     1    17
  1.0742896446382758E-01 a       318     0    16     1    18
 -9.8499483848324437E-02 a       319     0    16     1    19
  4.7120915781879734E-02 a       320     0    16     1    20
 -2.4688164363721890E-01 a       321     0    17     1     1
 -2.4942539999514129E-01 a       322     0    17     1     2
  9.3027258966633539E-02 a       323     0    17     1     3
 -1.0870069149719863E-01 a       324     0    17     1     4
  2.5735325345437554E-01 a       325     0    17     1     5
 -7.1850087593265471E-02 a       326     0    17     1     6
  4.6881645800169951E-02 a       327     0    17     1     7
  1.3616192781058753E-01 a       328     0    17     1     8
  1.3249735405390214E-01 a       329     0    17     1     9
 -1.0763815511639979E-01 a       330     0    17     1    10
  1.8234156370339982E-01 a       331     0    17     1    11
  3.1482739201155858E-02 a       332     0    17     1    12
 -1.7518323391401755E-01 a       333     0    17     1    13
 -2.8055398856768160E-01 a       334     0    17     1    14
  7.3669234866199931E-02 a       335     0    17     1    15
 -2.4122033411594862E-01 a       336     0    17     1    16
 -1.1883276268967821E-01 a       337     0    17     1    17
  1.7233201605674328E-01 a       338     0    17     1    18
  3.5210905015966670E-01 a       339     0    17     1    19
  1.7620295415830761E-01 a       340     0    17     1    20
 -1.5020442634342643E-01 a       341     0    18     1     1
  1.8626808790944815E-01 a       342     0    18     1     2
 -9.0267667026687939E-02 a       343     0    18     1     3
 -1.0521045349910960E-01 a       344     0    18     1     4
  2.8622860081812340E-01 a       345     0    18     1     5
 -7.2570182151858495E-02 a       346     0    18     1     6
  3.0186955473737354E-01 a       347     0    18     1     7
 -2.5456082996800963E-02 a       348     0    18     1     8
 -4.0825632030280654E-02 a       349     0    18     1     9
  4.8267554934199965E-02 a       350     0    18     1    10
  2.4705135060905531E-01 a       351     0    18     1    11
 -1.7476157227349098E-01 a       352     0    18     1    12
 -3.7824300132285563E-02 a       353     0    18     1    13
 -1.2297266003914688E-01 a       354     0    18     1    14
  3.1679036185706233E-01 a       355     0    18     1    15
 -1.7098897780906125E-01 a       356     0    18     1    16
 -1.6508804112556064E-01 a       357     0    18     1    17
  2.3023494196630311E-02 a       358     0    18     1    18
 -1.8599939835891838E-01 a       359     0    18     1    19
  1.1747599159460512E-01 a       360     0    18     1    20
  8.1594532812583956E-02 a       361     0    19     1     1
  1.8685038608458485E-01 a       362     0    19     1     2
 -1.6760095934996078E-01 a       363     0    19     1     3
  1.3941201942333373E-01 a       364     0    19     1     4
 -1.6689224904199415E-01 a       365     0    19     1     5
 -4.5910884527032153E-02 a       366     0    19     1     6
 -1.9556258003028601E-01 a       367     0    19     1     7
 -5.8474213382624735E-02 a       368     0    19     1     8
  2.9366196500173112E-02 a       369     0    19     1     9
  8.4827756016347650E-02 a       370     0    19     1    10
 -7.3902448040348793E-03 a       371     0    19     1    11
 -1.3886620676157263E-01 a       372     0    19     1    12
 -5.1566055450929994E-02 a       373     0    19     1    13
  1.6187276728293690E-01 a       374     0    19     1    14
  1.9668736435955345E-01 a       375     0    19     1    15
 -9.5142460728865799E-02 a       376     0    19     1    16
  2.9348226419980039E-03 a       377     0    19     1    17
 -1.4618027870830624E-01 a       378     0    19     1    18
 -2.0532980577754739E-01 a       379     0    19     1    19
 -5.4699993045179654E-02 a       380     0    19     1    20
  1.3756135666236333E-01 a       381     0    20     1     1
 -8.3240289171798723E-02 a       382     0    20     1     2
 -1.0902098706640410E-01 a       383     0    20     1     3
  2.4233270609603949E-01 a       384     0    20     1     4
 -1.4661325873302999E-01 a       385     0    20     1     5
  1.8705348203074246E-01 a       386     0    20     1     6
 -1.9484753291554255E-01 a       387     0    20     1     7
  1.0611713281221336E-01 a       388     0    20     1     8
  4.2867233962153375E-02 a       389     0    20     1     9
  7.6126273626088550E-02 a       390     0    20     1    10
 -2.5872045419828271E-01 a       391     0    20     1    11
  2.2683127019828622E-03 a       392     0    20     1    12
  2.2035340538426545E-01 a       393     0    20     1    13
 -1.3107587774144944E-01 a       394     0    20     1    14
 -4.7657036029924638E-01 a       395     0    20     1    15
  9.3196381390744543E-02 a       396     0    20     1    16
  1.2184088681400972E-01 a       397     0    20     1    17
 -2.1355260829250775E-01 a       398     0    20     1    18
  1.3571555592820292E-01 a       399     0    20     1    19
 -2.7293978770471028E-01 a       400     0    20     1    20
  2.1773574669033002E-01 a       401     0    21     1     1
 -2.6021033422029044E-01 a       402     0    21     1     2
 -2.1489065116185360E-01 a       403     0    21     1     3
 -3.4409391754684809E-01 a       404     0    21     1     4
  1.9068550179828000E-01 a       405     0    21     1     5
  2.7673678639838445E-01 a       406     0    21     1     6
 -2.3533780824228287E-01 a       407     0    21     1     7
  4.4850815336961947E-01 a       408     0    21     1     8
  3.8467881126206616E-01 a       409     0    21     1     9
  6.7944442590868098E-02 a       410     0    21     1    10
  8.9507197458039894E-02 a       411     0    21     1    11
  4.6539965642923677E-03 a       412     0    21     1    12
  1.2439632728265708E-01 a       413     0    21     1    13
 -1.9631568797036486E-01 a       414     0    21     1    14
 -1.8066012970301071E-01 a       415     0    21     1    15
 -2.4842981997831323E-01 a       416     0    21     1    16
 -2.6130947016271622E-01 a       417     0    21     1    17
 -3.2021940142142813E-01 a       418     0    21     1    18
  2.9858144194834935E-01 a       419     0    21     1    19
 -1.0381690424289014E-01 a       420     0    21     1    20
  2.4943384444735464E-01 a       421     0    22     1     1
  1.1648837501479992E-01 a       422     0    22     1     2
 -2.9172307650750579E-01 a       423     0    22     1     3
 -3.8066839511556722E-01 a       424     0    22     1     4
  4.1751344691910219E-01 a       425     0    22     1     5
  2.8400300067228790E-01 a       426     0    22     1     6
  3.1662902556516576E-01 a       427     0    22     1     7
  1.1823956493748727E-01 a       428     0    22     1     8
  1.1073661437657893E-01 a       429     0    22     1     9
 -2.3650713684112190E-01 a       430     0    22     1    10
 -7.3869800750534440E-02 a       431     0    22     1    11
 -2.4551235557325343E-01 a       432     0    22     1    12
  3.9621553185246194E-01 a       433     0    22     1    13
 -1.8083087339989257E-01 a       434     0    22     1    14
  3.7993146404739514E-01 a       435     0    22     1    15
  1.7782756970848251E-01 a       436     0    22     1    16
  2.7216134168460165E-02 a       437     0    22     1    17
 -3.2170598661515931E-03 a       438     0    22     1    18
  2.4521036007110961E-01 a       439     0    22     1    19
  1.3950951074873574E-01 a       440     0    22     1    20
 -2.0379674941869441E-01 a       441     0    23     1     1
  3.4035166893668795E-01 a       442     0    23     1     2
 -3.0198691628541924E-01 a       443     0    23     1     3
 -9.1880042810719639E-02 a       444     0    23     1     4
 -1.2424788933914338E-01 a       445     0    23     1     5
 -1.2826712150762670E-01 a       446     0    23     1     6
 -1.0058738054545079E-01 a       447     0    23     1     7
 -2.2571536734988190E-01 a       448     0    23     1     8
 -3.5902011365170466E-01 a       449     0    23     1     9
  2.8377389123852667E-02 a       450     0    23     1    10
  1.4456129584693758E-01 a       451     0    23     1    11
 -2.7544023635075149E-01 a       452     0    23     1    12
  1.9959606738446550E-01 a       453     0    23     1    13
 -3.5690986666560551E-02 a       454     0    23     1    14
  4.8213684136828049E-02 a       455     0    23     1    15
 -2.1586027437075744E-01 a       456     0    23     1    16
  2.0075326462303655E-01 a       457     0    23     1    17
 -1.0753601412547759E-01 a       458     0    23     1    18
  1.1707626881451760E-01 a       459     0    23     1    19
 -2.0768967328357230E-02 a       460     0    23     1    20
 -2.4667120513194374E-01 a       461     0    24     1     1
 -4.2484173926584917E-01 a       462     0    24     1     2
  2.6421305862330552E-01 a       463     0    24     1     3
 -2.0703988959922345E-01 a       464     0    24     1     4
  1.8356340431939615E-02 a       465     0    24     1     5
  3.1924822135965047E-01 a       466     0    24     1     6
 -1.2680759511781506E-01 a       467     0    24     1     7
  8.1445823961203812E-02 a       468     0    24     1     8
  2.6862881961729534E-01 a       469     0    24     1     9
  2.1710560369938209E-01 a       470     0    24     1    10
 -6.1968022279920085E-02 a       471     0    24     1    11
  5.3698710354105139E-01 a       472     0    24     1    12
 -2.3773402567566138E-01 a       473     0    24     1    13
 -1.2609934071702089E-01 a       474     0    24     1    14
  7.7568098102238942E-02 a       475     0    24     1    15
  4.6715172622634055E-03 a       476     0    24     1    16
  7.6643073535656442E-02 a       477     0    24     1    17
  1.2246088079769823E-01 a       478     0    24     1    18
 -4.0906962913216376E-02 a       479     0    24     1    19
  6.0378484006160561E-02 a       480     0    24     1    20
 -2.8160550196329842E-01 a       481     0    25     1     1
 -1.7027436784947581E-01 a       482     0    25     1     2
  2.3478648798205667E-01 a       483     0    25     1     3
  3.3722504622243155E-01 a       484     0    25     1     4
  9.8668381330464947E-02 a       485     0    25     1     5
 -1.2490474862980924E-02 a       486     0    25     1     6
  3.8520372890788501E-01 a       487     0    25     1     7
  3.3214360281843081E-01 a       488     0    25     1     8
  1.4912725520303607E-01 a       489     0    25     1     9
 -1.8380767318856389E-01 a       490     0    25     1    10
 -2.2036512076997458E-01 a       491     0    25     1    11
 -4.2422438823319231E-01 a       492     0    25     1    12
  2.4732496035301543E-01 a       493     0    25     1    13
 -1.4685196803355760E-01 a       494     0    25     1    14
  1.7834867639132002E-01 a       495     0    25     1    15
 -3.1381468300971924E-02 a       496     0    25     1    16
 -1.6232026327064733E-01 a       497     0    25     1    17
  8.5900163883667086E-02 a       498     0    25     1    18
  1.8249006306903470E-01 a       499     0    25     1    19
 -3.4394453325782920E-02 a       500     0    25     1    20
 -8.5109145021543611E-02 a       501     0    26     1     1
  2.3669503365723316E-01 a       502     0    26     1     2
 -3.9558637209812460E-02 a       503     0    26     1     3
  1.7324859170294751E-01 a       504     0    26     1     4
 -2.2634179974535662E-01 a       505     0    26     1     5
 -1.1189121271429567E-01 a       506     0    26     1     6
 -2.9402265548170636E-01 a       507     0    26     1     7
 -1.8818316972713045E-01 a       508     0    26     1     8
  1.0279924798520385E-01 a       509     0    26     1     9
 -2.6993079542956810E-01 a       510     0    26     1    10
  2.0667154020395935E-02 a       511     0    26     1    11
 -1.0198054616806797E-01 a       512     0    26     1    12
 -3.0785655461130129E-01 a       513     0    26     1    13
  2.6266500887158667E-01 a       514     0    26     1    14
 -3.7089851075816760E-01 a       515     0    26     1    15
  1.9129041739169989E-01 a       516     0    26     1    16
 -1.0921454341786112E-01 a       517     0    26     1    17
 -1.0860915503993154E-01 a       518     0    26     1    18
 -4.5773756294254869E-02 a       519     0    26     1    19
 -1.9187216024928255E-01 a       520     0    26     1    20
  2.3741308713009765E-01 a       521     0    27     1     1
  3.3835000732081366E-01 a       522     0    27     1     2
  1.2817126129424364E-01 a       523     0    27     1     3
 -1.3395804108562992E-01 a       524     0    27     1     4
 -1.4327046454165457E-01 a       525     0    27     1     5
  2.2979368728688683E-03 a       526     0    27     1     6
 -2.2810310192163338E-01 a       527     0    27     1     7
  1.4090250862007017E-01 a       528     0    27     1     8
 -2.8012938925981556E-01 a       529     0    27     1     9
 -1.7865592413781600E-01 a       530     0    27     1    10
  2.4104532796302020E-01 a       531     0    27     1    11
 -8.0236964404517663E-02 a       532     0    27     1    12
 -1.2863397937766602E-01 a       533     0    27     1    13
  1.2010925852587143E-01 a       534     0    27     1    14
 -1.6044022141931388E-01 a       535     0    27     1    15
  4.5953771678374516E-01 a       536     0    27     1    16
 -1.5706730931521148E-01 a       537     0    27     1    17
  2.1831327027464983E-01 a       538     0    27     1    18
 -3.3939623926663520E-01 a       539     0    27     1    19
  3.2743354915444900E-01 a       540     0    27     1    20
 -1.6926127470914307E-01 a       541     0    28     1     1
 -6.2012211741280993E-02 a       542     0    28     1     2
  2.8969242901598519E-01 a       543     0    28     1     3
 -2.0311620753158963E-01 a       544     0    28     1     4
 -3.1279754825934029E-02 a       545     0    28     1     5
  3.3539260793652576E-01 a       546     0    28     1     6
  4.0540041382505110E-01 a       547     0    28     1     7
  2.5515795871784534E-02 a       548     0    28     1     8
  2.6238121079240578E-01 a       549     0    28     1     9
  8.3944314606105089E-02 a       550     0    28     1    10
 -3.1111712195530977E-01 a       551     0    28     1    11
  2.6968483804438115E-01 a       552     0    28     1    12
  1.3310038810476221E-01 a       553     0    28     1    13
 -2.1658155644086019E-01 a       554     0    28     1    14
 -7.6303028768716627E-02 a       555     0    28     1    15
 -1.9071453462358229E-01 a       556     0    28     1    16
  2.4582724238467779E-01 a       557     0    28     1    17
 -2.2363396432002614E-01 a       558     0    28     1    18
  1.1554185114274888E-01 a       559     0    28     1    19
 -3.7609420517489112E-01 a       560     0    28     1    20
  2.1831765282296695E-01 a       561     0    29     1     1
  6.2357882502751851E-05 a       562     0    29     1     2
  5.3305876934446217E-01 a       563     0    29     1     3
  4.2332527073860968E-02 a       564     0    29     1     4
 -2.9998405296923464E-01 a       565     0    29     1     5
 -4.1476095369676037E-02 a       566     0    29     1     6
  2.8452139550470518E-01 a       567     0    29     1     7
  1.8142979499541081E-01 a       568     0    29     1     8
  1.8187549571783648E-01 a       569     0    29     1     9
  3.5481464723152223E-01 a       570     0    29     1    10
 -4.0317281540223687E-01 a       571     0    29     1    11
  3.6960002426262673E-01 a       572     0    29     1    12
  1.0894434674268763E-01 a       573     0    29     1    13
  2.6372806470295945E-01 a       574     0    29     1    14
 -1.7854409914885341E-01 a       575     0    29     1    15
 -2.1683193150912128E-01 a       576     0    29     1    16
 -8.5768648255504509E-02 a       577     0    29     1    17
 -1.3328617506937118E-01 a       578     0    29     1    18
 -6.4259475878274852E-02 a       579     0    29     1    19
 -3.8448615263738206E-01 a       580     0    29     1    20
  1.5597480816091258E-01 a       581     0    30     1     1
  3.6907171324268784E-01 a       582     0    30     1     2
  1.0986637715210222E-01 a       583     0    30     1     3
  2.0256985741283209E-01 a       584     0    30     1     4
 -3.6154846697327625E-01 a       585     0    30     1     5
 -3.7468259984481977E-01 a       586     0    30     1     6
  1.5451725926867865E-01 a       587     0    30     1     7
 -1.0191863134634541E-01 a       588     0    30     1     8
 -2.5878817456517611E-01 a       589     0    30     1     9
 -1.7512955202148403E-01 a       590     0    30     1    10
  3.3263420397635818E-01 a       591     0    30     1    11
 -9.2237433864799864E-02 a       592     0    30     1    12
 -3.0061392466885156E-01 a       593     0    30     1    13
 -9.0009636300226268E-03 a       594     0    30     1    14
 -3.3099330050595044E-01 a       595     0    30     1    15
 -2.0091052427926800E-01 a       596     0    30     1    16
  3.0745604327394795E-02 a       597     0    30     1    17
  3.1060190763095463E-02 a       598     0    30     1    18
  8.9767247301415290E-02 a       599     0    30     1    19
 -9.9890579985014341E-02 a       600     0    30     1    20
 -3.2232608849177896E-01 a       601     0    31     1     1
 -3.4951839246591387E-01 a       602     0    31     1     2
 -1.9284416115714428E-01 a       603     0    31     1     3
  1.3790949112945308E-01 a       604     0    31     1     4
  2.6779935061877264E-01 a       605     0    31     1     5
 -3.0656559964089508E-01 a       606     0    31     1     6
  1.2531374673287290E-01 a       607     0    31     1     7
 -1.8545723542288774E-03 a       608     0    31     1     8
 -1.5259257398760689E-01 a       609     0    31     1     9
 -3.2296807502919397E-02 a       610     0    31     1    10
  1.4125992371028898E-01 a       611     0    31     1    11
 -1.4890595723497255E-02 a       612     0    31     1    12
 -1.7706690946399242E-01 a       613     0    31     1    13
 -2.1419481590345060E-01 a       614     0    31     1    14
  2.2293215511084702E-01 a       615     0    31     1    15
  3.2638109886304245E-01 a       616     0    31     1    16
 -4.2011136906804546E-02 a       617     0    31     1    17
  1.1455766778702053E-01 a       618     0    31     1    18
  1.9732930872465335E-01 a       619     0    31     1    19
 -4.5367597353541074E-02 a       620     0    31     1    20
  2.9375584604743926E-01 a       621     0    32     1     1
 -2.9331323705079525E-02 a       622     0    32     1     2
 -1.9568824192265719E-01 a       623     0    32     1     3
 -4.4245097700839098E-01 a       624     0    32     1     4
  1.5344707012566608E-01 a       625     0    32     1     5
  3.8556011810244278E-01 a       626     0    32     1     6
 -1.0951942765816124E-01 a       627     0    32     1     7
  3.6888998910341175E-01 a       628     0    32     1     8
  1.5850544388017834E-01 a       629     0    32     1     9
  5.5759312391008793E-02 a       630     0    32     1    10
  1.3659458787527481E-01 a       631     0    32     1    11
 -1.6286141251447031E-01 a       632     0    32     1    12
  1.4619083697758142E-01 a       633     0    32     1    13
 -5.2689554613617233E-02 a       634     0    32     1    14
  2.2046355898072528E-01 a       635     0    32     1    15
  6.7476487231346971E-02 a       636     0    32     1    16
 -4.8278609838395943E-02 a       637     0    32     1    17
 -2.2069427572857117E-01 a       638     0    32     1    18
 -3.5260533679757916E-01 a       639     0    32     1    19
  2.2710649718647488E-01 a       640     0    32     1    20
 -1.1521289271341533E+00 b       641     1     1
  1.0800973901355782E+00 b       642     1     2
 -3.7676974299463944E-01 b       643     1     3
 -1.0623056463689651E+00 b       644     1     4
 -1.1263029705886274E+00 b       645     1     5
 -5.6121635814689796E-01 b       646     1     6
  1.4505513188683936E+00 b       647     1     7
  1.6233013680107253E-01 b       648     1     8
 -1.9561039268259062E-01 b       649     1     9
  1.1152392145189298E+00 b       650     1    10
 -1.0988378044167355E+00 b       651     1    11
  5.6997831599841264E-01 b       652     1    12
 -7.9698460809509974E-01 b       653     1    13
 -2.6849214271416472E-01 b       654     1    14
 -8.1035388861119761E-01 b       655     1    15
 -1.4544222502556485E+00 b       656     1    16
  1.6562100248497145E+00 b       657     1    17
  5.8510929108742102E-02 b       658     1    18
  1.1118459989734255E+00 b       659     1    19
 -3.3981286575725944E-01 b       660     1    20
 -2.1318829410321768E-01 a       661     1     1     2     1
  3.8542033160432254E-01 a       662     1     1     2     2
 -3.2505342906866319E-01 a       663     1     1     2     3
  2.0876061174040697E-01 a       664     1     1     2     4
 -2.2235826951644919E-01 a       665     1     1     2     5
  4.2245816204959746E-01 a       666     1     1     2     6
 -1.7575450141405199E-01 a       667     1     1     2     7
  5.2210809397332136E-01 a       668     1     1     2     8
 -2.2781999631307626E-01 a       669     1     1     2     9
  5.5096805023283894E-02 a       670     1     1     2    10
 -6.0795613629524858E-01 a       671     1     1     2    11
  2.0739915452945756E-01 a       672     1     1     2    12
  1.9700512824798816E-01 a       673     1     1     2    13
 -1.2843610265688457E-01 a       674     1     1     2    14
  2.2877615980945684E-01 a       675     1     1     2    15
  1.4477113101672084E-01 a       676     1     1     2    16
 -4.4283393128827014E-01 a       677     1     1     2    17
  3.8713574832042891E-01 a       678     1     1     2    18
  2.1888710012482013E-01 a       679     1     1     2    19
 -5.0433020335726686E-01 a       680     1     1     2    20
 -5.5917422748129764E-01 a       681     1     2     2     1
  2.6612137869381058E-01 a       682     1     2     2     2
  4.7596147506159697E-01 a       683     1     2     2     3
  2.1103412146998005E-01 a       684     1     2     2     4
  9.0862232204163063E-02 a       685     1     2     2     5
 -3.3638592877544177E-01 a       686     1     2     2     6
  4.9012867489101936E-01 a       687     1     2     2     7
 -1.5627118313274779E-01 a       688     1     2     2     8
  5.2487260845584936E-02 a       689     1     2     2     9
 -1.5051746480884964E-01 a       690     1     2     2    10
  3.3743615506087332E-01 a       691     1     2     2    11
 -2.0504665681167480E-01 a       692     1     2     2    12
 -1.5950173814146654E-02 a       693     1     2     2    13
 -3.2686035375435775E-02 a       694     1     2     2    14
  9.4805324908162902E-02 a       695     1     2     2    15
  3.3493775823591376E-01 a       696     1     2     2    16
  2.9578511768668531E-01 a       697     1     2     2    17
  2.1045546768854961E-01 a       698     1     2     2    18
  1.5622396910775552E-01 a       699     1     2     2    19
 -1.7818511040702897E-01 a       700     1     2     2    20
 -3.2271080114659539E-01 a       701     1     3     2     1
  8.2455944984748536E-02 a       702     1     3     2     2
  1.0486959707725454E-01 a       703     1     3     2     3
 -3.7145112676809464E-02 a       704     1     3     2     4
 -3.0817110995987618E-01 a       705     1     3     2     5
  4.1172599516538405E-01 a       706     1     3     2     6
 -6.2713312155161682E-01 a       707     1     3     2     7
 -5.0153469221124354E-02 a       708     1     3     2     8
  3.6029127863566740E-01 a       709     1     3     2     9
  4.9719485143242259E-02 a       710     1     3     2    10
 -3.3633941078321156E-01 a       711     1     3     2    11
 -3.4040646186906909E-01 a       712     1     3     2    12
  2.3504952587753067E-01 a       713     1     3     2    13
 -7.2809781914237745E-02 a       714     1     3     2    14
  6.6030696747685858E-01 a       715     1     3     2    15
 -5.1024857575902616E-01 a       716     1     3     2    16
 -4.6218665198525399E-01 a       717     1     3     2    17
 -2.4355663743321665E-01 a       718     1     3     2    18
  3.9636207631382807E-02 a       719     1     3     2    19
  5.1477442673008622E-01 a       720     1     3     2    20
 -5.0580594662840961E-01 a       721     1     4     2     1
 -2.0162016116257622E-01 a       722     1     4     2     2
  4.2309791996085599E-01 a       723     1     4     2     3
  8.5460744234647251E-02 a       724     1     4     2     4
 -3.5491048026219124E-01 a       725     1     4     2     5
 -3.1768615474637180E-01 a       726     1     4     2     6
  4.0648843609654206E-01 a       727     1     4     2     7
 -1.0466614376645167E-01 a       728     1     4     2     8
  2.8141278913158529E-01 a       729     1     4     2     9
  4.9887218480020412E-01 a       730     1     4     2    10
 -5.8370210088677554E-01 a       731     1     4     2    11
 -2.6712083695915777E-02 a       732     1     4     2    12
  5.2106365460830761E-01 a       733     1     4     2    13
 -3.2950955024136072E-02 a       734     1     4     2    14
  2.7195607965872026E-01 a       735     1     4     2    15
 -5.7224213478098240E-01 a       736     1     4     2    16
  1.7131426872696490E-01 a       737     1     4     2    17
  2.4293565555527322E-01 a       738     1     4     2    18
 -1.1598973947966582E-02 a       739     1     4     2    19
 -3.4034160300929606E-01 a       740     1     4     2    20
  1.5283448679153958E-01 a       741     1     5     2     1
 -2.4717239717537962E-01 a       742     1     5     2     2
  1.9744607672035869E-01 a       743     1     5     2     3
  3.3578952568843667E-01 a       744     1     5     2     4
  5.1536787834165196E-02 a       745     1     5     2     5
 -4.1224796484327819E-01 a       746     1     5     2     6
  2.6469265307929274E-01 a       747     1     5     2     7
  3.1085991791186599E-02 a       748     1     5     2     8
 -3.5233382531052887E-01 a       749     1     5     2     9
 -4.2006870401368346E-01 a       750     1     5     2    10
  3.9997581161924745E-01 a       751     1     5     2    11
  5.1236450378074960E-01 a       752     1     5     2    12
 -3.2287338005454314E-01 a       753     1     5     2    13
  1.0487621210743681E-01 a       754     1     5     2    14
 -3.1186135593132130E-01 a       755     1     5     2    15
 -2.7057177691561551E-01 a       756     1     5     2    16
  1.9470366898813468E-01 a       757     1     5     2    17
  5.5881494766839657E-01 a       758     1     5     2    18
 -3.0865336779295305E-01 a       759     1     5     2    19
 -4.1553261044008583E-01 a       760     1     5     2    20
  3.6351247428045685E-01 a       761     1     6     2     1
  4.1738397499324686E-01 a       762     1     6     2     2
 -5.8498299585587255E-01 a       763     1     6     2     3
 -4.4424873702956857E-01 a       764     1     6     2     4
  2.6758710364335481E-01 a       765     1     6     2     5
 -4.7037543475303195E-01 a       766     1     6     2     6
 -3.3009098011076726E-01 a       767     1     6     2     7
  5.6929128768555270E-01 a       768     1     6     2     8
  2.0772474571977528E-01 a       769     1     6     2     9
 -3.8429025057377858E-01 a       770     1     6     2    10
  3.8559546906222136E-01 a       771     1     6     2    11
 -3.4231184708267831E-01 a       772     1     6     2    12
  3.8359063931191906E-01 a       773     1     6     2    13
  4.3814692759990259E-01 a       774     1     6     2    14
 -3.9342581501299168E-01 a       775     1     6     2    15
  8.6297989933235703E-03 a       776     1     6     2    16
  4.4044210149316837E-01 a       777     1     6     2    17
  1.3147334580617728E-01 a       778     1     6     2    18
  2.9696128207731876E-01 a       779     1     6     2    19
 -1.0315911647365958E-01 a       780     1     6     2    20
  1.6149588505691037E-01 a       781     1     7     2     1
 -3.8112601149410053E-01 a       782     1     7     2     2
  1.4314947533088559E-01 a       783     1     7     2     3
 -2.6840408648315112E-01 a       784     1     7     2     4
 -4.7536115781929367E-01 a       785     1     7     2     5
  5.2892030768292519E-01 a       786     1     7     2     6
  2.5470942255355911E-01 a       787     1     7     2     7
 -3.2111725926569301E-01 a       788     1     7     2     8
 -2.7223059274879735E-01 a       789     1     7     2     9
  7.4718764520723971E-02 a       790     1     7     2    10
 -4.3998319659255253E-01 a       791     1     7     2    11
 -1.0578586156046692E-01 a       792     1     7     2    12
  4.2160690586260846E-01 a       793     1     7     2    13
 -2.1313131794832829E-01 a       794     1     7     2    14
  1.8853088410642860E-01 a       795     1     7     2    15
 -3.5802170482610507E-01 a       796     1     7     2    16
 -5.2095085488874082E-01 a       797     1     7     2    17
  4.1564128165877617E-01 a       798     1     7     2    18
  5.8506686179711920E-01 a       799     1     7     2    19
  4.9947832780050455E-01 a       800     1     7     2    20
  3.1683446203393095E-01 a       801     1     8     2     1
  3.2251231372616662E-01 a       802     1     8     2     2
  5.4346920508179264E-01 a       803     1     8     2     3
 -2.9476440163721235E-01 a       804     1     8     2     4
 -3.9934265556687337E-01 a       805     1     8     2     5
 -4.3754243556177456E-02 a       806     1     8     2     6
  3.3897687507947089E-01 a       807     1     8     2     7
  4.6568845656958624E-01 a       808     1     8     2     8
  6.1691723865474479E-01 a       809     1     8     2     9
  1.5841277393407909E-03 a       810     1     8     2    10
 -4.1188720072585039E-01 a       811     1     8     2    11
  1.0606790358874073E-01 a       812     1     8     2    12
  5.4125625725002635E-01 a       813     1     8     2    13
  3.4968064621629191E-01 a       814     1     8     2    14
 -8.3290143036424444E-02 a       815     1     8     2    15
  6.2004557769768665E-01 a       816     1     8     2    16
  1.2949164222607004E-01 a       817     1     8     2    17
 -1.3286441246422373E-01 a       818     1     8     2    18
  6.7876570063683295E-01 a       819     1     8     2    19
  2.4612576564748820E-01 a       820     1     8     2    20
 -1.0553850199729066E-01 a       821     1     9     2     1
 -9.0180074519863568E-02 a       822     1     9     2     2
 -5.2931949173130610E-01 a       823     1     9     2     3
  1.9927746204075142E-01 a       824     1     9     2     4
  5.3196822143443581E-02 a       825     1     9     2     5
  4.3398651377880737E-02 a       826     1     9     2     6
  5.7852534533345101E-02 a       827     1     9     2     7
  6.6775235842741809E-02 a       828     1     9     2     8
 -5.6365130585247980E-01 a       829     1     9     2     9
 -1.5671547244991460E-01 a       830     1     9     2    10
  2.0067067423614776E-01 a       831     1     9     2    11
  7.2561117219164639E-02 a       832     1     9     2    12
 -1.4483562346480430E-01 a       833     1     9     2    13
 -3.3124401292090527E-01 a       834     1     9     2    14
 -1.5166579887322562E-01 a       835     1     9     2    15
  1.9703035285570068E-02 a       836     1     9     2    16
  7.6193705902174447E-02 a       837     1     9     2    17
  5.2274620977076947E-01 a       838     1     9     2    18
  4.0762265399664643E-01 a       839     1     9     2    19
 -2.1968577167049136E-01 a       840     1     9     2    20
 -4.2025918272732299E-01 a       841     1    10     2     1
 -6.4353084437176300E-01 a       842     1    10     2     2
  2.1907544728604594E-01 a       843     1    10     2     3
 -3.2914018703399828E-01 a       844     1    10     2     4
 -3.7933706363991904E-01 a       845     1    10     2     5
 -1.7838506411767632E-01 a       846     1    10     2     6
  2.8809210580822547E-01 a       847     1    10     2     7
 -4.6598201252541926E-01 a       848     1    10     2     8
 -2.0099788894169091E-01 a       849     1    10     2     9
 -5.8467779409115150E-01 a       850     1    10     2    10
 -8.1122158130354727E-02 a       851     1    10     2    11
 -6.8925066435450466E-01 a       852     1    10     2    12
 -4.4195599956174325E-01 a       853     1    10     2    13
  4.9691805164960662E-01 a       854     1    10     2    14
 -4.2934279474683601E-01 a       855     1    10     2    15
 -6.6250417453490279E-02 a       856     1    10     2    16
 -2.9369394618545785E-01 a       857     1    10     2    17
 -4.0616137452552292E-01 a       858     1    10     2    18
 -1.0416661686532101E-01 a       859     1    10     2    19
  3.8501103502711725E-01 a       860     1    10     2    20
 -5.7430377903920338E-01 a       861     1    11     2     1
  1.2876848140039904E-01 a       862     1    11     2     2
  3.0385510097489909E-01 a       863     1    11     2     3
 -2.1864951419945070E-01 a       864     1    11     2     4
  6.9733276776518038E-01 a       865     1    11     2     5
  6.8736566886568956E-02 a       866     1    11     2     6
  5.6596238292218803E-01 a       867     1    11     2     7
 -3.3392237071464503E-01 a       868     1    11     2     8
 -2.9481034912586285E-01 a       869     1    11     2     9
  6.3767655438127768E-01 a       870     1    11     2    10
 -1.0720172422039204E-01 a       871     1    11     2    11
  6.7173344139767399E-01 a       872     1    11     2    12
  4.7580249133098312E-01 a       873     1    11     2    13
  5.6575259167188852E-01 a       874     1    11     2    14
  1.6757799636650361E-01 a       875     1    11     2    15
  4.7714491510756317E-02 a       876     1    11     2    16
 -7.5808131725259631E-02 a       877     1    11     2    17
  5.2143853144186258E-01 a       878     1    11     2    18
  3.9186496459570180E-01 a       879     1    11     2    19
 -1.3259102934701592E-01 a       880     1    11     2    20
 -5.5830227226458484E-01 a       881     1    12     2     1
 -6.3932337180132870E-01 a       882     1    12     2     2
 -4.3068563231126578E-01 a       883     1    12     2     3
  3.4463304037494241E-01 a       884     1    12     2     4
  5.4251458167045319E-01 a       885     1    12     2     5
  6.2487415996859219E-01 a       886     1    12     2     6
 -4.4917794189974841E-01 a       887     1    12     2     7
  5.0608792206864994E-01 a       888     1    12     2     8
 -4.0024811552706063E-01 a       889     1    12     2     9
 -3.8852922557229291E-01 a       890     1    12     2    10
  4.6436639644117383E-01 a       891     1    12     2    11
  1.4954400173920990E-01 a       892     1    12     2    12
  2.8812160008922716E-01 a       893     1    12     2    13
  2.3832030175758040E-01 a       894     1    12     2    14
 -2.2939734339893983E-01 a       895     1    12     2    15
  4.4552496007529580E-01 a       896     1    12     2    16
 -4.6919064761671364E-01 a       897     1    12     2    17
 -3.1036625041879412E-01 a       898     1    12     2    18
 -1.4711437359775784E-01 a       899     1    12     2    19
  5.9522547773787970E-01 a       900     1    12     2    20
 -5.3519384037228945E-01 a       901     1    13     2     1
  3.1256977415054743E-01 a       902     1    13     2     2
 -9.3029126147167254E-02 a       903     1    13     2     3
  1.2971393870870740E-01 a       904     1    13     2     4
  1.2774740965037271E-01 a       905     1    13     2     5
  2.6273355114325303E-01 a       906     1    13     2     6
 -5.5455639628453332E-02 a       907     1    13     2     7
  3.8124738475169306E-01 a       908     1    13     2     8
 -4.3162402288546897E-01 a       909     1    13     2     9
  6.4408956556978381E-01 a       910     1    13     2    10
  9.1607226227455194E-02 a       911     1    13     2    11
 -1.0409866771591336E-01 a       912     1    13     2    12
  1.6887057984452347E-01 a       913     1    13     2    13
 -4.5766748116011607E-01 a       914     1    13     2    14
  1.8639211767218803E-03 a       915     1    13     2    15
 -6.4114522752318504E-01 a       916     1    13     2    16
 -5.4814992483159155E-03 a       917     1    13     2    17
 -3.4318728860053292E-02 a       918     1    13     2    18
  2.1067246768690465E-01 a       919     1    13     2    19
 -3.0169981133175250E-01 a       920     1    13     2    20
  1.0054402229808708E-01 a       921     1    14     2     1
  2.0202678870007704E-01 a       922     1    14     2     2
 -5.5534287908165592E-01 a       923     1    14     2     3
 -2.9038281368251989E-01 a       924     1    14     2     4
 -6.1501141941223370E-01 a       925     1    14     2     5
  5.5812461218404885E-01 a       926     1    14     2     6
  4.4798112883995500E-01 a       927     1    14     2     7
 -2.7705461890586047E-01 a       928     1    14     2     8
 -1.4948516109331234E-01 a       929     1    14     2     9
 -3.0980918021592602E-01 a       930     1    14     2    10
  1.1022882121932009E-01 a       931     1    14     2    11
 -8.8414916955904505E-02 a       932     1    14     2    12
  1.3622211422158970E-01 a       933     1    14     2    13
  4.5249168734418671E-02 a       934     1    14     2    14
 -6.0377026875211970E-01 a       935     1    14     2    15
 -5.4162238995987333E-01 a       936     1    14     2    16
 -4.1111112598891841E-01 a       937     1    14     2    17
  3.8675295284175565E-01 a       938     1    14     2    18
  2.7256768559861594E-01 a       939     1    14     2    19
 -2.0884519724842185E-01 a       940     1    14     2    20
 -8.1553878687299457E-03 a       941     1    15     2     1
 -4.6588288786707122E-01 a       942     1    15     2     2
 -3.4261330237575183E-01 a       943     1    15     2     3
 -3.4536186539884678E-01 a       944     1    15     2     4
 -1.1029013563374779E-01 a       945     1    15     2     5
 -5.0391782342808211E-01 a       946     1    15     2     6
 -2.5610197394663203E-01 a       947     1    15     2     7
 -4.4635143590802284E-01 a       948     1    15     2     8
  5.1202592313031248E-01 a       949     1    15     2     9
  3.1173241222476722E-01 a       950     1    15     2    10
 -3.0258573297506358E-01 a       951     1    15     2    11
 -2.1180585072608149E-01 a       952     1    15     2    12
  5.9906782421247406E-01 a       953     1    15     2    13
 -1.3537043837260337E-01 a       954     1    15     2    14
  5.3139089204184264E-01 a       955     1    15     2    15
 -2.7962359375159929E-01 a       956     1    15     2    16
  4.0624751862713049E-01 a       957     1    15     2    17
  1.8111194208669384E-01 a       958     1    15     2    18
  1.6442037526648226E-01 a       959     1    15     2    19
  4.5402463188823494E-01 a       960     1    15     2    20
 -3.5344111629186076E-01 a       961     1    16     2     1
  6.4273137416892479E-01 a       962     1    16     2     2
 -5.3419940667985466E-01 a       963     1    16     2     3
 -1.6529400876067060E-01 a       964     1    16     2     4
 -2.3130262371914415E-01 a       965     1    16     2     5
 -1.7904810319965553E-01 a       966     1    16     2     6
 -2.5466776859269180E-01 a       967     1    16     2     7
 -6.0266038451638215E-01 a       968     1    16     2     8
  2.0037511302643179E-01 a       969     1    16     2     9
 -5.2066467099479699E-03 a       970     1    16     2    10
  3.1808994230144849E-01 a       971     1    16     2    11
 -4.1404835279068486E-01 a       972     1    16     2    12
 -3.6870074495006011E-01 a       973     1    16     2    13
  5.7051209645226619E-01 a       974     1    16     2    14
  4.5930817537337149E-01 a       975     1    16     2    15
  2.7151344069237338E-01 a       976     1    16     2    16
 -5.6795518719660631E-01 a       977     1    16     2    17
  4.9418193841047320E-01 a       978     1    16     2    18
 -4.2098905753631105E-01 a       979     1    16     2    19
 -6.3365903421421410E-01 a       980     1    16     2    20
  5.1727554149837998E-02 a       981     1    17     2     1
 -1.2101860642612762E-01 a       982     1    17     2     2
  4.0272014954909230E-01 a       983     1    17     2     3
  4.7278865463711123E-01 a       984     1    17     2     4
 -7.2571012289233605E-01 a       985     1    17     2     5
  2.2789518785533638E-01 a       986     1    17     2     6
  3.4493646150804097E-01 a       987     1    17     2     7
 -5.8262485380849427E-01 a       988     1    17     2     8
  3.8482686386721532E-01 a       989     1    17     2     9
 -1.9877037448130594E-01 a       990     1    17     2    10
  5.4713290609803067E-01 a       991     1    17     2    11
  4.6003871992045814E-01 a       992     1    17     2    12
  2.2563394778844872E-01 a       993     1    17     2    13
  6.0322885396267656E-01 a       994     1    17     2    14
  6.1094079631044806E-01 a       995     1    17     2    15
 -3.7255977713206984E-01 a       996     1    17     2    16
  2.4452722836803031E-01 a       997     1    17     2    17
 -6.3495970162007476E-01 a       998     1    17     2    18
 -2.3946087840624058E-01 a       999     1    17     2    19
 -1.7502952676977317E-02 a      1000     1    17     2    20
 -6.4898699718016439E-01 a      1001     1    18     2     1
  2.2680850154738738E-01 a      1002     1    18     2     2
 -7.4915022043291635E-03 a      1003     1    18     2     3
  2.8072554830416363E-01 a      1004     1    18     2     4
 -1.0832157787676440E-01 a      1005     1    18     2     5
 -3.6532617270656076E-01 a      1006     1    18     2     6
  3.1120069965603220E-01 a      1007     1    18     2     7
  2.2748990130541075E-01 a      1008     1    18     2     8
  3.4075990789512567E-01 a      1009     1    18     2     9
  4.1705571495178345E-01 a      1010     1    18     2    10
  1.0696249616998653E-02 a      1011     1    18     2    11
  1.8528232010951909E-01 a      1012     1    18     2    12
  2.1001450930140045E-01 a      1013     1    18     2    13
  1.6509949245153810E-01 a      1014     1    18     2    14
 -3.6035427016847543E-01 a      1015     1    18     2    15
  3.2707710939688689E-02 a      1016     1    18     2    16
  6.1154396351372287E-01 a      1017     1    18     2    17
  3.3762937989179126E-01 a      1018     1    18     2    18
  1.4544851143085140E-02 a      1019     1    18     2    19
 -1.1164949811119722E-01 a      1020     1    18     2    20
 -9.0252023584304637E-03 a      1021     1    19     2     1
  1.2832533411781127E-01 a      1022     1    19     2     2
  1.8455853810978490E-01 a      1023     1    19     2     3
 -4.5788114822989662E-01 a      1024     1    19     2     4
 -2.0686880913924269E-01 a      1025     1    19     2     5
 -2.7273357861794717E-01 a      1026     1    19     2     6
 -2.6574629742862305E-01 a      1027     1    19     2     7
  6.4210041581054984E-03 a      1028     1    19     2     8
 -5.3130762684052452E-02 a      1029     1    19     2     9
 -3.4227013465120881E-01 a      1030     1    19     2    10
 -2.1028984354284858E-01 a      1031     1    19     2    11
 -4.2427453958142980E-01 a      1032     1    19     2    12
 -4.3425229874346866E-01 a      1033     1    19     2    13
  2.8105594983325444E-01 a      1034     1    19     2    14
 -1.1359779357735976E-01 a      1035     1    19     2    15
 -3.9623105308146500E-01 a      1036     1    19     2    16
 -2.4299130848261799E-01 a      1037     1    19     2    17
  5.1204771574794417E-01 a      1038     1    19     2    18
 -2.4406667828736248E-01 a      1039     1    19     2    19
  4.5892482829528414E-01 a      1040     1    19     2    20
 -2.9159894289903204E-01 a      1041     1    20     2     1
 -4.3162442064678741E-01 a      1042     1    20     2     2
 -4.4127225584027520E-02 a      1043     1    20     2     3
  5.8034330234462680E-02 a      1044     1    20     2     4
 -3.8632584646015544E-01 a      1045     1    20     2     5
 -5.8354113983713496E-01 a      1046     1    20     2     6
  5.0019602176062439E-01 a      1047     1    20     2     7
  7.2284062051733405E-02 a      1048     1    20     2     8
 -5.6260611700018903E-01 a      1049     1    20     2     9
 -4.2287905884882387E-01 a      1050     1    20     2    10
 -1.3794826419814107E-01 a      1051     1    20     2    11
 -5.8468902844091464E-01 a      1052     1    20     2    12
  2.4437345342100647E-01 a      1053     1    20     2    13
 -6.2449021793429826E-01 a      1054     1    20     2    14
  1.2106151832410070E-01 a      1055     1    20     2    15
  3.8921699987948594E-01 a      1056     1    20     2    16
  2.5272131634845396E-01 a      1057     1    20     2    17
  7.2467290276503893E-02 a      1058     1    20     2    18
  6.7994841744568901E-01 a      1059     1    20     2    19
 -1.2090140348215030E-01 a      1060     1    20     2    20
  1.2203352482125194E+00 b      1061     2     1
 -1.0328258364329355E+00 b      1062     2     2
 -1.4733204651988704E-01 b      1063     2     3
 -1.2664084469061077E+00 b      1064     2     4
  1.0877171854133330E+00 b      1065     2     5
 -1.3951459442829341E+00 b      1066     2     6
  1.0395377537084582E+00 b      1067     2     7
 -1.5654053857163241E+00 b      1068     2     8
 -2.6003332309234573E-01 b      1069     2     9
  1.7906476019848745E-02 b      1070     2    10
  8.6848213159880094E-01 b      1071     2    11
 -1.5427012801428064E+00 b      1072     2    12
 -7.7630396093457732E-01 b      1073     2    13
 -9.0476512026503386E-01 b      1074     2    14
  5.0443554081682274E-01 b      1075     2    15
 -1.5961710484276510E+00 b      1076     2    16
  6.6316406896002789E-01 b      1077     2    17
  5.9405536327359509E-01 b      1078     2    18
  1.2413339580552161E+00 b      1079     2    19
 -9.1932053643953279E-02 b      1080     2    20
  6.5906208504230387E-02 a      1081     2     1     3     1
 -4.8700242118777054E-01 a      1082     2     2     3     1
 -3.7331951225459764E-02 a      1083     2     3     3     1
  6.7059999602782960E-01 a      1084     2     4     3     1
  5.4512399841539183E-01 a      1085     2     5     3     1
 -8.2084123742882897E-01 a      1086     2     6     3     1
 -7.6786631569388183E-02 a      1087     2     7     3     1
  4.2652262771520250E-01 a      1088     2     8     3     1
  7.5308543378628456E-01 a      1089     2     9     3     1
  1.1587177061796343E+00 a      1090     2    10     3     1
 -2.5403029446310638E-01 a      1091     2    11     3     1
  5.3520788846951539E-01 a      1092     2    12     3     1
  1.0880832952747295E+00 a      1093     2    13     3     1
 -8.2569618087619023E-01 a      1094     2    14     3     1
 -6.8947538178492684E-01 a      1095     2    15     3     1
  1.2644428875719360E-01 a      1096     2    16     3     1
 -1.3174865423501729E+00 a      1097     2    17     3     1
  7.9887578426193928E-01 a      1098     2    18     3     1
  2.5818611652745765E-01 a      1099     2    19     3     1
 -4.9219580304728727E-01 a      1100     2    20     3     1
  2.3235773745601734E-01 b      1101     3     1
