################################################################################
# Neural network connection values (weights and biases).
################################################################################
# Col  Name       Description
################################################################################
# 1    connection Neural network connection value.
# 2    t          Connection type (a = weight, b = bias).
# 3    index      Index enumerating weights.
# 4    l_s        Starting point layer (end point layer for biases).
# 5    n_s        Starting point neuron in starting layer (end point neuron for biases).
# 6    l_e        End point layer.
# 7    n_e        End point neuron in end layer.
################################################################################
#                      1 2         3     4     5     6     7
#             connection t     index   l_s   n_s   l_e   n_e
############################################################
  2.7538264446607030E-01 a         1     0     1     1     1
 -2.1382851995586466E-01 a         2     0     1     1     2
 -2.2870283435438177E-01 a         3     0     1     1     3
  1.6884903554043934E-01 a         4     0     1     1     4
 -2.4158405112021546E-02 a         5     0     1     1     5
 -1.3435557314525728E-01 a         6     0     1     1     6
 -4.0383491523226123E-02 a         7     0     1     1     7
 -3.0416162277314701E-01 a         8     0     1     1     8
  1.4493427828464006E-01 a         9     0     1     1     9
  1.2970411375904448E-01 a        10     0     1     1    10
  1.2566921117840815E-01 a        11     0     1     1    11
  2.4049162797992865E-02 a        12     0     1     1    12
 -5.8750602021158324E-02 a        13     0     1     1    13
  2.4120076534098567E-01 a        14     0     1     1    14
 -3.6353530574769172E-01 a        15     0     1     1    15
 -3.3571557575264410E-01 a        16     0     1     1    16
 -4.1000395232582620E-01 a        17     0     1     1    17
 -2.4515952528068802E-01 a        18     0     1     1    18
 -3.7358966507444183E-04 a        19     0     1     1    19
 -2.4114154189964224E-01 a        20     0     1     1    20
  9.2903178008765241E-02 a        21     0     2     1     1
 -1.0669760258050431E-01 a        22     0     2     1     2
 -1.5992082734485955E-01 a        23     0     2     1     3
  3.4624235072134120E-03 a        24     0     2     1     4
  6.5222013178192095E-01 a        25     0     2     1     5
 -2.5496726305282302E-01 a        26     0     2     1     6
  1.7772541428825261E-01 a        27     0     2     1     7
  4.0249481038224016E-01 a        28     0     2     1     8
  3.8787071639035958E-01 a        29     0     2     1     9
 -1.3108518691191076E-01 a        30     0     2     1    10
  1.9926809034862455E-01 a        31     0     2     1    11
 -1.3969801768559245E-01 a        32     0     2     1    12
 -3.2391028119086657E-01 a        33     0     2     1    13
  1.9078569604528120E-01 a        34     0     2     1    14
  6.1343917957649624E-02 a        35     0     2     1    15
  5.3128475280594771E-02 a        36     0     2     1    16
 -3.5718072750657602E-02 a        37     0     2     1    17
  3.3360546707569910E-01 a        38     0     2     1    18
 -7.7931621620292574E-02 a        39     0     2     1    19
 -5.1032334789513556E-01 a        40     0     2     1    20
 -3.0913481883493443E-01 a        41     0     3     1     1
  1.1070453529118249E-01 a        42     0     3     1     2
  1.8153453403392619E-01 a        43     0     3     1     3
  1.5196089784721553E-01 a        44     0     3     1     4
  1.3926136415506971E-01 a        45     0     3     1     5
 -1.7314297836876519E-01 a        46     0     3     1     6
 -3.8623924527812388E-02 a        47     0     3     1     7
 -3.7072424874242982E-01 a        48     0     3     1     8
 -6.6305735780655239E-02 a        49     0     3     1     9
 -4.5770192836932172E-01 a        50     0     3     1    10
 -2.6826972154368328E-01 a        51     0     3     1    11
 -3.4786946548078634E-01 a        52     0     3     1    12
  1.2048555896034720E-01 a        53     0     3     1    13
  2.2761224897327417E-01 a        54     0     3     1    14
 -1.1637471735952512E-02 a        55     0     3     1    15
 -4.1601804222807942E-01 a        56     0     3     1    16
  1.6582168201775205E-02 a        57     0     3     1    17
  1.1351825218287112E-01 a        58     0     3     1    18
  1.9385711908377762E-01 a        59     0     3     1    19
 -1.3493604604399773E-01 a        60     0     3     1    20
  5.6209295009589530E-02 a        61     0     4     1     1
  2.0851424063285381E-02 a        62     0     4     1     2
  2.3049592057038501E-01 a        63     0     4     1     3
  2.1492455249678522E-01 a        64     0     4     1     4
 -2.7126006610927889E-01 a        65     0     4     1     5
  1.2617292056038837E-01 a        66     0     4     1     6
 -3.8537373066642028E-01 a        67     0     4     1     7
  2.7483550816177427E-01 a        68     0     4     1     8
 -4.5032067762451916E-01 a        69     0     4     1     9
  3.1316530753505517E-01 a        70     0     4     1    10
 -4.5141027416364216E-01 a        71     0     4     1    11
 -3.5398361553826191E-01 a        72     0     4     1    12
  3.5382283858064345E-01 a        73     0     4     1    13
  2.5084751461667965E-01 a        74     0     4     1    14
  1.2958193936275364E-01 a        75     0     4     1    15
 -1.2069460728608439E-01 a        76     0     4     1    16
 -1.3154283616718007E-01 a        77     0     4     1    17
 -2.9403324408182965E-02 a        78     0     4     1    18
  6.6108127701429903E-02 a        79     0     4     1    19
  5.7846157262844033E-01 a        80     0     4     1    20
  3.6284998851006300E-01 a        81     0     5     1     1
 -2.0016593113429987E-01 a        82     0     5     1     2
 -3.2814972365120565E-01 a        83     0     5     1     3
 -2.2642187611341888E-01 a        84     0     5     1     4
  3.2679093076432741E-01 a        85     0     5     1     5
  4.9766554714178884E-01 a        86     0     5     1     6
  4.3115297040491454E-02 a        87     0     5     1     7
 -9.4141113887999006E-02 a        88     0     5     1     8
  3.9333428053310571E-01 a        89     0     5     1     9
  2.1375280516009801E-02 a        90     0     5     1    10
  1.4914159880972824E-01 a        91     0     5     1    11
  2.0379550902730484E-01 a        92     0     5     1    12
 -2.4506690297066286E-01 a        93     0     5     1    13
 -3.6934183177752856E-02 a        94     0     5     1    14
 -4.6705872000998336E-02 a        95     0     5     1    15
  2.9922977935558492E-01 a        96     0     5     1    16
 -4.0108343362670384E-01 a        97     0     5     1    17
 -2.6041130968739812E-01 a        98     0     5     1    18
 -3.1008899230225506E-01 a        99     0     5     1    19
 -1.1725665452168620E-01 a       100     0     5     1    20
  1.7128831535529285E-01 a       101     0     6     1     1
 -2.5794346357158265E-01 a       102     0     6     1     2
 -4.0017343325576216E-02 a       103     0     6     1     3
  4.3251272874170486E-02 a       104     0     6     1     4
 -3.1787253815845140E-01 a       105     0     6     1     5
  6.2767985041304139E-02 a       106     0     6     1     6
 -6.8553479288952154E-02 a       107     0     6     1     7
 -1.0821967283473646E-01 a       108     0     6     1     8
  4.1183150029477068E-02 a       109     0     6     1     9
 -3.6888679163210358E-01 a       110     0     6     1    10
 -3.9785288579205164E-01 a       111     0     6     1    11
 -1.3828067408033859E-01 a       112     0     6     1    12
 -8.0337801996948288E-02 a       113     0     6     1    13
 -2.0392457296846654E-03 a       114     0     6     1    14
  2.8516132092668295E-01 a       115     0     6     1    15
 -1.5731007813281128E-02 a       116     0     6     1    16
 -3.0853757988118624E-01 a       117     0     6     1    17
 -2.1357355073261641E-01 a       118     0     6     1    18
  3.0259696751211357E-01 a       119     0     6     1    19
 -2.0891492449304405E-01 a       120     0     6     1    20
  2.0027679293779060E-01 a       121     0     7     1     1
 -8.7932943847180214E-02 a       122     0     7     1     2
  1.9485709189612188E-01 a       123     0     7     1     3
 -2.4634388730382931E-02 a       124     0     7     1     4
 -3.7268556206223234E-02 a       125     0     7     1     5
 -2.1875431747705482E-01 a       126     0     7     1     6
 -6.0332653627218943E-02 a       127     0     7     1     7
 -2.4744087095047738E-02 a       128     0     7     1     8
 -2.4723574099912554E-01 a       129     0     7     1     9
  1.3200385516376478E-01 a       130     0     7     1    10
  1.4096341020944933E-01 a       131     0     7     1    11
  2.5432839678327418E-01 a       132     0     7     1    12
  3.5598021341938096E-03 a       133     0     7     1    13
  4.0135324488727853E-01 a       134     0     7     1    14
  2.8194042827401339E-01 a       135     0     7     1    15
  3.1228379269100398E-01 a       136     0     7     1    16
  2.3201707943782823E-01 a       137     0     7     1    17
  3.0186144581585951E-02 a       138     0     7     1    18
 -1.1623904151630225E-01 a       139     0     7     1    19
  1.5938475040327926E-01 a       140     0     7     1    20
 -1.1352421114793221E-01 a       141     0     8     1     1
  1.5753831537214469E-01 a       142     0     8     1     2
  2.3048093493689004E-01 a       143     0     8     1     3
 -1.2766382512235849E-01 a       144     0     8     1     4
  1.8492260478405542E-01 a       145     0     8     1     5
  7.2311022024430169E-02 a       146     0     8     1     6
 -7.5874684989377023E-02 a       147     0     8     1     7
 -3.3789884537173071E-01 a       148     0     8     1     8
  1.6907174990863150E-01 a       149     0     8     1     9
  4.8740933886947563E-01 a       150     0     8     1    10
 -9.7214077507455671E-02 a       151     0     8     1    11
  1.9140140315029333E-01 a       152     0     8     1    12
 -1.4124967188422316E-02 a       153     0     8     1    13
 -1.5034600074736873E-01 a       154     0     8     1    14
  1.2499434986030590E-01 a       155     0     8     1    15
 -3.3547519914926777E-01 a       156     0     8     1    16
  1.4155492535099895E-01 a       157     0     8     1    17
 -1.6432054777227326E-01 a       158     0     8     1    18
 -8.0016368510250901E-02 a       159     0     8     1    19
  5.4488963498214346E-02 a       160     0     8     1    20
  2.5609156665388189E-01 a       161     0     9     1     1
 -3.1000131088039184E-01 a       162     0     9     1     2
 -3.5124354720760631E-01 a       163     0     9     1     3
 -3.0233844774817670E-01 a       164     0     9     1     4
  5.9352475294260777E-02 a       165     0     9     1     5
  3.1462953255430837E-01 a       166     0     9     1     6
 -2.1498705218688613E-01 a       167     0     9     1     7
 -3.6939212322778059E-01 a       168     0     9     1     8
  3.1273292748956150E-01 a       169     0     9     1     9
 -2.3152481663224977E-01 a       170     0     9     1    10
 -1.0134143904379221E-01 a       171     0     9     1    11
  1.6452835515707617E-01 a       172     0     9     1    12
 -1.5207954430564827E-01 a       173     0     9     1    13
  1.0646590417326438E-01 a       174     0     9     1    14
  9.1561583963503113E-02 a       175     0     9     1    15
  2.6071386298517039E-02 a       176     0     9     1    16
 -4.3172374610609232E-01 a       177     0     9     1    17
 -5.7152039500725733E-02 a       178     0     9     1    18
 -1.0963839434215056E-01 a       179     0     9     1    19
 -1.6438743812968296E-01 a       180     0     9     1    20
  1.2634692835861158E-01 a       181     0    10     1     1
 -2.7582383177765046E-01 a       182     0    10     1     2
  2.4436410437396408E-01 a       183     0    10     1     3
 -6.5824712170409513E-02 a       184     0    10     1     4
 -1.5271737727064624E-01 a       185     0    10     1     5
  1.7284604025761630E-01 a       186     0    10     1     6
 -2.2278907787994840E-02 a       187     0    10     1     7
  2.2446766586993550E-01 a       188     0    10     1     8
  3.7138341436527611E-02 a       189     0    10     1     9
  2.3611795917054459E-01 a       190     0    10     1    10
 -4.5740366049101688E-01 a       191     0    10     1    11
  2.4496160134045136E-01 a       192     0    10     1    12
  1.0011253651640065E-01 a       193     0    10     1    13
 -1.4429812526300578E-01 a       194     0    10     1    14
 -4.2296757759350476E-02 a       195     0    10     1    15
 -3.4825394273931093E-01 a       196     0    10     1    16
  1.8171132708848060E-02 a       197     0    10     1    17
 -3.5112850339915909E-02 a       198     0    10     1    18
  3.4158579785872289E-01 a       199     0    10     1    19
  1.1820582923244963E-01 a       200     0    10     1    20
  5.3020395690839731E-02 a       201     0    11     1     1
  2.2855332602501253E-02 a       202     0    11     1     2
  3.8572958093525643E-02 a       203     0    11     1     3
  6.8143349667591779E-02 a       204     0    11     1     4
  9.7628107864309491E-02 a       205     0    11     1     5
 -1.4800631994974428E-01 a       206     0    11     1     6
  2.2163497547985387E-02 a       207     0    11     1     7
 -4.6827417305217868E-02 a       208     0    11     1     8
  3.2122619736042728E-03 a       209     0    11     1     9
 -2.0337067312839208E-01 a       210     0    11     1    10
  2.0656971734976934E-01 a       211     0    11     1    11
  2.0365453468032801E-01 a       212     0    11     1    12
  5.8440094771522968E-02 a       213     0    11     1    13
  1.9052870119669982E-01 a       214     0    11     1    14
 -2.9776305147841053E-01 a       215     0    11     1    15
  3.9537605896838363E-01 a       216     0    11     1    16
  2.7722114231203893E-01 a       217     0    11     1    17
 -2.1288423169898255E-01 a       218     0    11     1    18
 -1.2235555281415966E-01 a       219     0    11     1    19
  5.9843432711386743E-02 a       220     0    11     1    20
 -2.3397161599664990E-01 a       221     0    12     1     1
  3.2834807948786093E-01 a       222     0    12     1     2
  1.1169685336610628E-01 a       223     0    12     1     3
 -3.2915415112902982E-02 a       224     0    12     1     4
  1.6001665483063021E-01 a       225     0    12     1     5
 -5.3637534882059128E-02 a       226     0    12     1     6
  2.5880287524182916E-01 a       227     0    12     1     7
 -2.2478432660359121E-01 a       228     0    12     1     8
 -1.1035961029646423E-01 a       229     0    12     1     9
 -2.1522439687128220E-01 a       230     0    12     1    10
  3.4487413347382756E-01 a       231     0    12     1    11
 -7.5020666289224935E-02 a       232     0    12     1    12
 -1.2378373687843644E-01 a       233     0    12     1    13
  1.8301003748405356E-01 a       234     0    12     1    14
 -1.5713066961253336E-01 a       235     0    12     1    15
  1.0926618181398935E-01 a       236     0    12     1    16
 -2.0482913857586940E-01 a       237     0    12     1    17
  1.6978829005164711E-01 a       238     0    12     1    18
 -1.1055316742649526E-01 a       239     0    12     1    19
 -1.7396924652839221E-02 a       240     0    12     1    20
  1.0516784615747940E-01 a       241     0    13     1     1
 -2.1039682257964790E-01 a       242     0    13     1     2
  2.1208767697779543E-01 a       243     0    13     1     3
 -2.2293340909168974E-01 a       244     0    13     1     4
 -1.0695812082137490E-01 a       245     0    13     1     5
  1.6022772169458682E-01 a       246     0    13     1     6
 -1.8537370909464881E-01 a       247     0    13     1     7
 -1.8786970504382605E-01 a       248     0    13     1     8
 -1.5299011573955559E-01 a       249     0    13     1     9
  2.6728133623609751E-01 a       250     0    13     1    10
 -3.5528390078370810E-02 a       251     0    13     1    11
  1.0854651927176774E-01 a       252     0    13     1    12
 -1.3681738591159456E-01 a       253     0    13     1    13
  5.9687306484957417E-02 a       254     0    13     1    14
  3.8753553033029609E-01 a       255     0    13     1    15
  1.5888853019930974E-01 a       256     0    13     1    16
 -6.9745140638347289E-02 a       257     0    13     1    17
 -2.1800039040334165E-01 a       258     0    13     1    18
 -7.4993773731178548E-02 a       259     0    13     1    19
  1.1424014450749057E-01 a       260     0    13     1    20
  2.0236180503708537E-01 a       261     0    14     1     1
 -2.6684032797370438E-01 a       262     0    14     1     2
  2.3699530296784491E-01 a       263     0    14     1     3
  2.1945707752150315E-01 a       264     0    14     1     4
 -1.9951304091293642E-01 a       265     0    14     1     5
 -9.3776976802912887E-02 a       266     0    14     1     6
 -2.1220168486959212E-01 a       267     0    14     1     7
  1.4948153466399861E-01 a       268     0    14     1     8
 -6.7789728959072607E-02 a       269     0    14     1     9
  1.5973460031966952E-01 a       270     0    14     1    10
 -2.6537950514129593E-01 a       271     0    14     1    11
 -1.2385249927154207E-01 a       272     0    14     1    12
 -4.0046426000987401E-02 a       273     0    14     1    13
  2.9851496356043061E-01 a       274     0    14     1    14
  2.9710947970074503E-01 a       275     0    14     1    15
 -9.4894646237161540E-02 a       276     0    14     1    16
  6.8312397293219987E-02 a       277     0    14     1    17
 -1.2945054346428628E-01 a       278     0    14     1    18
  1.9541543043428236E-01 a       279     0    14     1    19
 -6.2078851508640197E-02 a       280     0    14     1    20
 -1.7806507568350980E-02 a       281     0    15     1     1
 -6.1160929008502188E-02 a       282     0    15     1     2
  3.8435754322533960E-02 a       283     0    15     1     3
 -7.8489589906583085E-02 a       284     0    15     1     4
  4.4999907207073808E-02 a       285     0    15     1     5
  7.7287078916783186E-02 a       286     0    15     1     6
  2.2961421284608541E-02 a       287     0    15     1     7
  6.0155261273499343E-02 a       288     0    15     1     8
  2.6964531883312787E-01 a       289     0    15     1     9
  2.8782941399686252E-01 a       290     0    15     1    10
  3.3345286469662012E-02 a       291     0    15     1    11
  8.0682094002746021E-02 a       292     0    15     1    12
  3.7707557551147526E-02 a       293     0    15     1    13
  1.7481044640950213E-01 a       294     0    15     1    14
 -3.0724390158391152E-01 a       295     0    15     1    15
  4.0854130684916466E-02 a       296     0    15     1    16
 -1.9104736156342983E-01 a       297     0    15     1    17
  1.0679016834350774E-01 a       298     0    15     1    18
  4.4390254608242745E-02 a       299     0    15     1    19
 -1.2950142258935074E-01 a       300     0    15     1    20
  9.4353528134773851E-02 a       301     0    16     1     1
  2.1571113722569735E-01 a       302     0    16     1     2
 -2.9456955593934735E-02 a       303     0    16     1     3
 -1.4316590844193150E-01 a       304     0    16     1     4
  6.6847799590782603E-02 a       305     0    16     1     5
  7.8777575139562114E-02 a       306     0    16     1     6
  1.4405099894685841E-01 a       307     0    16     1     7
  1.8087353413137847E-01 a       308     0    16     1     8
 -1.5011285194187141E-01 a       309     0    16     1     9
 -2.2757170598325452E-01 a       310     0    16     1    10
  3.2969404438790084E-01 a       311     0    16     1    11
 -1.5408483069838436E-02 a       312     0    16     1    12
 -3.6434789747576787E-02 a       313     0    16     1    13
 -2.4104873134611036E-02 a       314     0    16     1    14
  1.5358817977254088E-01 a       315     0    16     1    15
 -2.6687444550400615E-02 a       316     0    16     1    16
  1.6208936408905886E-01 a       317     0    16     1    17
  2.0196216617606363E-01 a       318     0    16     1    18
 -1.3129900139190248E-01 a       319     0    16     1    19
  2.1368907759223579E-01 a       320     0    16     1    20
 -2.7352737317342307E-01 a       321     0    17     1     1
  8.6617351856030186E-02 a       322     0    17     1     2
  2.1754593163779629E-01 a       323     0    17     1     3
  1.8911139857438949E-01 a       324     0    17     1     4
 -5.1502196999415127E-02 a       325     0    17     1     5
 -1.5507896449441005E-01 a       326     0    17     1     6
  4.8267201695936554E-02 a       327     0    17     1     7
  4.7554111808181219E-03 a       328     0    17     1     8
 -2.6300784519851989E-01 a       329     0    17     1     9
 -1.7904814678503167E-01 a       330     0    17     1    10
 -2.6477379062063938E-01 a       331     0    17     1    11
 -2.5041475073552491E-02 a       332     0    17     1    12
  6.3343369239791697E-02 a       333     0    17     1    13
 -2.6650484384378359E-01 a       334     0    17     1    14
 -1.2359300861167090E-01 a       335     0    17     1    15
  4.4953416392279288E-01 a       336     0    17     1    16
  1.5344435796487488E-01 a       337     0    17     1    17
  2.7525913201320661E-02 a       338     0    17     1    18
  5.6078453365735831E-02 a       339     0    17     1    19
 -7.7298146207162660E-02 a       340     0    17     1    20
 -8.0955943707857345E-02 a       341     0    18     1     1
  8.4450415543211380E-02 a       342     0    18     1     2
  2.4987627831460910E-01 a       343     0    18     1     3
  1.5494225653734281E-01 a       344     0    18     1     4
 -1.0901681608021302E-01 a       345     0    18     1     5
  3.0321890375742512E-03 a       346     0    18     1     6
  4.1160018972272745E-03 a       347     0    18     1     7
  1.3692760255477823E-01 a       348     0    18     1     8
 -9.4352327199939662E-02 a       349     0    18     1     9
  1.4648693324223824E-01 a       350     0    18     1    10
 -1.4531907152834344E-02 a       351     0    18     1    11
 -2.4484068736023021E-01 a       352     0    18     1    12
 -7.3158932110222799E-02 a       353     0    18     1    13
  1.2984952717990501E-02 a       354     0    18     1    14
  2.4851024004983205E-01 a       355     0    18     1    15
  3.0775119622601660E-01 a       356     0    18     1    16
  1.1482275664307566E-01 a       357     0    18     1    17
 -1.7634202673492420E-02 a       358     0    18     1    18
  8.6761166168549175E-02 a       359     0    18     1    19
  2.1550472979588026E-02 a       360     0    18     1    20
  1.4212619947084931E-01 a       361     0    19     1     1
 -1.5242724624121629E-02 a       362     0    19     1     2
  2.0391594237163960E-01 a       363     0    19     1     3
  6.8005301742522228E-02 a       364     0    19     1     4
  8.3317162103308973E-02 a       365     0    19     1     5
 -1.4548475736616238E-02 a       366     0    19     1     6
 -1.4309499753295152E-01 a       367     0    19     1     7
 -5.4454922791220224E-02 a       368     0    19     1     8
 -1.4092897795503734E-01 a       369     0    19     1     9
 -5.7197839589660633E-02 a       370     0    19     1    10
  2.8124140455903647E-02 a       371     0    19     1    11
 -3.6766032133725660E-02 a       372     0    19     1    12
  8.3692797896233434E-02 a       373     0    19     1    13
 -9.2611863371255092E-03 a       374     0    19     1    14
  2.4686054514381803E-01 a       375     0    19     1    15
 -4.0600781951500697E-01 a       376     0    19     1    16
 -3.9938037216240424E-02 a       377     0    19     1    17
 -3.3524320624922593E-01 a       378     0    19     1    18
 -1.4159030328088851E-02 a       379     0    19     1    19
 -4.6984786102160676E-02 a       380     0    19     1    20
 -1.5551622551082883E-01 a       381     0    20     1     1
 -2.8454048518741618E-02 a       382     0    20     1     2
 -5.3375282030030780E-02 a       383     0    20     1     3
 -5.4674915401784971E-02 a       384     0    20     1     4
  6.1208145889220140E-02 a       385     0    20     1     5
 -4.1812476603882848E-02 a       386     0    20     1     6
  6.5924206285762565E-02 a       387     0    20     1     7
 -3.1981081608622591E-02 a       388     0    20     1     8
 -8.0429050331045415E-02 a       389     0    20     1     9
 -3.6499976726009842E-01 a       390     0    20     1    10
 -1.2049444137262910E-01 a       391     0    20     1    11
  1.8104938587400063E-01 a       392     0    20     1    12
  1.3905184414204371E-02 a       393     0    20     1    13
  1.1578374646752733E-01 a       394     0    20     1    14
 -2.7470009057374848E-02 a       395     0    20     1    15
  1.3691852412514888E-02 a       396     0    20     1    16
  8.1096726152293241E-02 a       397     0    20     1    17
 -2.6387629210136938E-02 a       398     0    20     1    18
 -3.3890218006870532E-02 a       399     0    20     1    19
  4.3606923216927699E-03 a       400     0    20     1    20
  4.0606272898063581E-02 a       401     0    21     1     1
  1.5346744485252325E-01 a       402     0    21     1     2
 -1.8972621064588319E-01 a       403     0    21     1     3
 -3.9914314096283231E-02 a       404     0    21     1     4
 -6.3895414136408923E-02 a       405     0    21     1     5
 -1.2209319683974566E-01 a       406     0    21     1     6
 -2.5038886723045406E-01 a       407     0    21     1     7
 -1.1846136565414779E-01 a       408     0    21     1     8
 -1.7094884992325761E-02 a       409     0    21     1     9
 -1.4690636856380282E-01 a       410     0    21     1    10
  5.9412396266545958E-02 a       411     0    21     1    11
 -2.8767678018346765E-01 a       412     0    21     1    12
 -3.7959838610129679E-02 a       413     0    21     1    13
  3.5611324654514387E-01 a       414     0    21     1    14
  1.2901660007776164E-01 a       415     0    21     1    15
 -1.3154297741360496E-01 a       416     0    21     1    16
  1.1821362571588561E-02 a       417     0    21     1    17
 -1.2297720633606658E-01 a       418     0    21     1    18
  1.1187181090396738E-01 a       419     0    21     1    19
 -2.8020616864282000E-01 a       420     0    21     1    20
  1.4816439311404715E-02 a       421     0    22     1     1
 -2.3799794342055566E-01 a       422     0    22     1     2
 -2.5878929008885876E-01 a       423     0    22     1     3
  3.9613486992458774E-01 a       424     0    22     1     4
 -3.2425512948942675E-01 a       425     0    22     1     5
 -1.8232675005750096E-01 a       426     0    22     1     6
 -1.4780028421656982E-01 a       427     0    22     1     7
  2.1847259039645604E-02 a       428     0    22     1     8
  2.6759783390833347E-01 a       429     0    22     1     9
 -6.5061234841800902E-02 a       430     0    22     1    10
  6.1296545810292306E-02 a       431     0    22     1    11
 -1.8915983559757052E-01 a       432     0    22     1    12
 -1.2484901994254599E-01 a       433     0    22     1    13
  2.1751323503558273E-01 a       434     0    22     1    14
 -1.8105884511650039E-01 a       435     0    22     1    15
  3.1641943767778952E-01 a       436     0    22     1    16
 -2.8590261163242875E-01 a       437     0    22     1    17
 -2.2751133907853113E-01 a       438     0    22     1    18
  5.7426640872401943E-02 a       439     0    22     1    19
 -3.9113229409114027E-02 a       440     0    22     1    20
 -4.7556398257213200E-01 a       441     0    23     1     1
 -1.4068560862859590E-02 a       442     0    23     1     2
 -2.4588026838151852E-01 a       443     0    23     1     3
 -8.8414877876237627E-02 a       444     0    23     1     4
  3.6108495288434100E-01 a       445     0    23     1     5
 -1.8562745234935635E-02 a       446     0    23     1     6
  2.6351797185639569E-01 a       447     0    23     1     7
  7.9525473940792180E-02 a       448     0    23     1     8
  2.5723797739261889E-01 a       449     0    23     1     9
 -5.1306440384188773E-02 a       450     0    23     1    10
 -8.2158204128328124E-02 a       451     0    23     1    11
  1.6550312522110500E-01 a       452     0    23     1    12
  2.7949734659456232E-01 a       453     0    23     1    13
 -1.6597610162407372E-01 a       454     0    23     1    14
 -3.6393916769491186E-01 a       455     0    23     1    15
 -9.9882397125438588E-02 a       456     0    23     1    16
 -1.7907858129098664E-01 a       457     0    23     1    17
 -2.8092162124364312E-01 a       458     0    23     1    18
 -1.2003943567145685E-01 a       459     0    23     1    19
 -2.4983065270415142E-01 a       460     0    23     1    20
 -3.1758251679320698E-02 a       461     0    24     1     1
 -1.8189144687203282E-01 a       462     0    24     1     2
  2.5654388916150089E-01 a       463     0    24     1     3
  6.0841688920866895E-02 a       464     0    24     1     4
 -1.1265616921562002E-01 a       465     0    24     1     5
  4.8231087878542016E-02 a       466     0    24     1     6
  6.8768538657158859E-02 a       467     0    24     1     7
 -7.8721192466139941E-02 a       468     0    24     1     8
 -1.8914669539863788E-01 a       469     0    24     1     9
  3.2939967239935447E-01 a       470     0    24     1    10
  8.4723833724091480E-02 a       471     0    24     1    11
  2.3171763174065338E-01 a       472     0    24     1    12
  1.2120673114143203E-01 a       473     0    24     1    13
 -1.6215790278541484E-01 a       474     0    24     1    14
  4.3957426121587795E-01 a       475     0    24     1    15
  3.3784764591742095E-01 a       476     0    24     1    16
  4.5765068116664104E-01 a       477     0    24     1    17
 -1.6132614463697392E-01 a       478     0    24     1    18
 -2.4099888444563150E-01 a       479     0    24     1    19
  1.4074849284391136E-01 a       480     0    24     1    20
 -1.0108245020542592E-01 a       481     0    25     1     1
 -1.0031136128210827E-01 a       482     0    25     1     2
 -2.4590055345943462E-01 a       483     0    25     1     3
 -2.1389778237489054E-01 a       484     0    25     1     4
 -1.1488327516466025E-01 a       485     0    25     1     5
 -2.1127145381668547E-01 a       486     0    25     1     6
 -1.4493869096694903E-01 a       487     0    25     1     7
  1.7195389893273685E-01 a       488     0    25     1     8
 -2.1055432133194404E-01 a       489     0    25     1     9
  4.2115467006718657E-02 a       490     0    25     1    10
 -5.0682062658256732E-01 a       491     0    25     1    11
  2.5862630526856750E-01 a       492     0    25     1    12
  1.0108433364537543E-01 a       493     0    25     1    13
 -3.6304283269778043E-01 a       494     0    25     1    14
  2.3998723449201367E-01 a       495     0    25     1    15
  1.4593454691262264E-01 a       496     0    25     1    16
 -1.2289095626734925E-01 a       497     0    25     1    17
  1.9159429853390963E-01 a       498     0    25     1    18
  3.6881548987620366E-01 a       499     0    25     1    19
  3.5323106009536165E-01 a       500     0    25     1    20
  1.9789949245224039E-01 a       501     0    26     1     1
 -5.4497129059631701E-02 a       502     0    26     1     2
  3.8149897267338828E-01 a       503     0    26     1     3
  1.2931517549778844E-02 a       504     0    26     1     4
  7.8563651253113709E-02 a       505     0    26     1     5
  7.3697835134160686E-02 a       506     0    26     1     6
 -2.2411546244584207E-01 a       507     0    26     1     7
  2.0990434715151243E-02 a       508     0    26     1     8
 -2.3256157945894776E-01 a       509     0    26     1     9
 -2.3115745522445175E-01 a       510     0    26     1    10
  1.9214976298949052E-01 a       511     0    26     1    11
 -6.3116134349962286E-02 a       512     0    26     1    12
 -2.2560285582512336E-03 a       513     0    26     1    13
  2.3330373811606700E-01 a       514     0    26     1    14
  1.0099400617074281E-01 a       515     0    26     1    15
  1.1675204296224252E-01 a       516     0    26     1    16
 -1.6876874389535404E-01 a       517     0    26     1    17
 -2.0708874228925386E-01 a       518     0    26     1    18
 -1.9288145260321102E-01 a       519     0    26     1    19
 -3.4864937027618825E-01 a       520     0    26     1    20
  1.7675254905704094E-01 a       521     0    27     1     1
  2.4300881191974644E-01 a       522     0    27     1     2
 -1.3421432443197612E-01 a       523     0    27     1     3
  1.3432281914872571E-02 a       524     0    27     1     4
 -1.5659000052985131E-01 a       525     0    27     1     5
 -4.5346959908187615E-02 a       526     0    27     1     6
  1.0124543743379308E-01 a       527     0    27     1     7
  2.4017092159474104E-01 a       528     0    27     1     8
 -1.0535741551448695E-01 a       529     0    27     1     9
 -2.9751369895122426E-01 a       530     0    27     1    10
  3.2237796877332936E-01 a       531     0    27     1    11
  6.2012875713115811E-02 a       532     0    27     1    12
  2.0262894697777204E-02 a       533     0    27     1    13
 -4.6857695014906886E-01 a       534     0    27     1    14
 -2.4767599632695894E-01 a       535     0    27     1    15
  1.7367067753031537E-01 a       536     0    27     1    16
  4.1135977057231254E-01 a       537     0    27     1    17
  2.6734802171507821E-01 a       538     0    27     1    18
 -7.4419076794125974E-02 a       539     0    27     1    19
  1.2904638252013670E-01 a       540     0    27     1    20
  3.3232387487896459E-01 a       541     0    28     1     1
 -2.0247055094006675E-01 a       542     0    28     1     2
  3.6146048729346802E-01 a       543     0    28     1     3
 -3.9812415915067401E-01 a       544     0    28     1     4
  3.2858444246274121E-01 a       545     0    28     1     5
  2.6609392632927853E-01 a       546     0    28     1     6
 -2.5960847084434124E-01 a       547     0    28     1     7
 -1.0677921130310207E-01 a       548     0    28     1     8
  8.0482477932715416E-02 a       549     0    28     1     9
 -1.0624970105961375E-01 a       550     0    28     1    10
  1.7258285760381137E-01 a       551     0    28     1    11
  4.1970310662082444E-01 a       552     0    28     1    12
  1.2632063657626394E-01 a       553     0    28     1    13
 -1.4020485962511689E-01 a       554     0    28     1    14
  1.9139548321962374E-01 a       555     0    28     1    15
 -3.3853343358243049E-01 a       556     0    28     1    16
 -4.3944460259125163E-02 a       557     0    28     1    17
 -3.6969883348592020E-01 a       558     0    28     1    18
 -1.2275513906353715E-01 a       559     0    28     1    19
  2.3545924323271353E-01 a       560     0    28     1    20
 -1.3954065174091038E-01 a       561     0    29     1     1
  3.4435363618798148E-01 a       562     0    29     1     2
 -2.5999039916401884E-01 a       563     0    29     1     3
  8.7049196424001316E-02 a       564     0    29     1     4
 -1.2416784048137720E-01 a       565     0    29     1     5
 -1.6562444348597175E-01 a       566     0    29     1     6
  2.5925327982438123E-01 a       567     0    29     1     7
 -3.3398058405388853E-01 a       568     0    29     1     8
  3.5100471336699982E-02 a       569     0    29     1     9
 -4.1059034523340254E-01 a       570     0    29     1    10
  1.1850209422919521E-01 a       571     0    29     1    11
  3.9085835112068208E-02 a       572     0    29     1    12
 -3.3964467992228470E-01 a       573     0    29     1    13
  1.9533980700028525E-01 a       574     0    29     1    14
 -2.7964538086650670E-01 a       575     0    29     1    15
 -2.2730677071888547E-01 a       576     0    29     1    16
  1.3911502256298067E-01 a       577     0    29     1    17
  3.0793966640804110E-01 a       578     0    29     1    18
 -3.6033694617109237E-02 a       579     0    29     1    19
 -1.5803279065191678E-01 a       580     0    29     1    20
  2.8151574749119190E-01 a       581     0    30     1     1
 -2.1572860103316968E-01 a       582     0    30     1     2
  2.6730412210538984E-01 a       583     0    30     1     3
  2.1396785565431672E-01 a       584     0    30     1     4
  1.3541430205233093E-01 a       585     0    30     1     5
 -2.7524629172678194E-01 a       586     0    30     1     6
 -1.2944453942283898E-01 a       587     0    30     1     7
 -9.3054693899583360E-02 a       588     0    30     1     8
 -1.3574450137926600E-01 a       589     0    30     1     9
  1.7329470887625517E-01 a       590     0    30     1    10
  2.3745511052780152E-02 a       591     0    30     1    11
 -1.3432123874585455E-01 a       592     0    30     1    12
  1.2500668654052641E-01 a       593     0    30     1    13
  2.9720645600387297E-01 a       594     0    30     1    14
 -2.7317182408330259E-01 a       595     0    30     1    15
  2.6361107450193922E-02 a       596     0    30     1    16
 -3.8029418616412242E-01 a       597     0    30     1    17
  2.7576584642820728E-01 a       598     0    30     1    18
  2.5111712773808004E-01 a       599     0    30     1    19
 -3.3941444802436438E-01 a       600     0    30     1    20
 -2.4172375447685651E-01 a       601     0    31     1     1
 -2.0661540142992296E-01 a       602     0    31     1     2
 -3.9886826562956745E-01 a       603     0    31     1     3
 -1.1154388284958651E-01 a       604     0    31     1     4
 -3.6768771407399575E-01 a       605     0    31     1     5
  1.2054924450910284E-01 a       606     0    31     1     6
  3.2977221780286298E-01 a       607     0    31     1     7
 -1.2766457790008456E-01 a       608     0    31     1     8
  2.7624250343326839E-01 a       609     0    31     1     9
  5.9732331308581202E-02 a       610     0    31     1    10
  1.9347168871682344E-01 a       611     0    31     1    11
  8.3695726599416015E-02 a       612     0    31     1    12
  5.4970430598187285E-02 a       613     0    31     1    13
  1.2336000065386482E-01 a       614     0    31     1    14
 -2.0077053358421917E-01 a       615     0    31     1    15
 -3.1114017697239588E-01 a       616     0    31     1    16
 -2.6400076853168841E-01 a       617     0    31     1    17
  3.2828182730691485E-01 a       618     0    31     1    18
 -2.5991211802798109E-01 a       619     0    31     1    19
 -1.2029466845347590E-01 a       620     0    31     1    20
 -3.1253893016819845E-01 a       621     0    32     1     1
  2.5280169821988702E-01 a       622     0    32     1     2
 -2.3766974445569661E-01 a       623     0    32     1     3
  3.4685372190168923E-01 a       624     0    32     1     4
  3.6760452754684616E-03 a       625     0    32     1     5
 -2.2352062397831515E-01 a       626     0    32     1     6
  3.9485689209900324E-02 a       627     0    32     1     7
  9.0710232872150715E-02 a       628     0    32     1     8
  9.3468379387911874E-02 a       629     0    32     1     9
 -8.5270959072544478E-02 a       630     0    32     1    10
 -3.0418390445027166E-01 a       631     0    32     1    11
 -3.9897422590983322E-01 a       632     0    32     1    12
 -1.1146453451006900E-01 a       633     0    32     1    13
  7.4426467795105644E-02 a       634     0    32     1    14
 -2.6022299184808051E-01 a       635     0    32     1    15
 -1.8989951417753934E-02 a       636     0    32     1    16
  1.6178734345876983E-01 a       637     0    32     1    17
 -3.4173842303856145E-01 a       638     0    32     1    18
  2.1265362459985154E-01 a       639     0    32     1    19
  2.1700656149323830E-02 a       640     0    32     1    20
 -3.4071940777098919E-01 b       641     1     1
  1.1719292406795929E+00 b       642     1     2
 -1.0549335841793894E+00 b       643     1     3
  5.3335738508046526E-01 b       644     1     4
 -1.4918103417524855E+00 b       645     1     5
 -1.0628826920052590E+00 b       646     1     6
  3.0726195799123573E-01 b       647     1     7
 -1.4918339270102419E+00 b       648     1     8
  5.0330626029236303E-01 b       649     1     9
  6.8714252236783324E-01 b       650     1    10
  5.9450921572915549E-01 b       651     1    11
 -2.5123492574787132E-01 b       652     1    12
  1.5180374545322630E+00 b       653     1    13
 -9.9282739620082217E-01 b       654     1    14
  1.5518747399586623E+00 b       655     1    15
  1.2783941294631691E+00 b       656     1    16
  1.0292768391133817E+00 b       657     1    17
  9.4395542759992301E-01 b       658     1    18
 -1.5481040383683660E+00 b       659     1    19
 -1.9378011788275054E-01 b       660     1    20
  1.7601750432439714E-01 a       661     1     1     2     1
  7.6182808239605104E-02 a       662     1     1     2     2
 -5.6237750263886177E-01 a       663     1     1     2     3
 -9.4381869663995130E-02 a       664     1     1     2     4
  3.3468390279167559E-01 a       665     1     1     2     5
  3.4935080758700510E-01 a       666     1     1     2     6
  1.6399129382362931E-01 a       667     1     1     2     7
 -2.3103585566683582E-01 a       668     1     1     2     8
  3.4864145075546155E-01 a       669     1     1     2     9
  1.9675978368950175E-01 a       670     1     1     2    10
  6.7065268611988216E-01 a       671     1     1     2    11
  1.5367507534801753E-01 a       672     1     1     2    12
  7.3520475278806063E-02 a       673     1     1     2    13
  2.5620296785029106E-01 a       674     1     1     2    14
 -1.3786396135341850E-01 a       675     1     1     2    15
  2.5329898992800381E-01 a       676     1     1     2    16
 -1.2124955544978927E-01 a       677     1     1     2    17
  1.9067852462504842E-01 a       678     1     1     2    18
  6.5190378366109858E-02 a       679     1     1     2    19
  6.0189747866978049E-01 a       680     1     1     2    20
  1.8402752145309428E-01 a       681     1     2     2     1
  6.1345073613573928E-02 a       682     1     2     2     2
  3.7459764875586660E-01 a       683     1     2     2     3
  5.2897703114114381E-01 a       684     1     2     2     4
 -5.1747377822795615E-01 a       685     1     2     2     5
  2.4228529148851005E-01 a       686     1     2     2     6
 -2.0276459451863604E-01 a       687     1     2     2     7
 -3.1186816017715213E-01 a       688     1     2     2     8
 -5.1793952012569311E-01 a       689     1     2     2     9
 -4.3014285932565272E-01 a       690     1     2     2    10
  9.3117920311298341E-01 a       691     1     2     2    11
  2.8686371153940866E-02 a       692     1     2     2    12
 -2.7554733979391061E-01 a       693     1     2     2    13
 -4.5097942285242881E-01 a       694     1     2     2    14
  4.9124815906345914E-01 a       695     1     2     2    15
  4.4418260855334618E-01 a       696     1     2     2    16
 -5.4277228903495445E-01 a       697     1     2     2    17
  3.3187071032797733E-01 a       698     1     2     2    18
  5.1876923940898967E-01 a       699     1     2     2    19
  2.0779377580500397E-01 a       700     1     2     2    20
 -4.6254213198299442E-02 a       701     1     3     2     1
 -8.6082592640913211E-02 a       702     1     3     2     2
 -6.8446520436726321E-01 a       703     1     3     2     3
 -2.7930503554197617E-01 a       704     1     3     2     4
 -1.1465106453771179E-01 a       705     1     3     2     5
 -5.3137635217066499E-02 a       706     1     3     2     6
 -1.3713104867246501E-01 a       707     1     3     2     7
 -8.3979098181871770E-02 a       708     1     3     2     8
  9.5293308025102025E-02 a       709     1     3     2     9
 -2.2136269735034467E-01 a       710     1     3     2    10
 -4.2639940937416042E-02 a       711     1     3     2    11
 -3.9192812276713740E-01 a       712     1     3     2    12
 -1.8006104000866455E-02 a       713     1     3     2    13
  2.9752192325978372E-01 a       714     1     3     2    14
  2.3442979493625463E-01 a       715     1     3     2    15
 -2.3988530895774790E-01 a       716     1     3     2    16
  1.5563394740033534E-01 a       717     1     3     2    17
 -4.2915505066563631E-01 a       718     1     3     2    18
 -9.9869000598894919E-02 a       719     1     3     2    19
  5.7547084956363914E-01 a       720     1     3     2    20
 -4.4595615734266625E-01 a       721     1     4     2     1
  5.6654664846748992E-01 a       722     1     4     2     2
 -1.1127637888935468E-01 a       723     1     4     2     3
 -4.3036309719488264E-01 a       724     1     4     2     4
  4.4946614525823664E-01 a       725     1     4     2     5
 -3.8801475246602574E-01 a       726     1     4     2     6
 -3.8188128666126858E-01 a       727     1     4     2     7
  3.8080179270442999E-01 a       728     1     4     2     8
 -9.6724901951280265E-02 a       729     1     4     2     9
 -4.3698149126377794E-01 a       730     1     4     2    10
 -4.0341505710931091E-02 a       731     1     4     2    11
 -4.4421575285348536E-01 a       732     1     4     2    12
 -3.0362007706049760E-02 a       733     1     4     2    13
  1.2048901254982472E-01 a       734     1     4     2    14
  5.1747505004698970E-02 a       735     1     4     2    15
  3.2633731364835987E-02 a       736     1     4     2    16
 -2.0519003534893235E-01 a       737     1     4     2    17
  3.6109945284850337E-01 a       738     1     4     2    18
  2.5356357281030611E-01 a       739     1     4     2    19
  2.5928336865604258E-02 a       740     1     4     2    20
  4.4942227315492139E-01 a       741     1     5     2     1
  1.2655982056776377E-01 a       742     1     5     2     2
 -6.2549059363073728E-02 a       743     1     5     2     3
  3.8411100218551625E-01 a       744     1     5     2     4
  5.5955864818073320E-01 a       745     1     5     2     5
  3.4239178950727506E-01 a       746     1     5     2     6
  1.4239124578768437E-02 a       747     1     5     2     7
 -2.2535485642588973E-01 a       748     1     5     2     8
  2.1422060298484807E-01 a       749     1     5     2     9
  4.2729741104098544E-02 a       750     1     5     2    10
  1.4582562085302225E-01 a       751     1     5     2    11
  2.7125326453106297E-01 a       752     1     5     2    12
  4.7025042951290036E-01 a       753     1     5     2    13
 -3.1920347091958184E-01 a       754     1     5     2    14
  1.6007889258784186E-01 a       755     1     5     2    15
  3.6124140980975755E-01 a       756     1     5     2    16
 -4.9382284400319459E-01 a       757     1     5     2    17
 -1.4263488775190123E-02 a       758     1     5     2    18
 -6.9257752034753006E-01 a       759     1     5     2    19
 -9.5874629663628169E-02 a       760     1     5     2    20
  2.1855399039347739E-01 a       761     1     6     2     1
 -9.7559283468157135E-02 a       762     1     6     2     2
 -4.2980689194339623E-02 a       763     1     6     2     3
 -2.0745140403890744E-01 a       764     1     6     2     4
 -5.0312010978015098E-01 a       765     1     6     2     5
 -2.0529108128242385E-01 a       766     1     6     2     6
 -7.5830221816305401E-02 a       767     1     6     2     7
 -3.7412919054147376E-01 a       768     1     6     2     8
 -4.1064674742433893E-01 a       769     1     6     2     9
  2.0730990223614819E-02 a       770     1     6     2    10
 -4.0005950069995314E-02 a       771     1     6     2    11
  2.3199965333444217E-01 a       772     1     6     2    12
  6.1335766492895272E-01 a       773     1     6     2    13
  5.8869459394270085E-01 a       774     1     6     2    14
  6.4876947137702756E-02 a       775     1     6     2    15
 -3.0764664634184785E-01 a       776     1     6     2    16
  4.3597848724445748E-01 a       777     1     6     2    17
  2.4413709123314101E-01 a       778     1     6     2    18
  2.2952448548533169E-01 a       779     1     6     2    19
 -4.7840246038665168E-01 a       780     1     6     2    20
 -1.9903993389169247E-01 a       781     1     7     2     1
 -2.8791355860088735E-01 a       782     1     7     2     2
 -4.6212454648935586E-01 a       783     1     7     2     3
 -5.5333967382922522E-01 a       784     1     7     2     4
  4.1315736638878936E-01 a       785     1     7     2     5
 -5.2635376713712501E-01 a       786     1     7     2     6
  2.9742318671835805E-01 a       787     1     7     2     7
 -6.2441294534063574E-01 a       788     1     7     2     8
  4.5527592136589565E-02 a       789     1     7     2     9
  2.9483161039380634E-01 a       790     1     7     2    10
 -3.2410180776878561E-01 a       791     1     7     2    11
 -1.7893499180523911E-01 a       792     1     7     2    12
 -3.8848201829230117E-01 a       793     1     7     2    13
  6.9095815015327311E-01 a       794     1     7     2    14
 -5.9697215858578245E-01 a       795     1     7     2    15
 -4.2854964484184016E-01 a       796     1     7     2    16
  2.5825412862245649E-02 a       797     1     7     2    17
 -4.9228440115504885E-01 a       798     1     7     2    18
 -1.5110977412832288E-01 a       799     1     7     2    19
  5.4971249502541931E-02 a       800     1     7     2    20
 -5.5739822006607498E-01 a       801     1     8     2     1
 -5.6249634424965911E-01 a       802     1     8     2     2
 -4.8030082034687310E-01 a       803     1     8     2     3
 -2.7951837033777606E-02 a       804     1     8     2     4
  2.4050226350911322E-01 a       805     1     8     2     5
  1.1842025309911447E-01 a       806     1     8     2     6
 -4.0704571521927574E-01 a       807     1     8     2     7
 -3.1744663191463934E-01 a       808     1     8     2     8
 -6.3451593299572029E-01 a       809     1     8     2     9
 -2.0961390972691113E-01 a       810     1     8     2    10
 -7.9076906563066696E-01 a       811     1     8     2    11
 -4.3547742666084532E-01 a       812     1     8     2    12
  4.3543746640177211E-02 a       813     1     8     2    13
  1.7076192400333123E-01 a       814     1     8     2    14
 -4.3389036753324917E-01 a       815     1     8     2    15
  4.6439383265169087E-01 a       816     1     8     2    16
 -4.4002359333087132E-02 a       817     1     8     2    17
  3.6196998867332131E-01 a       818     1     8     2    18
 -6.1848801867501169E-01 a       819     1     8     2    19
  4.4243712101986499E-01 a       820     1     8     2    20
  3.9327117544679102E-02 a       821     1     9     2     1
 -1.1512711604585797E-01 a       822     1     9     2     2
 -6.1178698899381001E-01 a       823     1     9     2     3
 -5.0038144051285760E-01 a       824     1     9     2     4
 -3.9816325321509993E-01 a       825     1     9     2     5
 -9.0735550603712134E-02 a       826     1     9     2     6
 -5.2970589065721219E-01 a       827     1     9     2     7
  2.8894645783808237E-01 a       828     1     9     2     8
  8.3845377163944496E-02 a       829     1     9     2     9
 -3.3671145053754853E-01 a       830     1     9     2    10
 -5.4049798453696851E-01 a       831     1     9     2    11
  8.0671786436063375E-02 a       832     1     9     2    12
 -9.6991675601962549E-02 a       833     1     9     2    13
 -2.8018058946810520E-01 a       834     1     9     2    14
  4.7026412884840108E-01 a       835     1     9     2    15
 -1.5364883934525428E-01 a       836     1     9     2    16
  4.2001115688395103E-02 a       837     1     9     2    17
  3.1972268317966079E-01 a       838     1     9     2    18
  5.1657670779001064E-01 a       839     1     9     2    19
 -1.6140779632781810E-01 a       840     1     9     2    20
  3.3033084547525532E-01 a       841     1    10     2     1
  5.5431131869201022E-01 a       842     1    10     2     2
  1.3914425285215487E-01 a       843     1    10     2     3
 -2.1972468824967498E-01 a       844     1    10     2     4
  3.3425489011699283E-01 a       845     1    10     2     5
 -3.9000288969814700E-01 a       846     1    10     2     6
 -4.3277124778607134E-01 a       847     1    10     2     7
  4.4254506166889335E-02 a       848     1    10     2     8
  1.3647136748044417E-01 a       849     1    10     2     9
  1.4693837788586830E-01 a       850     1    10     2    10
  8.8664534189547076E-02 a       851     1    10     2    11
  4.9807741120629800E-01 a       852     1    10     2    12
 -3.4383516464409469E-01 a       853     1    10     2    13
 -4.1472286800079122E-01 a       854     1    10     2    14
  7.8333298677741603E-01 a       855     1    10     2    15
  1.6105834152959625E-01 a       856     1    10     2    16
  4.6677185186220466E-01 a       857     1    10     2    17
  5.5202877910999246E-02 a       858     1    10     2    18
 -2.0170884130365666E-01 a       859     1    10     2    19
 -2.0405145207192561E-02 a       860     1    10     2    20
  3.8559978351996621E-01 a       861     1    11     2     1
  5.6327804235554679E-01 a       862     1    11     2     2
  3.2265932669579372E-01 a       863     1    11     2     3
 -4.4316531200408932E-01 a       864     1    11     2     4
  1.5512350446975456E-01 a       865     1    11     2     5
 -7.7471443984981614E-01 a       866     1    11     2     6
 -5.6230959128185021E-01 a       867     1    11     2     7
  1.9844987863965352E-01 a       868     1    11     2     8
 -5.3879106678138541E-02 a       869     1    11     2     9
  2.1439497720911979E-01 a       870     1    11     2    10
 -3.9146918813961223E-01 a       871     1    11     2    11
 -4.8668092403857083E-01 a       872     1    11     2    12
 -4.6369377359355368E-01 a       873     1    11     2    13
  2.1596518044346996E-01 a       874     1    11     2    14
  6.7508466409143715E-03 a       875     1    11     2    15
 -4.4242899674168978E-01 a       876     1    11     2    16
  6.6146637374571782E-01 a       877     1    11     2    17
 -1.0118041900540699E-02 a       878     1    11     2    18
  4.4476439676866286E-01 a       879     1    11     2    19
  7.2160917556607684E-01 a       880     1    11     2    20
 -7.8134403069213178E-03 a       881     1    12     2     1
  9.0935501154983611E-02 a       882     1    12     2     2
  9.6072487689484620E-02 a       883     1    12     2     3
  2.7352942124866897E-01 a       884     1    12     2     4
  3.6710202157827632E-01 a       885     1    12     2     5
 -1.1077436098093857E-01 a       886     1    12     2     6
  8.8761053430300454E-02 a       887     1    12     2     7
  3.6519796247939773E-01 a       888     1    12     2     8
  2.4877424200207277E-01 a       889     1    12     2     9
 -2.2920790855358111E-01 a       890     1    12     2    10
 -3.9328783283101312E-02 a       891     1    12     2    11
 -6.5331502198542235E-01 a       892     1    12     2    12
 -4.0648324724984164E-01 a       893     1    12     2    13
  3.8101441481340981E-01 a       894     1    12     2    14
 -2.3840171253176301E-01 a       895     1    12     2    15
  3.3675904865545420E-01 a       896     1    12     2    16
  4.6998096823151320E-01 a       897     1    12     2    17
  4.3119321281122236E-01 a       898     1    12     2    18
 -3.5255033620096088E-01 a       899     1    12     2    19
 -6.4428612953150677E-01 a       900     1    12     2    20
 -9.0355528915574496E-02 a       901     1    13     2     1
  4.0078041451185792E-01 a       902     1    13     2     2
 -1.3661346103045008E-01 a       903     1    13     2     3
 -6.8932144708572896E-01 a       904     1    13     2     4
  2.5377933795015239E-01 a       905     1    13     2     5
  1.8323109891046052E-01 a       906     1    13     2     6
  1.2487539953783075E-01 a       907     1    13     2     7
 -4.7709682699548861E-01 a       908     1    13     2     8
  4.1599515435220030E-01 a       909     1    13     2     9
 -4.3837846678603154E-01 a       910     1    13     2    10
  1.2315822684407619E-01 a       911     1    13     2    11
 -2.6894477766494274E-01 a       912     1    13     2    12
 -8.4859611997284234E-01 a       913     1    13     2    13
 -6.2989950978774767E-01 a       914     1    13     2    14
  8.1144637475691603E-02 a       915     1    13     2    15
 -3.2612630590373226E-01 a       916     1    13     2    16
  2.9169853600517220E-01 a       917     1    13     2    17
 -5.9045153437972386E-01 a       918     1    13     2    18
  6.6585697981361947E-01 a       919     1    13     2    19
 -9.9975554561901603E-02 a       920     1    13     2    20
 -3.9949098397149813E-01 a       921     1    14     2     1
  3.5811566387367094E-01 a       922     1    14     2     2
  2.6254235504918644E-01 a       923     1    14     2     3
  2.3109859115127365E-01 a       924     1    14     2     4
 -2.3069956549289267E-01 a       925     1    14     2     5
 -1.0149399389954110E-01 a       926     1    14     2     6
  4.8463077960347195E-01 a       927     1    14     2     7
 -3.1018873424168464E-01 a       928     1    14     2     8
 -3.4409578028168852E-01 a       929     1    14     2     9
 -2.3420095665345816E-01 a       930     1    14     2    10
 -5.1294132474599165E-02 a       931     1    14     2    11
 -2.2366215200787548E-01 a       932     1    14     2    12
  2.8186482340902291E-01 a       933     1    14     2    13
  2.3098595078029760E-01 a       934     1    14     2    14
  4.6900713080747808E-01 a       935     1    14     2    15
 -7.8418721008340200E-02 a       936     1    14     2    16
  2.4467720903283213E-01 a       937     1    14     2    17
 -3.3179146701254630E-01 a       938     1    14     2    18
 -4.6705333038155039E-01 a       939     1    14     2    19
 -2.0466187055163321E-01 a       940     1    14     2    20
  6.6003111971785455E-01 a       941     1    15     2     1
 -3.6142057032894520E-01 a       942     1    15     2     2
 -3.6660970235576895E-01 a       943     1    15     2     3
  3.0333211004373356E-01 a       944     1    15     2     4
 -3.3086266696276417E-01 a       945     1    15     2     5
  3.2813309103960436E-01 a       946     1    15     2     6
 -3.6128933179863415E-01 a       947     1    15     2     7
  3.7261197205696578E-01 a       948     1    15     2     8
  5.9578965618585145E-01 a       949     1    15     2     9
 -2.6079558806875064E-01 a       950     1    15     2    10
 -1.3526413283094829E-01 a       951     1    15     2    11
 -6.3325486079240523E-01 a       952     1    15     2    12
 -2.6920979903922798E-01 a       953     1    15     2    13
  3.8904067301946044E-01 a       954     1    15     2    14
  3.8469426653317340E-01 a       955     1    15     2    15
  1.0553625280045967E-01 a       956     1    15     2    16
 -2.4765289507230739E-01 a       957     1    15     2    17
  4.8271233834672256E-01 a       958     1    15     2    18
  1.3061118744241440E-01 a       959     1    15     2    19
 -4.7273597447150428E-01 a       960     1    15     2    20
  3.6015371575320837E-02 a       961     1    16     2     1
  1.7084420805311853E-01 a       962     1    16     2     2
  5.5181097844938398E-01 a       963     1    16     2     3
 -4.3212741954403361E-01 a       964     1    16     2     4
 -6.3393142311649997E-02 a       965     1    16     2     5
 -6.3478629914229354E-02 a       966     1    16     2     6
  2.6300024608870742E-01 a       967     1    16     2     7
 -5.3846230083592772E-01 a       968     1    16     2     8
 -3.4697461427453467E-02 a       969     1    16     2     9
 -3.7643700288405968E-01 a       970     1    16     2    10
 -1.4358715049973597E-01 a       971     1    16     2    11
  4.0041910630556393E-01 a       972     1    16     2    12
  5.2380258524847001E-01 a       973     1    16     2    13
 -1.4873668120363187E-01 a       974     1    16     2    14
  5.0338443430540236E-01 a       975     1    16     2    15
 -3.2485094441584761E-01 a       976     1    16     2    16
 -5.3410730583986266E-01 a       977     1    16     2    17
 -2.0448912315266235E-01 a       978     1    16     2    18
  3.7223523687708604E-01 a       979     1    16     2    19
 -8.9274408840710074E-03 a       980     1    16     2    20
 -5.8356355071197374E-01 a       981     1    17     2     1
  4.9698479157588732E-01 a       982     1    17     2     2
  2.6393526237334775E-01 a       983     1    17     2     3
  7.5104537057051222E-03 a       984     1    17     2     4
 -6.0618993978136215E-01 a       985     1    17     2     5
  4.9248774336437640E-01 a       986     1    17     2     6
  4.5337505719717569E-01 a       987     1    17     2     7
 -2.3307257568018238E-02 a       988     1    17     2     8
 -5.0772020823638719E-01 a       989     1    17     2     9
 -2.6639864588801099E-01 a       990     1    17     2    10
  6.9728183390027054E-01 a       991     1    17     2    11
 -3.1134164315957119E-01 a       992     1    17     2    12
 -1.0890549944189471E-02 a       993     1    17     2    13
  4.1677813060692137E-01 a       994     1    17     2    14
  2.5277547719403182E-01 a       995     1    17     2    15
 -1.2262020058730363E-01 a       996     1    17     2    16
 -1.2711983496438986E-01 a       997     1    17     2    17
 -3.5823957294042846E-01 a       998     1    17     2    18
 -2.4842427993372465E-01 a       999     1    17     2    19
 -7.4653336742473112E-04 a      1000     1    17     2    20
  2.9919735692100402E-01 a      1001     1    18     2     1
  6.9800289704022855E-02 a      1002     1    18     2     2
  1.8756432891722677E-01 a      1003     1    18     2     3
  3.0835499953243212E-01 a      1004     1    18     2     4
 -1.1148833247334976E-01 a      1005     1    18     2     5
 -3.3788495435209120E-02 a      1006     1    18     2     6
 -3.0635203308654418E-01 a      1007     1    18     2     7
 -3.0105442360442963E-01 a      1008     1    18     2     8
 -1.0263237392293519E-01 a      1009     1    18     2     9
 -2.6017003068189948E-01 a      1010     1    18     2    10
 -2.8862678158652053E-03 a      1011     1    18     2    11
 -1.6715823413024203E-01 a      1012     1    18     2    12
  1.2093272801692427E-01 a      1013     1    18     2    13
 -1.9932378672090009E-01 a      1014     1    18     2    14
 -2.7464297463347994E-02 a      1015     1    18     2    15
 -1.7884699860182929E-01 a      1016     1    18     2    16
 -3.7942116746715882E-01 a      1017     1    18     2    17
 -5.9878462417143474E-01 a      1018     1    18     2    18
  1.2093586742807419E-01 a      1019     1    18     2    19
  2.7499097608284534E-01 a      1020     1    18     2    20
  3.7085344912042478E-01 a      1021     1    19     2     1
 -5.8587725378758382E-01 a      1022     1    19     2     2
  1.7498849051688767E-01 a      1023     1    19     2     3
 -5.3986729577274115E-02 a      1024     1    19     2     4
  3.6629843519308114E-01 a      1025     1    19     2     5
 -5.4779797838892330E-01 a      1026     1    19     2     6
  1.1651692990909422E-01 a      1027     1    19     2     7
  6.5199219244087370E-01 a      1028     1    19     2     8
 -2.8314775533331685E-02 a      1029     1    19     2     9
 -5.4593638760185303E-01 a      1030     1    19     2    10
  1.1679928033913264E-02 a      1031     1    19     2    11
  5.1457788589670983E-01 a      1032     1    19     2    12
  7.1841523557410181E-01 a      1033     1    19     2    13
  1.7164511407495306E-01 a      1034     1    19     2    14
 -3.6181874273393638E-01 a      1035     1    19     2    15
  5.4773939969026830E-01 a      1036     1    19     2    16
 -4.4939101598654618E-01 a      1037     1    19     2    17
 -1.4386087347230703E-01 a      1038     1    19     2    18
  3.6160028745621070E-01 a      1039     1    19     2    19
 -3.3937433534613543E-01 a      1040     1    19     2    20
 -1.8434933892912417E-01 a      1041     1    20     2     1
 -2.4326624209950415E-01 a      1042     1    20     2     2
 -2.2235299887693136E-01 a      1043     1    20     2     3
 -1.2002042387511905E-01 a      1044     1    20     2     4
 -2.2462301071855921E-02 a      1045     1    20     2     5
  5.1933288654340148E-01 a      1046     1    20     2     6
 -4.5447338287792066E-01 a      1047     1    20     2     7
 -1.6865595678898723E-01 a      1048     1    20     2     8
 -2.3722750338029130E-01 a      1049     1    20     2     9
 -1.1412644198877456E-02 a      1050     1    20     2    10
 -1.6037696823665840E-01 a      1051     1    20     2    11
  4.0930130535888581E-01 a      1052     1    20     2    12
  4.0494744399701954E-01 a      1053     1    20     2    13
 -7.6657246382445499E-01 a      1054     1    20     2    14
 -5.2791995196096164E-01 a      1055     1    20     2    15
 -3.6676759932174963E-01 a      1056     1    20     2    16
  1.6206070646201987E-02 a      1057     1    20     2    17
 -1.4010257875605581E-01 a      1058     1    20     2    18
 -1.0306099874504521E-01 a      1059     1    20     2    19
 -3.0770886169202011E-01 a      1060     1    20     2    20
 -9.7110983230385695E-01 b      1061     2     1
  3.4389974933537604E-01 b      1062     2     2
  3.6519290241138719E-01 b      1063     2     3
  4.5968710232604632E-01 b      1064     2     4
  1.2028011964521257E+00 b      1065     2     5
  2.5607256005512791E-01 b      1066     2     6
 -5.1756213488870406E-01 b      1067     2     7
  3.3339832793427626E-01 b      1068     2     8
 -1.3037282079238677E+00 b      1069     2     9
  1.1851079723335918E+00 b      1070     2    10
 -6.9008957776165769E-01 b      1071     2    11
  1.3681332006602864E+00 b      1072     2    12
  1.2726834832072136E+00 b      1073     2    13
  1.1170562682837173E+00 b      1074     2    14
  8.0813428808439336E-01 b      1075     2    15
  1.6380504230454804E+00 b      1076     2    16
  2.7693038306770940E-01 b      1077     2    17
 -1.6949089814519647E+00 b      1078     2    18
 -1.8656393272388502E-01 b      1079     2    19
  1.0406087598567733E+00 b      1080     2    20
  2.8128705582400337E-01 a      1081     2     1     3     1
  3.4881539689873597E-01 a      1082     2     2     3     1
 -2.7352546393833921E-01 a      1083     2     3     3     1
  1.9898335248949267E-01 a      1084     2     4     3     1
  4.0915605180116438E-01 a      1085     2     5     3     1
  1.3085622537089805E-01 a      1086     2     6     3     1
 -4.2818764259070602E-01 a      1087     2     7     3     1
  3.9233940131810779E-01 a      1088     2     8     3     1
 -4.9990859174024976E-01 a      1089     2     9     3     1
 -3.4824353586274981E-01 a      1090     2    10     3     1
 -9.7536557290606313E-02 a      1091     2    11     3     1
  4.0237483564035831E-01 a      1092     2    12     3     1
  9.8774748144663949E-01 a      1093     2    13     3     1
  4.9078282534193080E-01 a      1094     2    14     3     1
 -1.1262984361443125E+00 a      1095     2    15     3     1
 -2.9022167049800196E-01 a      1096     2    16     3     1
 -4.6902445017528153E-02 a      1097     2    17     3     1
  6.1425501212534162E-01 a      1098     2    18     3     1
 -1.3935978133636502E+00 a      1099     2    19     3     1
 -1.8110608967230910E-02 a      1100     2    20     3     1
  4.4123577404342940E-01 b      1101     3     1
